{"learner":{"attributes":{"scikit_learn":"{\"_estimator_type\": \"regressor\"}"},"feature_names":["air_temperature_mean_d0_3","precipitation_sum_d0_3","wind_speed_mean_d0_3","wind_gust_max_d0_3","air_temperature_mean_d3_5","precipitation_sum_d3_5","wind_speed_mean_d3_5","sst_at_issue","wave_height_at_issue","current_velocity_at_issue","ndci_latest","ndci_slope_30d","satellite_age_days","valid_pixel_ratio"],"feature_types":["float","float","float","float","float","float","float","float","float","float","float","float","float","float"],"gradient_booster":{"model":{"cats":{"enc":[],"feature_segments":[],"sorted_idx":[]},"gbtree_model_param":{"num_parallel_tree":"1","num_trees":"180"},"iteration_indptr":[0,1,2,3,4,5,6,7,8,9,10,11,12,13,14,15,16,17,18,19,20,21,22,23,24,25,26,27,28,29,30,31,32,33,34,35,36,37,38,39,40,41,42,43,44,45,46,47,48,49,50,51,52,53,54,55,56,57,58,59,60,61,62,63,64,65,66,67,68,69,70,71,72,73,74,75,76,77,78,79,80,81,82,83,84,85,86,87,88,89,90,91,92,93,94,95,96,97,98,99,100,101,102,103,104,105,106,107,108,109,110,111,112,113,114,115,116,117,118,119,120,121,122,123,124,125,126,127,128,129,130,131,132,133,134,135,136,137,138,139,140,141,142,143,144,145,146,147,148,149,150,151,152,153,154,155,156,157,158,159,160,161,162,163,164,165,166,167,168,169,170,171,172,173,174,175,176,177,178,179,180],"tree_info":[0,0,0,0,0,0,0,0,0,0,0,0,0,0,0,0,0,0,0,0,0,0,0,0,0,0,0,0,0,0,0,0,0,0,0,0,0,0,0,0,0,0,0,0,0,0,0,0,0,0,0,0,0,0,0,0,0,0,0,0,0,0,0,0,0,0,0,0,0,0,0,0,0,0,0,0,0,0,0,0,0,0,0,0,0,0,0,0,0,0,0,0,0,0,0,0,0,0,0,0,0,0,0,0,0,0,0,0,0,0,0,0,0,0,0,0,0,0,0,0,0,0,0,0,0,0,0,0,0,0,0,0,0,0,0,0,0,0,0,0,0,0,0,0,0,0,0,0,0,0,0,0,0,0,0,0,0,0,0,0,0,0,0,0,0,0,0,0,0,0,0,0,0,0,0,0,0,0,0,0],"trees":[{"base_weights":[3.7930207E-3,-6.1489286E0,5.1643696E0,2.7412555E0,-8.6038685E0,1.3510895E1,2.8802266E0,-3.9854898E0,6.4554234E0,-2.9013023E0,-1.1843344E1,6.398478E0,1.722535E1,8.366597E0,-5.33629E-1,3.3780706E-1,-8.392292E0,1.2062611E1,2.9719315E0,7.575169E-1,-5.349023E0,-7.9329305E0,-1.4208534E1,1.0297526E1,2.348435E0,2.3542986E1,1.407462E1,1.239469E1,6.156535E0,2.8810437E0,-3.2933686E0,3.375124E-1,-1.4746056E-1,-3.9734995E-1,-8.855565E-1,1.2737886E0,7.858391E-1,5.14925E-1,-5.556994E-3,3.2176638E-1,-1.343733E-1,-6.227398E-1,-2.0372215E-1,-3.8195366E-1,-8.010693E-1,-8.661075E-1,-1.3079315E0,1.0931531E0,5.819759E-1,-5.3350203E-2,4.825926E-1,2.2568467E0,1.7235926E0,9.303276E-1,1.3737329E0,6.4731354E-1,1.1700964E0,2.3958755E-1,6.802274E-1,-7.416239E-2,3.7934524E-1,-5.7847786E-1,-9.2329785E-2],"categories":[],"categories_nodes":[],"categories_segments":[],"categories_sizes":[],"default_left":[0,0,0,0,0,0,0,0,0,0,0,0,0,0,0,0,0,0,0,0,0,0,0,0,0,0,0,0,0,0,0,0,0,0,0,0,0,0,0,0,0,0,0,0,0,0,0,0,0,0,0,0,0,0,0,0,0,0,0,0,0,0,0],"id":0,"left_children":[1,3,5,7,9,11,13,15,17,19,21,23,25,27,29,31,33,35,37,39,41,43,45,47,49,51,53,55,57,59,61,-1,-1,-1,-1,-1,-1,-1,-1,-1,-1,-1,-1,-1,-1,-1,-1,-1,-1,-1,-1,-1,-1,-1,-1,-1,-1,-1,-1,-1,-1,-1,-1],"loss_changes":[8.573565E5,2.6884047E5,2.799255E5,6.6633766E4,1.7827019E5,8.324094E4,2.1597638E5,1.8083098E4,3.352114E4,3.1331322E4,5.6814125E4,1.7093602E4,4.0912125E4,3.929872E4,6.7001914E4,4.07094E3,4.2551133E3,5.5315938E3,1.118053E4,1.1169499E4,1.428477E4,1.5210234E4,2.7581E4,5.518586E3,5.9247617E3,5.8086562E3,1.0290125E4,1.4919656E4,2.1176031E4,2.2523568E4,3.3112895E4,0E0,0E0,0E0,0E0,0E0,0E0,0E0,0E0,0E0,0E0,0E0,0E0,0E0,0E0,0E0,0E0,0E0,0E0,0E0,0E0,0E0,0E0,0E0,0E0,0E0,0E0,0E0,0E0,0E0,0E0,0E0,0E0],"parents":[2147483647,0,0,1,1,2,2,3,3,4,4,5,5,6,6,7,7,8,8,9,9,10,10,11,11,12,12,13,13,14,14,15,15,16,16,17,17,18,18,19,19,20,20,21,21,22,22,23,23,24,24,25,25,26,26,27,27,28,28,29,29,30,30],"right_children":[2,4,6,8,10,12,14,16,18,20,22,24,26,28,30,32,34,36,38,40,42,44,46,48,50,52,54,56,58,60,62,-1,-1,-1,-1,-1,-1,-1,-1,-1,-1,-1,-1,-1,-1,-1,-1,-1,-1,-1,-1,-1,-1,-1,-1,-1,-1,-1,-1,-1,-1,-1,-1],"split_conditions":[2.8592026E1,1.0020058E1,1.0020058E1,4.124955E-2,5.4628286E0,3.6112055E-2,5.6320467E0,7.306422E0,5.349499E0,1.2163483E0,1.131841E0,7.84491E0,5.1700387E0,1.0472423E0,1.335072E0,1.1187384E0,1.2763E0,5.6631126E0,1.4301089E0,8.459991E-1,2.9809238E1,7.970251E-1,7.8801084E-1,9.008252E-1,3.038184E1,8.8416326E-1,3.0539457E1,3.0534178E1,3.0958797E1,3.0376278E1,3.0455572E1,3.375124E-1,-1.4746056E-1,-3.9734995E-1,-8.855565E-1,1.2737886E0,7.858391E-1,5.14925E-1,-5.556994E-3,3.2176638E-1,-1.343733E-1,-6.227398E-1,-2.0372215E-1,-3.8195366E-1,-8.010693E-1,-8.661075E-1,-1.3079315E0,1.0931531E0,5.819759E-1,-5.3350203E-2,4.825926E-1,2.2568467E0,1.7235926E0,9.303276E-1,1.3737329E0,6.4731354E-1,1.1700964E0,2.3958755E-1,6.802274E-1,-7.416239E-2,3.7934524E-1,-5.7847786E-1,-9.2329785E-2],"split_indices":[7,12,12,10,2,10,2,2,2,8,8,2,2,8,8,8,8,6,8,9,4,9,9,9,4,8,4,7,7,7,7,0,0,0,0,0,0,0,0,0,0,0,0,0,0,0,0,0,0,0,0,0,0,0,0,0,0,0,0,0,0,0,0],"split_type":[0,0,0,0,0,0,0,0,0,0,0,0,0,0,0,0,0,0,0,0,0,0,0,0,0,0,0,0,0,0,0,0,0,0,0,0,0,0,0,0,0,0,0,0,0,0,0,0,0,0,0,0,0,0,0,0,0,0,0,0,0,0,0],"sum_hessian":[2.7E4,1.2316E4,1.4684E4,2.665E3,9.651E3,3.154E3,1.153E4,9.48E2,1.717E3,3.497E3,6.154E3,1.083E3,2.071E3,4.422E3,7.108E3,4.79E2,4.69E2,6.57E2,1.06E3,1.402E3,2.095E3,2.321E3,3.833E3,5.51E2,5.32E2,6.87E2,1.384E3,1.565E3,2.857E3,3.177E3,3.931E3,1.72E2,3.07E2,2.07E2,2.62E2,2.39E2,4.18E2,4.95E2,5.65E2,5.99E2,8.03E2,1.12E3,9.75E2,9.23E2,1.398E3,1.488E3,2.345E3,2.59E2,2.92E2,2.93E2,2.39E2,2.02E2,4.85E2,7.76E2,6.08E2,5.36E2,1.029E3,1.218E3,1.639E3,1.043E3,2.134E3,1.383E3,2.548E3],"tree_param":{"num_deleted":"0","num_feature":"14","num_nodes":"63","size_leaf_vector":"1"}},{"base_weights":[-2.2081133E-2,-5.013864E0,5.2924695E0,3.1516647E0,-7.2918754E0,1.297967E1,3.1976242E0,-2.0866363E0,7.4023814E0,-2.702697E0,-1.0801334E1,6.034353E0,1.6016928E1,8.981764E0,4.152986E-1,1.8905456E0,-6.339105E0,1.1767009E1,3.7339094E0,1.0519972E0,-4.8491244E0,-7.707919E0,-1.3325638E1,1.0581851E1,2.949139E0,2.192391E1,1.30328E1,1.2446539E1,6.5410323E0,3.770141E0,-1.9597377E0,4.5684004E-1,-3.3572502E-2,-6.981782E-1,-2.5839463E-1,-4.611559E-1,1.0113494E0,-8.5548955E-1,3.582749E-1,-5.1377475E-2,3.937609E-1,-5.732585E-1,-1.4817977E-1,-8.5795116E-1,-4.1338873E-1,-1.2138783E0,-7.835437E-1,1.1207465E0,6.50574E-1,4.799603E-1,-2.6912889E-2,5.6984085E-1,1.8082026E0,-1.7428443E-2,1.1171665E0,7.606111E-1,1.1898046E0,7.698644E-1,3.4099975E-1,5.7219005E-1,1.2005374E-1,9.230512E-2,-3.1602886E-1],"categories":[],"categories_nodes":[],"categories_segments":[],"categories_sizes":[],"default_left":[0,0,0,0,0,0,0,0,0,0,0,0,0,0,0,0,0,0,0,0,0,0,0,0,0,0,0,0,0,0,0,0,0,0,0,0,0,0,0,0,0,0,0,0,0,0,0,0,0,0,0,0,0,0,0,0,0,0,0,0,0,0,0],"id":1,"left_children":[1,3,5,7,9,11,13,15,17,19,21,23,25,27,29,31,33,35,37,39,41,43,45,47,49,51,53,55,57,59,61,-1,-1,-1,-1,-1,-1,-1,-1,-1,-1,-1,-1,-1,-1,-1,-1,-1,-1,-1,-1,-1,-1,-1,-1,-1,-1,-1,-1,-1,-1,-1,-1],"loss_changes":[7.149589E5,2.5852331E5,2.101574E5,6.752757E4,1.7497356E5,5.8863125E4,1.6509805E5,2.299654E4,2.6759344E4,3.7963832E4,4.79755E4,1.1922355E4,3.39815E4,2.8095938E4,5.520881E4,6.206277E3,4.850092E3,1.1790758E4,9.833563E3,1.1241239E4,2.0793656E4,2.1164875E4,2.1965812E4,2.774371E3,5.103281E3,6.3778125E3,1.5979703E4,9.66925E3,1.3703125E4,2.2034387E4,2.5149469E4,0E0,0E0,0E0,0E0,0E0,0E0,0E0,0E0,0E0,0E0,0E0,0E0,0E0,0E0,0E0,0E0,0E0,0E0,0E0,0E0,0E0,0E0,0E0,0E0,0E0,0E0,0E0,0E0,0E0,0E0,0E0,0E0],"parents":[2147483647,0,0,1,1,2,2,3,3,4,4,5,5,6,6,7,7,8,8,9,9,10,10,11,11,12,12,13,13,14,14,15,15,16,16,17,17,18,18,19,19,20,20,21,21,22,22,23,23,24,24,25,25,26,26,27,27,28,28,29,29,30,30],"right_children":[2,4,6,8,10,12,14,16,18,20,22,24,26,28,30,32,34,36,38,40,42,44,46,48,50,52,54,56,58,60,62,-1,-1,-1,-1,-1,-1,-1,-1,-1,-1,-1,-1,-1,-1,-1,-1,-1,-1,-1,-1,-1,-1,-1,-1,-1,-1,-1,-1,-1,-1,-1,-1],"split_conditions":[2.9159492E1,1.0020058E1,1.0020058E1,6.3843384E-2,6.526007E0,2.6352063E-2,4.77555E0,7.7252264E0,6.6448164E0,1.0831214E0,1.3457183E0,6.3432527E0,5.225356E0,1.2524539E0,1.2285848E0,7.58298E-1,1.2614229E-2,4.8445385E-2,4.8445385E-2,2.7587168E1,2.6960638E1,2.8906862E1,2.7360912E1,6.3076954E0,1.6051897E0,4.8445385E-2,4.8445385E-2,2.911169E1,7.8801084E-1,7.7158755E-1,7.6479983E-1,4.5684004E-1,-3.3572502E-2,-6.981782E-1,-2.5839463E-1,-4.611559E-1,1.0113494E0,-8.5548955E-1,3.582749E-1,-5.1377475E-2,3.937609E-1,-5.732585E-1,-1.4817977E-1,-8.5795116E-1,-4.1338873E-1,-1.2138783E0,-7.835437E-1,1.1207465E0,6.50574E-1,4.799603E-1,-2.6912889E-2,5.6984085E-1,1.8082026E0,-1.7428443E-2,1.1171665E0,7.606111E-1,1.1898046E0,7.698644E-1,3.4099975E-1,5.7219005E-1,1.2005374E-1,9.230512E-2,-3.1602886E-1],"split_indices":[7,12,12,10,2,10,2,2,2,8,8,2,2,8,8,9,10,13,13,7,7,0,7,6,8,13,13,0,9,9,9,0,0,0,0,0,0,0,0,0,0,0,0,0,0,0,0,0,0,0,0,0,0,0,0,0,0,0,0,0,0,0,0],"split_type":[0,0,0,0,0,0,0,0,0,0,0,0,0,0,0,0,0,0,0,0,0,0,0,0,0,0,0,0,0,0,0,0,0,0,0,0,0,0,0,0,0,0,0,0,0,0,0,0,0,0,0,0,0,0,0,0,0,0,0,0,0,0,0],"sum_hessian":[2.6948E4,1.3896E4,1.3052E4,3.031E3,1.0865E4,2.794E3,1.0258E4,1.358E3,1.673E3,4.709E3,6.156E3,8.51E2,1.943E3,3.331E3,6.927E3,7.02E2,6.56E2,7.63E2,9.1E2,1.713E3,2.996E3,2.768E3,3.388E3,3.43E2,5.08E2,6.5E2,1.293E3,1.375E3,1.956E3,2.871E3,4.056E3,2.64E2,4.38E2,3.7E2,2.86E2,3.6E1,7.27E2,4.4E1,8.66E2,1.192E3,5.21E2,1.689E3,1.307E3,1.264E3,1.504E3,2.222E3,1.166E3,1.41E2,2.02E2,2.63E2,2.45E2,2.9E1,6.21E2,8.5E1,1.208E3,6.24E2,7.51E2,8.3E2,1.126E3,1.152E3,1.719E3,1.582E3,2.474E3],"tree_param":{"num_deleted":"0","num_feature":"14","num_nodes":"63","size_leaf_vector":"1"}},{"base_weights":[1.103329E-2,7.242584E0,-1.9708972E0,2.3034284E0,1.1047608E1,2.5723193E0,-5.1087594E0,5.8809342E0,-1.0218605E0,1.6312426E1,8.50541E0,2.4764398E-1,5.4255652E0,-1.8567313E0,-7.2223973E0,8.982033E0,3.683687E0,1.9408823E0,-3.638333E0,6.771763E-1,1.6937174E1,-4.221103E0,9.256766E0,3.9287844E0,-1.5768384E0,9.387365E0,3.6393979E0,-4.510887E0,3.8635224E-1,-4.1376724E0,-9.387973E0,5.2791286E-1,9.8733383E-1,8.987921E-2,5.553205E-1,-8.4376745E-2,4.206489E-1,-3.691041E-2,-4.8015812E-1,-1.0354349E-1,1.0177369E0,1.1781105E0,1.6483635E0,-2.6645875E-2,-5.852344E-1,1.0239757E0,5.4565436E-1,5.538932E-1,1.3172527E-1,1.1614271E-1,-2.9697812E-1,5.2540684E-1,9.5640194E-1,7.4982315E-2,4.8931798E-1,-1.0588398E-1,-5.304711E-1,-1.5783735E-1,2.5012076E-1,-5.366048E-1,-1.1318316E-1,-9.5731944E-1,-5.551522E-1],"categories":[],"categories_nodes":[],"categories_segments":[],"categories_sizes":[],"default_left":[0,0,0,0,0,0,0,0,0,0,0,0,0,0,0,0,0,0,0,0,0,0,0,0,0,0,0,0,0,0,0,0,0,0,0,0,0,0,0,0,0,0,0,0,0,0,0,0,0,0,0,0,0,0,0,0,0,0,0,0,0,0,0],"id":2,"left_children":[1,3,5,7,9,11,13,15,17,19,21,23,25,27,29,31,33,35,37,39,41,43,45,47,49,51,53,55,57,59,61,-1,-1,-1,-1,-1,-1,-1,-1,-1,-1,-1,-1,-1,-1,-1,-1,-1,-1,-1,-1,-1,-1,-1,-1,-1,-1,-1,-1,-1,-1,-1,-1],"loss_changes":[3.8657428E5,1.0901506E5,3.018124E5,3.0055914E4,4.3721344E4,5.736636E4,8.605791E4,8.25941E3,1.0162098E4,1.0401281E4,2.1190516E4,3.2022203E4,2.744364E4,2.9376277E4,5.065722E4,3.9538008E3,5.9474326E3,6.116841E3,5.223622E3,1.0137741E3,8.0070625E3,1.4893867E3,1.7942625E4,1.0787859E4,2.062309E4,8.653203E3,1.7919078E4,1.5262402E4,1.729979E4,2.1906688E4,2.8063375E4,0E0,0E0,0E0,0E0,0E0,0E0,0E0,0E0,0E0,0E0,0E0,0E0,0E0,0E0,0E0,0E0,0E0,0E0,0E0,0E0,0E0,0E0,0E0,0E0,0E0,0E0,0E0,0E0,0E0,0E0,0E0,0E0],"parents":[2147483647,0,0,1,1,2,2,3,3,4,4,5,5,6,6,7,7,8,8,9,9,10,10,11,11,12,12,13,13,14,14,15,15,16,16,17,17,18,18,19,19,20,20,21,21,22,22,23,23,24,24,25,25,26,26,27,27,28,28,29,29,30,30],"right_children":[2,4,6,8,10,12,14,16,18,20,22,24,26,28,30,32,34,36,38,40,42,44,46,48,50,52,54,56,58,60,62,-1,-1,-1,-1,-1,-1,-1,-1,-1,-1,-1,-1,-1,-1,-1,-1,-1,-1,-1,-1,-1,-1,-1,-1,-1,-1,-1,-1,-1,-1,-1,-1],"split_conditions":[1.0020058E1,5.8560885E-2,6.041896E0,7.2486334E0,4.8295217E0,3.0018412E1,1.178415E0,8.775068E-1,1.3587389E0,4.8445385E-2,4.8445385E-2,6.477978E-1,9.3180245E-1,2.8906862E1,8.2352763E-1,3.090041E1,1.0601546E-2,3.0064932E1,9.4958806E-1,3.515588E1,3.1043785E1,1.2285848E0,1.2403576E0,1.3457183E0,1.2285848E0,2.9570774E1,2.9318228E1,7.970251E-1,2.995801E1,2.9522501E1,2.9348822E1,5.2791286E-1,9.8733383E-1,8.987921E-2,5.553205E-1,-8.4376745E-2,4.206489E-1,-3.691041E-2,-4.8015812E-1,-1.0354349E-1,1.0177369E0,1.1781105E0,1.6483635E0,-2.6645875E-2,-5.852344E-1,1.0239757E0,5.4565436E-1,5.538932E-1,1.3172527E-1,1.1614271E-1,-2.9697812E-1,5.2540684E-1,9.5640194E-1,7.4982315E-2,4.8931798E-1,-1.0588398E-1,-5.304711E-1,-1.5783735E-1,2.5012076E-1,-5.366048E-1,-1.1318316E-1,-9.5731944E-1,-5.551522E-1],"split_indices":[12,10,2,2,2,4,8,9,8,13,13,9,8,0,9,0,10,4,9,0,4,8,8,8,8,0,0,9,4,0,4,0,0,0,0,0,0,0,0,0,0,0,0,0,0,0,0,0,0,0,0,0,0,0,0,0,0,0,0,0,0,0,0],"split_type":[0,0,0,0,0,0,0,0,0,0,0,0,0,0,0,0,0,0,0,0,0,0,0,0,0,0,0,0,0,0,0,0,0,0,0,0,0,0,0,0,0,0,0,0,0,0,0,0,0,0,0,0,0,0,0,0,0,0,0,0,0,0,0],"sum_hessian":[2.697E4,5.801E3,2.1169E4,2.525E3,3.276E3,8.648E3,1.2521E4,1.216E3,1.309E3,1.065E3,2.211E3,4.766E3,3.882E3,4.933E3,7.588E3,5.03E2,7.13E2,6.14E2,6.95E2,4.1E1,1.024E3,1.23E2,2.088E3,1.579E3,3.187E3,1.205E3,2.677E3,2.259E3,2.674E3,3.131E3,4.457E3,2.96E2,2.07E2,4E2,3.13E2,3.23E2,2.91E2,2.97E2,3.98E2,3.6E1,5E0,6.42E2,3.82E2,5.5E1,6.8E1,8.49E2,1.239E3,6.82E2,8.97E2,1.318E3,1.869E3,5.76E2,6.29E2,1.281E3,1.396E3,9.03E2,1.356E3,1.437E3,1.237E3,1.61E3,1.521E3,2.169E3,2.288E3],"tree_param":{"num_deleted":"0","num_feature":"14","num_nodes":"63","size_leaf_vector":"1"}},{"base_weights":[5.802744E-3,-5.2511997E0,4.361299E0,1.647928E0,-7.176693E0,1.0886306E1,2.5836248E0,-4.119849E0,4.339286E0,-2.0323842E0,-9.528672E0,6.028387E0,1.4298782E1,7.6965823E0,2.5631553E-1,-5.4005855E-1,-7.549925E0,9.020551E0,1.788683E0,1.0433357E0,-3.9509068E0,-6.3239627E0,-1.1372266E1,9.989476E0,3.5105119E0,1.9403034E1,1.1704012E1,4.6876235E0,9.844843E0,-2.8684435E0,2.2677498E0,1.9930859E-1,-2.5918618E-1,-3.884849E-1,-8.09944E-1,-4.1097996E-1,7.701168E-1,3.79868E-1,-6.141345E-2,3.324775E-1,-7.329227E-2,1.9968027E-2,-4.286666E-1,-2.4739337E-1,-6.395191E-1,-6.431085E-1,-1.0378628E0,4.2675713E-1,9.529597E-1,6.1744756E-1,1.3288248E-1,5.0664204E-1,1.5986825E0,-9.957675E-2,1.0015969E0,6.6575605E-1,2.438848E-1,1.0033271E0,6.018145E-1,-7.15276E-3,-4.2403692E-1,-2.0440008E-2,3.7843907E-1],"categories":[],"categories_nodes":[],"categories_segments":[],"categories_sizes":[],"default_left":[0,0,0,0,0,0,0,0,0,0,0,0,0,0,0,0,0,0,0,0,0,0,0,0,0,0,0,0,0,0,0,0,0,0,0,0,0,0,0,0,0,0,0,0,0,0,0,0,0,0,0,0,0,0,0,0,0,0,0,0,0,0,0],"id":3,"left_children":[1,3,5,7,9,11,13,15,17,19,21,23,25,27,29,31,33,35,37,39,41,43,45,47,49,51,53,55,57,59,61,-1,-1,-1,-1,-1,-1,-1,-1,-1,-1,-1,-1,-1,-1,-1,-1,-1,-1,-1,-1,-1,-1,-1,-1,-1,-1,-1,-1,-1,-1,-1,-1],"loss_changes":[6.1816925E5,1.6251778E5,1.712361E5,4.1464695E4,1.1569841E5,5.2315344E4,1.3809097E5,1.0433031E4,2.1726691E4,1.7718438E4,3.8703438E4,1.2990359E4,2.4354469E4,2.3418266E4,5.0137637E4,3.4208503E3,2.9606309E3,5.556746E3,8.931465E3,7.0422515E3,1.0932443E4,1.2922125E4,2.2123688E4,4.4737812E3,6.2126553E3,4.6077812E3,1.3042844E4,8.993363E3,1.3162891E4,2.1113586E4,3.015826E4,0E0,0E0,0E0,0E0,0E0,0E0,0E0,0E0,0E0,0E0,0E0,0E0,0E0,0E0,0E0,0E0,0E0,0E0,0E0,0E0,0E0,0E0,0E0,0E0,0E0,0E0,0E0,0E0,0E0,0E0,0E0,0E0],"parents":[2147483647,0,0,1,1,2,2,3,3,4,4,5,5,6,6,7,7,8,8,9,9,10,10,11,11,12,12,13,13,14,14,15,15,16,16,17,17,18,18,19,19,20,20,21,21,22,22,23,23,24,24,25,25,26,26,27,27,28,28,29,29,30,30],"right_children":[2,4,6,8,10,12,14,16,18,20,22,24,26,28,30,32,34,36,38,40,42,44,46,48,50,52,54,56,58,60,62,-1,-1,-1,-1,-1,-1,-1,-1,-1,-1,-1,-1,-1,-1,-1,-1,-1,-1,-1,-1,-1,-1,-1,-1,-1,-1,-1,-1,-1,-1,-1,-1],"split_conditions":[2.8548092E1,1.0020058E1,1.0020058E1,3.113099E-2,4.77555E0,5.379574E-2,4.5971775E0,7.1239696E0,5.003101E0,7.4978215E-1,1.0947894E0,6.041896E0,5.225356E0,3.0883018E1,3.068588E1,1.392386E0,1.369603E0,4.8445385E-2,1.4043472E0,5.8268247E0,8.020084E-1,5.1334987E0,6.647107E-1,3.0135607E1,9.0791345E-1,4.8445385E-2,4.8445385E-2,4.47567E0,6.9552827E0,1.392386E0,2.9553816E1,1.9930859E-1,-2.5918618E-1,-3.884849E-1,-8.09944E-1,-4.1097996E-1,7.701168E-1,3.79868E-1,-6.141345E-2,3.324775E-1,-7.329227E-2,1.9968027E-2,-4.286666E-1,-2.4739337E-1,-6.395191E-1,-6.431085E-1,-1.0378628E0,4.2675713E-1,9.529597E-1,6.1744756E-1,1.3288248E-1,5.0664204E-1,1.5986825E0,-9.957675E-2,1.0015969E0,6.6575605E-1,2.438848E-1,1.0033271E0,6.018145E-1,-7.15276E-3,-4.2403692E-1,-2.0440008E-2,3.7843907E-1],"split_indices":[7,12,12,10,2,10,2,2,2,9,8,2,2,7,7,8,8,13,8,6,8,6,9,7,8,13,13,6,6,8,4,0,0,0,0,0,0,0,0,0,0,0,0,0,0,0,0,0,0,0,0,0,0,0,0,0,0,0,0,0,0,0,0],"split_type":[0,0,0,0,0,0,0,0,0,0,0,0,0,0,0,0,0,0,0,0,0,0,0,0,0,0,0,0,0,0,0,0,0,0,0,0,0,0,0,0,0,0,0,0,0,0,0,0,0,0,0,0,0,0,0,0,0,0,0,0,0,0,0],"sum_hessian":[2.6996E4,1.2232E4,1.4764E4,2.669E3,9.563E3,3.16E3,1.1604E4,8.49E2,1.82E3,3.001E3,6.562E3,1.305E3,1.855E3,3.629E3,7.975E3,4.16E2,4.33E2,6.41E2,1.179E3,1.153E3,1.848E3,2.398E3,4.164E3,5.06E2,7.99E2,6.23E2,1.232E3,1.513E3,2.116E3,3.123E3,4.852E3,1.96E2,2.2E2,2.13E2,2.2E2,2.6E1,6.15E2,5.46E2,6.33E2,4.45E2,7.08E2,4.64E2,1.384E3,8.18E2,1.58E3,1.353E3,2.811E3,1.49E2,3.57E2,2.43E2,5.56E2,2.7E1,5.96E2,7.3E1,1.159E3,4.69E2,1.044E3,9.77E2,1.139E3,1.458E3,1.665E3,2.397E3,2.455E3],"tree_param":{"num_deleted":"0","num_feature":"14","num_nodes":"63","size_leaf_vector":"1"}},{"base_weights":[2.5340808E-3,-5.2551084E0,3.7204406E0,1.1983234E0,-7.0410495E0,9.757607E0,2.045797E0,-3.828934E0,3.8533015E0,-3.457067E0,-9.880619E0,4.086861E0,1.2205765E1,5.390772E0,-1.0490493E0,-5.577041E-1,-7.217623E0,7.3370776E0,8.4933364E-1,-5.816214E0,-1.163194E0,-1.2407325E1,-7.5557427E0,6.9951267E0,1.0970886E0,1.6363813E1,9.460664E0,2.641003E0,7.651073E0,-3.7917972E0,1.1132082E0,-2.2789304E-1,1.703575E-1,-3.5724407E-1,-7.9268265E-1,-4.6904266E-1,6.4028436E-1,-1.7725675E-1,2.7842957E-1,-2.1927202E-1,-6.126879E-1,1.4088692E-1,-2.5434995E-1,-1.2363125E0,-8.300316E-1,-7.5365406E-1,-3.9196274E-1,7.986233E-1,3.4429148E-1,-1.0485085E-1,3.376066E-1,1.6055549E0,1.1478134E0,1.0070161E0,5.716172E-1,4.0068276E-2,4.0844283E-1,4.0477732E-1,8.16757E-1,-4.8001456E-1,-9.16503E-2,3.0774292E-1,-8.108851E-2],"categories":[],"categories_nodes":[],"categories_segments":[],"categories_sizes":[],"default_left":[0,0,0,0,0,0,0,0,0,0,0,0,0,0,0,0,0,0,0,0,0,0,0,0,0,0,0,0,0,0,0,0,0,0,0,0,0,0,0,0,0,0,0,0,0,0,0,0,0,0,0,0,0,0,0,0,0,0,0,0,0,0,0],"id":4,"left_children":[1,3,5,7,9,11,13,15,17,19,21,23,25,27,29,31,33,35,37,39,41,43,45,47,49,51,53,55,57,59,61,-1,-1,-1,-1,-1,-1,-1,-1,-1,-1,-1,-1,-1,-1,-1,-1,-1,-1,-1,-1,-1,-1,-1,-1,-1,-1,-1,-1,-1,-1,-1,-1],"loss_changes":[5.2928556E5,1.29277875E5,1.6033634E5,3.2475285E4,8.937053E4,4.776278E4,1.2855906E5,9.318612E3,1.6654293E4,2.1017234E4,2.8696094E4,9.035182E3,2.7296469E4,3.7072734E4,3.8262055E4,2.647077E3,3.0142559E3,6.5307344E3,6.9106997E3,1.082923E4,1.1626373E4,1.4368625E4,1.2610422E4,4.1947773E3,3.8704558E3,6.8469062E3,1.0416016E4,1.4206859E4,2.166061E4,1.6612777E4,2.098014E4,0E0,0E0,0E0,0E0,0E0,0E0,0E0,0E0,0E0,0E0,0E0,0E0,0E0,0E0,0E0,0E0,0E0,0E0,0E0,0E0,0E0,0E0,0E0,0E0,0E0,0E0,0E0,0E0,0E0,0E0,0E0,0E0],"parents":[2147483647,0,0,1,1,2,2,3,3,4,4,5,5,6,6,7,7,8,8,9,9,10,10,11,11,12,12,13,13,14,14,15,15,16,16,17,17,18,18,19,19,20,20,21,21,22,22,23,23,24,24,25,25,26,26,27,27,28,28,29,29,30,30],"right_children":[2,4,6,8,10,12,14,16,18,20,22,24,26,28,30,32,34,36,38,40,42,44,46,48,50,52,54,56,58,60,62,-1,-1,-1,-1,-1,-1,-1,-1,-1,-1,-1,-1,-1,-1,-1,-1,-1,-1,-1,-1,-1,-1,-1,-1,-1,-1,-1,-1,-1,-1,-1,-1],"split_conditions":[2.8152615E1,1.0020058E1,1.0020058E1,4.0383466E-2,6.708411E0,2.6352063E-2,7.0667844E0,7.1239696E0,6.7657976E0,2.9660877E1,2.911169E1,7.84491E0,6.2853017E0,3.0849337E1,3.0728235E1,2.6298048E1,1.392386E0,4.8445385E-2,2.9348822E1,1.0831214E0,2.7940118E0,2.813508E1,3.0639204E1,1.4919837E0,3.0687885E1,1.0366118E0,8.775068E-1,2.9912693E1,2.9570774E1,2.9912693E1,6.499325E0,-2.2789304E-1,1.703575E-1,-3.5724407E-1,-7.9268265E-1,-4.6904266E-1,6.4028436E-1,-1.7725675E-1,2.7842957E-1,-2.1927202E-1,-6.126879E-1,1.4088692E-1,-2.5434995E-1,-1.2363125E0,-8.300316E-1,-7.5365406E-1,-3.9196274E-1,7.986233E-1,3.4429148E-1,-1.0485085E-1,3.376066E-1,1.6055549E0,1.1478134E0,1.0070161E0,5.716172E-1,4.0068276E-2,4.0844283E-1,4.0477732E-1,8.16757E-1,-4.8001456E-1,-9.16503E-2,3.0774292E-1,-8.108851E-2],"split_indices":[7,12,12,10,2,10,2,2,2,0,0,2,2,7,7,7,8,13,4,8,2,4,4,8,4,8,9,4,0,4,6,0,0,0,0,0,0,0,0,0,0,0,0,0,0,0,0,0,0,0,0,0,0,0,0,0,0,0,0,0,0,0,0],"split_type":[0,0,0,0,0,0,0,0,0,0,0,0,0,0,0,0,0,0,0,0,0,0,0,0,0,0,0,0,0,0,0,0,0,0,0,0,0,0,0,0,0,0,0,0,0,0,0,0,0,0,0,0,0,0,0,0,0,0,0,0,0,0,0],"sum_hessian":[2.7075E4,1.1215E4,1.586E4,2.431E3,8.784E3,3.443E3,1.2417E4,8.4E2,1.591E3,3.884E3,4.9E3,1.039E3,2.404E3,5.967E3,6.45E3,4.28E2,4.12E2,7.36E2,8.55E2,1.914E3,1.97E3,2.346E3,2.554E3,5.26E2,5.13E2,9.54E2,1.45E3,2.693E3,3.274E3,2.843E3,3.607E3,2.31E2,1.97E2,2.05E2,2.07E2,3.5E1,7.01E2,3.95E2,4.6E2,7.18E2,1.196E3,8.04E2,1.166E3,9.36E2,1.41E3,1.499E3,1.055E3,2.48E2,2.78E2,2.9E2,2.23E2,3.33E2,6.21E2,6.15E2,8.35E2,1.442E3,1.251E3,1.628E3,1.646E3,1.549E3,1.294E3,1.578E3,2.029E3],"tree_param":{"num_deleted":"0","num_feature":"14","num_nodes":"63","size_leaf_vector":"1"}},{"base_weights":[-9.285134E-3,-3.8556585E0,4.304549E0,1.9803439E0,-5.493279E0,8.30229E0,2.1440144E0,-1.851098E0,5.215971E0,-9.237403E-1,-7.469019E0,1.4060857E1,6.833296E0,7.8574777E0,5.289506E-1,2.947402E0,-3.7241569E0,8.414441E0,2.4396474E0,-2.8988416E0,1.8851366E0,-9.594832E0,-4.924794E0,9.358713E0,1.7141357E1,9.962203E0,4.90701E0,3.0349176E0,1.0066035E1,-1.7191759E0,2.9835966E0,1.1622799E-2,4.66662E-1,-8.679344E-2,-4.751049E-1,4.0762427E-1,8.7810034E-1,-7.779238E-1,2.4657573E-1,9.995924E-2,-3.3599803E-1,-7.771509E-2,3.1087393E-1,-5.052128E-1,-8.956098E-1,-1.1280674E-1,-5.274082E-1,1.018739E0,5.7381135E-1,1.1649457E0,1.618071E0,5.8206385E-1,9.666072E-1,1.9108024E-1,5.6339E-1,-5.8392696E-2,3.963065E-1,-8.116457E-2,8.618374E-1,1.4790446E-1,-2.6679495E-1,5.033862E-1,1.0213217E-1],"categories":[],"categories_nodes":[],"categories_segments":[],"categories_sizes":[],"default_left":[0,0,0,0,0,0,0,0,0,0,0,0,0,0,0,0,0,0,0,0,0,0,0,0,0,0,0,0,0,0,0,0,0,0,0,0,0,0,0,0,0,0,0,0,0,0,0,0,0,0,0,0,0,0,0,0,0,0,0,0,0,0,0],"id":5,"left_children":[1,3,5,7,9,11,13,15,17,19,21,23,25,27,29,31,33,35,37,39,41,43,45,47,49,51,53,55,57,59,61,-1,-1,-1,-1,-1,-1,-1,-1,-1,-1,-1,-1,-1,-1,-1,-1,-1,-1,-1,-1,-1,-1,-1,-1,-1,-1,-1,-1,-1,-1,-1,-1],"loss_changes":[4.492451E5,1.3680247E5,1.1021086E5,3.8899414E4,1.0090153E5,3.777622E4,7.64558E4,1.292655E4,1.5084332E4,1.8729346E4,4.2155625E4,1.3006422E4,2.1462078E4,1.9418E4,3.565922E4,3.2661196E3,6.03729E3,6.661453E3,7.157959E3,1.0703162E4,7.971043E3,2.2235156E4,2.0823758E4,2.579912E3,4.0657188E3,7.65325E3,1.1873785E4,4.157634E3,9.818117E3,1.945153E4,1.743808E4,0E0,0E0,0E0,0E0,0E0,0E0,0E0,0E0,0E0,0E0,0E0,0E0,0E0,0E0,0E0,0E0,0E0,0E0,0E0,0E0,0E0,0E0,0E0,0E0,0E0,0E0,0E0,0E0,0E0,0E0,0E0,0E0],"parents":[2147483647,0,0,1,1,2,2,3,3,4,4,5,5,6,6,7,7,8,8,9,9,10,10,11,11,12,12,13,13,14,14,15,15,16,16,17,17,18,18,19,19,20,20,21,21,22,22,23,23,24,24,25,25,26,26,27,27,28,28,29,29,30,30],"right_children":[2,4,6,8,10,12,14,16,18,20,22,24,26,28,30,32,34,36,38,40,42,44,46,48,50,52,54,56,58,60,62,-1,-1,-1,-1,-1,-1,-1,-1,-1,-1,-1,-1,-1,-1,-1,-1,-1,-1,-1,-1,-1,-1,-1,-1,-1,-1,-1,-1,-1,-1,-1,-1],"split_conditions":[2.9278769E1,1.0020058E1,5.225356E0,6.7013375E-2,4.544258E0,1.0020058E1,1.0020058E1,4.0369997E0,6.7657976E0,3.0588385E1,2.6841099E1,5.069419E-2,1.131841E0,2.8576385E-2,2.9609133E1,7.6545514E-3,1.3587389E0,2.8861841E1,4.8445385E-2,3.651842E0,2.86119E1,4.954763E0,9.6713835E-1,6.366954E0,2.9595089E1,2.896065E1,2.8762732E1,2.7476408E1,4.8445385E-2,8.9564973E-1,1.0366118E0,1.1622799E-2,4.66662E-1,-8.679344E-2,-4.751049E-1,4.0762427E-1,8.7810034E-1,-7.779238E-1,2.4657573E-1,9.995924E-2,-3.3599803E-1,-7.771509E-2,3.1087393E-1,-5.052128E-1,-8.956098E-1,-1.1280674E-1,-5.274082E-1,1.018739E0,5.7381135E-1,1.1649457E0,1.618071E0,5.8206385E-1,9.666072E-1,1.9108024E-1,5.6339E-1,-5.8392696E-2,3.963065E-1,-8.116457E-2,8.618374E-1,1.4790446E-1,-2.6679495E-1,5.033862E-1,1.0213217E-1],"split_indices":[7,12,2,10,2,12,12,2,2,4,7,10,8,10,0,10,8,0,13,6,0,6,8,6,4,0,0,4,13,8,8,0,0,0,0,0,0,0,0,0,0,0,0,0,0,0,0,0,0,0,0,0,0,0,0,0,0,0,0,0,0,0,0],"split_type":[0,0,0,0,0,0,0,0,0,0,0,0,0,0,0,0,0,0,0,0,0,0,0,0,0,0,0,0,0,0,0,0,0,0,0,0,0,0,0,0,0,0,0,0,0,0,0,0,0,0,0,0,0,0,0,0,0,0,0,0,0,0,0],"sum_hessian":[2.7073E4,1.4312E4,1.2761E4,3.136E3,1.1176E4,4.476E3,8.285E3,1.436E3,1.7E3,3.374E3,7.802E3,9.08E2,3.568E3,1.825E3,6.46E3,4.03E2,1.033E3,7.89E2,9.11E2,1.981E3,1.393E3,4.249E3,3.553E3,3.61E2,5.47E2,1.358E3,2.21E3,5.74E2,1.251E3,3.372E3,3.088E3,2.05E2,1.98E2,4.72E2,5.61E2,3.45E2,4.44E2,4.5E1,8.66E2,4.73E2,1.508E3,5.74E2,8.19E2,1.395E3,2.854E3,1.144E3,2.409E3,1.4E2,2.21E2,3.01E2,2.46E2,6.01E2,7.57E2,1.015E3,1.195E3,1.94E2,3.8E2,7.5E1,1.176E3,1.051E3,2.321E3,1.05E3,2.038E3],"tree_param":{"num_deleted":"0","num_feature":"14","num_nodes":"63","size_leaf_vector":"1"}},{"base_weights":[-7.6510278E-3,-3.2275062E0,4.3382974E0,2.097659E0,-4.707747E0,7.4864597E0,1.9614524E0,6.2843084E0,3.3304393E-1,-1.7377405E0,-7.350624E0,1.29063E1,6.1576533E0,7.217347E0,4.7530204E-1,1.0066025E1,4.1716027E0,-2.3966403E0,2.7293649E0,-3.8038604E0,8.541711E-1,-9.654524E0,-5.1601734E0,1.6480593E1,1.105451E1,4.297887E0,9.098472E0,5.1080127E0,1.0256288E1,3.02872E0,-1.53304E0,1.0450921E0,5.9609044E-1,8.1584536E-2,5.4785156E-1,-3.5240975E-1,7.030162E-2,4.546431E-1,4.8306316E-2,-8.937139E-2,-4.571746E-1,3.1029928E-1,-6.067786E-2,-9.952131E-1,-6.255137E-1,-1.6119957E-1,-5.4372776E-1,1.5574809E0,1.1143898E0,1.154702E0,7.1238875E-1,1.632003E-1,5.3742266E-1,9.429262E-1,5.604669E-1,6.222821E-1,2.2174591E-1,5.884813E-1,1.0218326E0,4.6138933E-1,9.676061E-2,-3.2676962E-1,4.8549518E-2],"categories":[],"categories_nodes":[],"categories_segments":[],"categories_sizes":[],"default_left":[0,0,0,0,0,0,0,0,0,0,0,0,0,0,0,0,0,0,0,0,0,0,0,0,0,0,0,0,0,0,0,0,0,0,0,0,0,0,0,0,0,0,0,0,0,0,0,0,0,0,0,0,0,0,0,0,0,0,0,0,0,0,0],"id":6,"left_children":[1,3,5,7,9,11,13,15,17,19,21,23,25,27,29,31,33,35,37,39,41,43,45,47,49,51,53,55,57,59,61,-1,-1,-1,-1,-1,-1,-1,-1,-1,-1,-1,-1,-1,-1,-1,-1,-1,-1,-1,-1,-1,-1,-1,-1,-1,-1,-1,-1,-1,-1,-1,-1],"loss_changes":[3.769102E5,1.21968375E5,8.575944E4,2.4865326E4,9.501947E4,3.5433188E4,5.1026156E4,7.9316797E3,1.5502643E4,3.0538604E4,3.2278531E4,6.2380938E3,2.1630016E4,9.178219E3,2.6127371E4,2.700996E3,5.408873E3,7.2929614E3,7.919581E3,1.6283289E4,1.2343158E4,1.58614375E4,1.6898836E4,2.2362266E3,4.5351094E3,1.3257969E4,8.546523E3,5.293916E3,4.205082E3,1.1168055E4,1.5574824E4,0E0,0E0,0E0,0E0,0E0,0E0,0E0,0E0,0E0,0E0,0E0,0E0,0E0,0E0,0E0,0E0,0E0,0E0,0E0,0E0,0E0,0E0,0E0,0E0,0E0,0E0,0E0,0E0,0E0,0E0,0E0,0E0],"parents":[2147483647,0,0,1,1,2,2,3,3,4,4,5,5,6,6,7,7,8,8,9,9,10,10,11,11,12,12,13,13,14,14,15,15,16,16,17,17,18,18,19,19,20,20,21,21,22,22,23,23,24,24,25,25,26,26,27,27,28,28,29,29,30,30],"right_children":[2,4,6,8,10,12,14,16,18,20,22,24,26,28,30,32,34,36,38,40,42,44,46,48,50,52,54,56,58,60,62,-1,-1,-1,-1,-1,-1,-1,-1,-1,-1,-1,-1,-1,-1,-1,-1,-1,-1,-1,-1,-1,-1,-1,-1,-1,-1,-1,-1,-1,-1,-1,-1],"split_conditions":[2.9736423E1,1.0020058E1,6.462711E0,4.32785E0,7.0667844E0,1.0020058E1,1.0020058E1,1.0831214E0,2.9291147E1,2.7233332E1,2.9318228E1,1.0366118E0,3.0994108E1,3.1092283E1,6.499325E0,1.0654913E0,2.9060503E1,2.7548615E1,8.6173123E-1,8.2352763E-1,7.0279115E-1,2.813508E1,6.948688E-1,2.859295E0,7.3295885E-1,2.9553816E1,6.439522E0,1.4769388E0,2.911169E1,7.6479983E-1,2.8981485E1,1.0450921E0,5.9609044E-1,8.1584536E-2,5.4785156E-1,-3.5240975E-1,7.030162E-2,4.546431E-1,4.8306316E-2,-8.937139E-2,-4.571746E-1,3.1029928E-1,-6.067786E-2,-9.952131E-1,-6.255137E-1,-1.6119957E-1,-5.4372776E-1,1.5574809E0,1.1143898E0,1.154702E0,7.1238875E-1,1.632003E-1,5.3742266E-1,9.429262E-1,5.604669E-1,6.222821E-1,2.2174591E-1,5.884813E-1,1.0218326E0,4.6138933E-1,9.676061E-2,-3.2676962E-1,4.8549518E-2],"split_indices":[7,12,2,2,2,12,12,8,4,7,0,8,0,4,6,9,0,7,9,9,9,4,9,2,9,4,6,8,0,9,4,0,0,0,0,0,0,0,0,0,0,0,0,0,0,0,0,0,0,0,0,0,0,0,0,0,0,0,0,0,0,0,0],"split_type":[0,0,0,0,0,0,0,0,0,0,0,0,0,0,0,0,0,0,0,0,0,0,0,0,0,0,0,0,0,0,0,0,0,0,0,0,0,0,0,0,0,0,0,0,0,0,0,0,0,0,0,0,0,0,0,0,0,0,0,0,0,0,0],"sum_hessian":[2.6933E4,1.5471E4,1.1462E4,3.365E3,1.2106E4,4.93E3,6.532E3,9.97E2,2.368E3,5.701E3,6.405E3,9.69E2,3.961E3,1.439E3,5.093E3,3.56E2,6.41E2,1.107E3,1.261E3,3.172E3,2.529E3,3.12E3,3.285E3,3.28E2,6.41E2,2.428E3,1.533E3,8.51E2,5.88E2,2.242E3,2.851E3,1.64E2,1.92E2,2.95E2,3.46E2,6.86E2,4.21E2,5.27E2,7.34E2,1.319E3,1.853E3,8.79E2,1.65E3,1.237E3,1.883E3,1.125E3,2.16E3,1.48E2,1.8E2,2.47E2,3.94E2,1.257E3,1.171E3,6.69E2,8.64E2,3.96E2,4.55E2,2.75E2,3.13E2,8.94E2,1.348E3,1.3E3,1.551E3],"tree_param":{"num_deleted":"0","num_feature":"14","num_nodes":"63","size_leaf_vector":"1"}},{"base_weights":[-1.0500126E-2,3.982133E0,-1.6720184E0,8.489846E0,2.7466521E0,3.2473543E0,-3.0200133E0,4.677082E0,1.1128011E1,5.218363E0,7.5774086E-1,-2.640177E-1,6.0751305E0,1.3804683E-1,-4.5456557E0,2.7062626E0,7.547448E0,8.5920105E0,1.3592325E1,3.1848364E0,7.9122896E0,3.5338485E0,-1.0680273E0,2.5953074E0,-2.3130424E0,-4.926199E0,6.7348394E0,2.8701031E0,-1.8062048E0,-6.863489E0,-2.5645595E0,4.2430297E-1,7.5427786E-2,9.5280224E-1,4.4739506E-1,-2.8389022E-1,7.348874E-1,1.366166E0,9.4230443E-1,5.156082E-1,1.267129E-1,8.469173E-1,4.7363693E-1,7.876329E-2,4.272294E-1,-2.7529356E-1,8.201979E-2,-3.8253356E-2,3.7835196E-1,1.1870824E-2,-3.616566E-1,-1.24003306E-1,-5.995916E-1,7.6604825E-1,3.4861723E-1,6.6669144E-2,4.3750957E-1,-3.214554E-1,5.897706E-3,-7.157881E-1,-3.7472087E-1,1.9786775E-2,-3.4713167E-1],"categories":[],"categories_nodes":[],"categories_segments":[],"categories_sizes":[],"default_left":[0,0,0,0,0,0,0,0,0,0,0,0,0,0,0,0,0,0,0,0,0,0,0,0,0,0,0,0,0,0,0,0,0,0,0,0,0,0,0,0,0,0,0,0,0,0,0,0,0,0,0,0,0,0,0,0,0,0,0,0,0,0,0],"id":7,"left_children":[1,3,5,7,9,11,13,15,17,19,21,23,25,27,29,31,33,35,37,39,41,43,45,47,49,51,53,55,57,59,61,-1,-1,-1,-1,-1,-1,-1,-1,-1,-1,-1,-1,-1,-1,-1,-1,-1,-1,-1,-1,-1,-1,-1,-1,-1,-1,-1,-1,-1,-1,-1,-1],"loss_changes":[1.7897422E5,4.4129242E4,1.263425E5,1.7098031E4,3.0593312E4,4.069217E4,7.205005E4,3.9337998E3,6.1764766E3,1.5176727E4,1.74902E4,1.0721798E4,1.650811E4,2.5884295E4,4.628203E4,1.9004934E3,2.3555977E3,3.6316562E3,3.0155547E3,8.252168E3,6.291836E3,6.299498E3,1.0346153E4,5.0133965E3,5.7933237E3,1.1071118E3,1.4422867E4,1.071908E4,1.1839185E4,2.1058984E4,2.7136422E4,0E0,0E0,0E0,0E0,0E0,0E0,0E0,0E0,0E0,0E0,0E0,0E0,0E0,0E0,0E0,0E0,0E0,0E0,0E0,0E0,0E0,0E0,0E0,0E0,0E0,0E0,0E0,0E0,0E0,0E0,0E0,0E0],"parents":[2147483647,0,0,1,1,2,2,3,3,4,4,5,5,6,6,7,7,8,8,9,9,10,10,11,11,12,12,13,13,14,14,15,15,16,16,17,17,18,18,19,19,20,20,21,21,22,22,23,23,24,24,25,25,26,26,27,27,28,28,29,29,30,30],"right_children":[2,4,6,8,10,12,14,16,18,20,22,24,26,28,30,32,34,36,38,40,42,44,46,48,50,52,54,56,58,60,62,-1,-1,-1,-1,-1,-1,-1,-1,-1,-1,-1,-1,-1,-1,-1,-1,-1,-1,-1,-1,-1,-1,-1,-1,-1,-1,-1,-1,-1,-1,-1,-1],"split_conditions":[4.3784103E0,1.0020058E1,1.0020058E1,5.379574E-2,1.335072E0,6.061204E-2,9.6713835E-1,3.0157545E1,2.9148085E1,3.0215061E1,7.58298E-1,8.6173123E-1,4.8445385E-2,8.2352763E-1,2.8981485E1,8.9231753E-1,9.6713835E-1,4.8445385E-2,9.6713835E-1,6.564716E-1,8.3901507E-1,2.8410826E1,2.8877941E1,2.8772684E1,1.4407508E0,1.3457183E0,1.392386E0,3.0331833E1,2.8906862E1,2.9660877E1,7.791471E-1,4.2430297E-1,7.5427786E-2,9.5280224E-1,4.4739506E-1,-2.8389022E-1,7.348874E-1,1.366166E0,9.4230443E-1,5.156082E-1,1.267129E-1,8.469173E-1,4.7363693E-1,7.876329E-2,4.272294E-1,-2.7529356E-1,8.201979E-2,-3.8253356E-2,3.7835196E-1,1.1870824E-2,-3.616566E-1,-1.24003306E-1,-5.995916E-1,7.6604825E-1,3.4861723E-1,6.6669144E-2,4.3750957E-1,-3.214554E-1,5.897706E-3,-7.157881E-1,-3.7472087E-1,1.9786775E-2,-3.4713167E-1],"split_indices":[2,12,12,10,8,10,8,0,4,4,9,9,13,9,4,9,8,13,8,9,9,0,4,4,8,8,8,4,0,0,9,0,0,0,0,0,0,0,0,0,0,0,0,0,0,0,0,0,0,0,0,0,0,0,0,0,0,0,0,0,0,0,0],"split_type":[0,0,0,0,0,0,0,0,0,0,0,0,0,0,0,0,0,0,0,0,0,0,0,0,0,0,0,0,0,0,0,0,0,0,0,0,0,0,0,0,0,0,0,0,0,0,0,0,0,0,0,0,0,0,0,0,0,0,0,0,0,0,0],"sum_hessian":[2.6977E4,7.927E3,1.905E4,1.704E3,6.223E3,4.097E3,1.4953E4,6.98E2,1.006E3,2.774E3,3.449E3,1.828E3,2.269E3,4.871E3,1.0082E4,4.15E2,2.83E2,4.98E2,5.08E2,1.582E3,1.192E3,1.368E3,2.081E3,7.63E2,1.065E3,1.28E2,2.141E3,2.025E3,2.846E3,4.645E3,5.437E3,1.67E2,2.48E2,8.6E1,1.97E2,2.3E1,4.75E2,1.71E2,3.37E2,5.2E2,1.062E3,5.07E2,6.85E2,5.68E2,8E2,9.75E2,1.106E3,3.13E2,4.5E2,5.04E2,5.61E2,5.6E1,7.2E1,9.74E2,1.167E3,1.136E3,8.89E2,1.307E3,1.539E3,2.373E3,2.272E3,2.104E3,3.333E3],"tree_param":{"num_deleted":"0","num_feature":"14","num_nodes":"63","size_leaf_vector":"1"}},{"base_weights":[9.757723E-3,-4.1667075E0,2.945644E0,-1.5574359E0,-6.5234623E0,7.1129637E0,1.6022102E0,2.7336664E0,-2.7968016E0,-1.9135202E0,-7.7300854E0,1.1660799E1,5.9597206E0,5.9047756E0,3.9697254E-1,-2.0471957E0,4.5061045E0,-2.0183545E-1,-4.5130672E0,-7.0054636E0,1.4775358E-1,-5.0791736E0,-9.519101E0,8.400087E0,1.5088182E1,8.246453E0,4.028057E0,1.0182354E0,7.7271223E0,-1.7139688E0,2.4908023E0,-3.4165832E-1,6.699329E-2,6.826275E-1,2.4584553E-1,-1.7145595E-1,1.5872276E-1,-4.949985E-1,-1.6658212E-1,-7.0342124E-1,-2.962944E-1,-7.7460414E-1,5.3748596E-2,-5.459792E-1,-2.328755E-1,-5.602413E-1,-8.9871776E-1,4.1727352E-1,8.696644E-1,9.465553E-1,1.4068519E0,4.3418518E-1,7.860822E-1,5.190507E-1,1.6738798E-1,3.3449286E-1,-7.190585E-2,4.3631175E-1,8.105205E-1,5.3659514E-2,-2.852058E-1,4.3262264E-1,7.4503355E-2],"categories":[],"categories_nodes":[],"categories_segments":[],"categories_sizes":[],"default_left":[0,0,0,0,0,0,0,0,0,0,0,0,0,0,0,0,0,0,0,0,0,0,0,0,0,0,0,0,0,0,0,0,0,0,0,0,0,0,0,0,0,0,0,0,0,0,0,0,0,0,0,0,0,0,0,0,0,0,0,0,0,0,0],"id":8,"left_children":[1,3,5,7,9,11,13,15,17,19,21,23,25,27,29,31,33,35,37,39,41,43,45,47,49,51,53,55,57,59,61,-1,-1,-1,-1,-1,-1,-1,-1,-1,-1,-1,-1,-1,-1,-1,-1,-1,-1,-1,-1,-1,-1,-1,-1,-1,-1,-1,-1,-1,-1,-1,-1],"loss_changes":[3.315912E5,6.8635734E4,8.889306E4,2.8189023E4,3.2609062E4,2.0232953E4,6.227688E4,1.0076078E4,1.8312502E4,1.2785029E4,2.1994875E4,8.612664E3,1.361593E4,2.339439E4,4.1476676E4,2.0688938E3,4.9767656E3,6.955219E3,1.0060738E4,2.0387852E3,4.47853E3,7.0766133E3,1.18905E4,3.1137734E3,2.8822188E3,6.2432656E3,7.9722812E3,4.3391704E3,1.0406109E4,2.0630656E4,2.1425586E4,0E0,0E0,0E0,0E0,0E0,0E0,0E0,0E0,0E0,0E0,0E0,0E0,0E0,0E0,0E0,0E0,0E0,0E0,0E0,0E0,0E0,0E0,0E0,0E0,0E0,0E0,0E0,0E0,0E0,0E0,0E0,0E0],"parents":[2147483647,0,0,1,1,2,2,3,3,4,4,5,5,6,6,7,7,8,8,9,9,10,10,11,11,12,12,13,13,14,14,15,15,16,16,17,17,18,18,19,19,20,20,21,21,22,22,23,23,24,24,25,25,26,26,27,27,28,28,29,29,30,30],"right_children":[2,4,6,8,10,12,14,16,18,20,22,24,26,28,30,32,34,36,38,40,42,44,46,48,50,52,54,56,58,60,62,-1,-1,-1,-1,-1,-1,-1,-1,-1,-1,-1,-1,-1,-1,-1,-1,-1,-1,-1,-1,-1,-1,-1,-1,-1,-1,-1,-1,-1,-1,-1,-1],"split_conditions":[2.8152615E1,7.0667844E0,3.6336098E0,1.0020058E1,9.91745E0,1.0020058E1,1.0020058E1,1.6616683E-2,5.884303E0,2.4416331E-2,6.125477E0,8.286195E-2,6.8510504E0,1.6616683E-2,2.9503592E1,3.0884897E1,5.2635574E-1,2.9503592E1,3.0588385E1,2.6685076E1,4.8445385E-2,3.0215061E1,8.147621E-1,3.0493355E1,3.0849337E1,3.0300644E1,8.2352763E-1,5.713319E0,3.110754E1,6.366954E0,5.2517943E0,-3.4165832E-1,6.699329E-2,6.826275E-1,2.4584553E-1,-1.7145595E-1,1.5872276E-1,-4.949985E-1,-1.6658212E-1,-7.0342124E-1,-2.962944E-1,-7.7460414E-1,5.3748596E-2,-5.459792E-1,-2.328755E-1,-5.602413E-1,-8.9871776E-1,4.1727352E-1,8.696644E-1,9.465553E-1,1.4068519E0,4.3418518E-1,7.860822E-1,5.190507E-1,1.6738798E-1,3.3449286E-1,-7.190585E-2,4.3631175E-1,8.105205E-1,5.3659514E-2,-2.852058E-1,4.3262264E-1,7.4503355E-2],"split_indices":[7,2,2,12,12,12,12,10,6,10,6,10,6,10,4,4,9,4,4,7,13,4,9,7,7,7,9,6,7,6,6,0,0,0,0,0,0,0,0,0,0,0,0,0,0,0,0,0,0,0,0,0,0,0,0,0,0,0,0,0,0,0,0],"split_type":[0,0,0,0,0,0,0,0,0,0,0,0,0,0,0,0,0,0,0,0,0,0,0,0,0,0,0,0,0,0,0,0,0,0,0,0,0,0,0,0,0,0,0,0,0,0,0,0,0,0,0,0,0,0,0,0,0,0,0,0,0,0,0],"sum_hessian":[2.7041E4,1.1162E4,1.5879E4,5.298E3,5.864E3,3.87E3,1.2009E4,1.187E3,4.111E3,1.217E3,4.647E3,7.81E2,3.089E3,2.627E3,9.382E3,3.21E2,8.66E2,1.637E3,2.474E3,3.5E2,8.67E2,1.874E3,2.773E3,4.02E2,3.79E2,1.413E3,1.676E3,7.14E2,1.913E3,4.672E3,4.71E3,1.81E2,1.4E2,2.26E2,6.4E2,8.67E2,7.7E2,1.464E3,1.01E3,2.26E2,1.24E2,4.3E1,8.24E2,1.037E3,8.37E2,1.126E3,1.647E3,1.77E2,2.25E2,1.67E2,2.12E2,5.09E2,9.04E2,7.37E2,9.39E2,2.69E2,4.45E2,9.85E2,9.28E2,2.042E3,2.63E3,1.64E3,3.07E3],"tree_param":{"num_deleted":"0","num_feature":"14","num_nodes":"63","size_leaf_vector":"1"}},{"base_weights":[-2.9665683E-3,-2.7489038E0,3.8075633E0,-4.2719383E-2,-4.5984163E0,6.0080657E0,1.5046061E0,3.9532144E0,-1.1980639E0,-3.589334E-1,-5.7326326E0,4.032192E0,8.356587E0,5.5000706E0,3.573657E-1,1.1620308E0,6.870877E0,-2.9724052E0,1.3293265E0,-3.2161489E0,2.4439192E0,-7.850725E0,-3.6710758E0,6.9597797E0,2.5692701E0,1.2880551E1,7.18979E0,2.8099506E0,8.788319E0,-1.9206678E0,2.2321582E0,3.380691E-1,-4.8279863E-2,-4.3606502E-1,5.931168E-1,3.826178E-2,-3.373454E-1,3.032135E-1,-3.6844473E-2,-4.4876093E-1,-9.50713E-2,-1.8236974E-3,4.1646767E-1,-4.4503418E-1,-7.667334E-1,-1.1259409E-1,-4.557166E-1,3.778331E-1,7.3364455E-1,4.9306238E-1,1.01908036E-1,6.5755796E-1,1.1725402E0,8.563809E-1,4.7341853E-1,6.057112E-2,4.6970317E-1,-1.4320196E-1,7.570463E-1,1.04338035E-1,-2.7336076E-1,3.601953E-1,1.6385956E-2],"categories":[],"categories_nodes":[],"categories_segments":[],"categories_sizes":[],"default_left":[0,0,0,0,0,0,0,0,0,0,0,0,0,0,0,0,0,0,0,0,0,0,0,0,0,0,0,0,0,0,0,0,0,0,0,0,0,0,0,0,0,0,0,0,0,0,0,0,0,0,0,0,0,0,0,0,0,0,0,0,0,0,0],"id":9,"left_children":[1,3,5,7,9,11,13,15,17,19,21,23,25,27,29,31,33,35,37,39,41,43,45,47,49,51,53,55,57,59,61,-1,-1,-1,-1,-1,-1,-1,-1,-1,-1,-1,-1,-1,-1,-1,-1,-1,-1,-1,-1,-1,-1,-1,-1,-1,-1,-1,-1,-1,-1,-1,-1],"loss_changes":[2.818651E5,7.835999E4,5.716433E4,2.9352969E4,4.4716906E4,2.673664E4,2.5272879E4,1.1604977E4,2.2121273E4,1.5736267E4,3.2008688E4,1.3408801E4,1.3816375E4,1.0855617E4,1.8304838E4,3.9513296E3,4.7045312E3,1.2446223E4,8.965145E3,4.715458E3,6.7585024E3,1.42948125E4,1.704727E4,5.1194844E3,9.7319795E3,4.341922E3,9.312859E3,4.2563457E3,3.964164E3,9.341881E3,1.0819842E4,0E0,0E0,0E0,0E0,0E0,0E0,0E0,0E0,0E0,0E0,0E0,0E0,0E0,0E0,0E0,0E0,0E0,0E0,0E0,0E0,0E0,0E0,0E0,0E0,0E0,0E0,0E0,0E0,0E0,0E0,0E0,0E0],"parents":[2147483647,0,0,1,1,2,2,3,3,4,4,5,5,6,6,7,7,8,8,9,9,10,10,11,11,12,12,13,13,14,14,15,15,16,16,17,17,18,18,19,19,20,20,21,21,22,22,23,23,24,24,25,25,26,26,27,27,28,28,29,29,30,30],"right_children":[2,4,6,8,10,12,14,16,18,20,22,24,26,28,30,32,34,36,38,40,42,44,46,48,50,52,54,56,58,60,62,-1,-1,-1,-1,-1,-1,-1,-1,-1,-1,-1,-1,-1,-1,-1,-1,-1,-1,-1,-1,-1,-1,-1,-1,-1,-1,-1,-1,-1,-1,-1,-1],"split_conditions":[2.9818409E1,6.041896E0,7.605555E0,1.0020058E1,9.91745E0,3.0005148E1,1.0020058E1,7.88559E-2,3.084549E1,7.88559E-2,2.6841099E1,1.0366118E0,1.0020058E1,8.561824E-2,2.8906862E1,5.373545E0,4.8445385E-2,8.366019E-1,1.3118408E0,2.9348822E1,2.9911419E1,6.439522E0,6.9552827E0,2.9291147E1,3.945657E0,2.4416331E-2,7.673613E-1,3.024801E1,5.267236E-2,8.9564973E-1,9.3306243E-1,3.380691E-1,-4.8279863E-2,-4.3606502E-1,5.931168E-1,3.826178E-2,-3.373454E-1,3.032135E-1,-3.6844473E-2,-4.4876093E-1,-9.50713E-2,-1.8236974E-3,4.1646767E-1,-4.4503418E-1,-7.667334E-1,-1.1259409E-1,-4.557166E-1,3.778331E-1,7.3364455E-1,4.9306238E-1,1.01908036E-1,6.5755796E-1,1.1725402E0,8.563809E-1,4.7341853E-1,6.057112E-2,4.6970317E-1,-1.4320196E-1,7.570463E-1,1.04338035E-1,-2.7336076E-1,3.601953E-1,1.6385956E-2],"split_indices":[7,2,2,12,12,0,12,10,0,10,7,8,12,10,0,6,13,8,8,4,0,6,6,4,6,10,8,0,13,8,9,0,0,0,0,0,0,0,0,0,0,0,0,0,0,0,0,0,0,0,0,0,0,0,0,0,0,0,0,0,0,0,0],"split_type":[0,0,0,0,0,0,0,0,0,0,0,0,0,0,0,0,0,0,0,0,0,0,0,0,0,0,0,0,0,0,0,0,0,0,0,0,0,0,0,0,0,0,0,0,0,0,0,0,0,0,0,0,0,0,0,0,0,0,0,0,0,0,0],"sum_hessian":[2.6936E4,1.5655E4,1.1281E4,6.356E3,9.299E3,5.768E3,5.513E3,1.425E3,4.931E3,1.963E3,7.336E3,3.134E3,2.634E3,1.229E3,4.284E3,7.29E2,6.96E2,2.897E3,2.034E3,9.72E2,9.91E2,3.617E3,3.719E3,1.043E3,2.091E3,5.38E2,2.096E3,6.77E2,5.52E2,1.934E3,2.35E3,2.66E2,4.63E2,2.9E1,6.67E2,7.68E2,2.129E3,8.56E2,1.178E3,4.45E2,5.27E2,5.24E2,4.67E2,1.561E3,2.056E3,1.757E3,1.962E3,5.2E2,5.23E2,5.53E2,1.538E3,1.5E2,3.88E2,5.55E2,1.541E3,4.06E2,2.71E2,3.3E1,5.19E2,6.13E2,1.321E3,1.108E3,1.242E3],"tree_param":{"num_deleted":"0","num_feature":"14","num_nodes":"63","size_leaf_vector":"1"}},{"base_weights":[5.0878106E-3,-3.7312086E0,2.4425597E0,-1.6344129E0,-6.0159416E0,6.0809684E0,1.2526534E0,-3.8748016E0,3.4139085E-1,-3.8349454E0,-7.8426867E0,3.9525442E0,8.005676E0,3.4368398E0,-6.444615E-1,-7.0082283E-1,-5.217322E0,4.4291353E0,-8.97361E-1,-1.5634134E0,-5.6764665E0,-1.0242759E1,-6.098274E0,1.825962E0,6.007163E0,1.24943E1,6.845312E0,1.5654118E0,5.693659E0,-2.5244005E0,1.6006439E0,1.4604153E-1,-1.9808403E-1,-1.5071099E-1,-5.22232E-1,-1.851917E-2,4.8010385E-1,1.1920056E-1,-2.1046354E-1,1.7645843E-1,-2.103282E-1,-5.7524675E-1,-2.1611497E-1,-5.746417E-1,-9.4585323E-1,-6.479115E-1,-3.079543E-1,3.3177084E-1,-8.47044E-3,6.807372E-1,3.4561664E-1,7.452965E-1,1.2075406E0,4.0548286E-1,7.3990554E-1,-6.857497E-2,2.6159105E-1,7.7106816E-1,3.6601815E-1,-3.8125658E-1,-5.0689645E-2,3.8494754E-1,1.2156422E-2],"categories":[],"categories_nodes":[],"categories_segments":[],"categories_sizes":[],"default_left":[0,0,0,0,0,0,0,0,0,0,0,0,0,0,0,0,0,0,0,0,0,0,0,0,0,0,0,0,0,0,0,0,0,0,0,0,0,0,0,0,0,0,0,0,0,0,0,0,0,0,0,0,0,0,0,0,0,0,0,0,0,0,0],"id":10,"left_children":[1,3,5,7,9,11,13,15,17,19,21,23,25,27,29,31,33,35,37,39,41,43,45,47,49,51,53,55,57,59,61,-1,-1,-1,-1,-1,-1,-1,-1,-1,-1,-1,-1,-1,-1,-1,-1,-1,-1,-1,-1,-1,-1,-1,-1,-1,-1,-1,-1,-1,-1,-1,-1],"loss_changes":[2.4536395E5,5.0947984E4,7.058268E4,2.4559922E4,2.024911E4,1.6428469E4,5.0919414E4,1.1075285E4,1.4936829E4,9.704223E3,1.1530547E4,8.334428E3,1.0899078E4,2.411557E4,2.7763332E4,3.47578E3,7.969367E3,5.0278916E3,9.373128E3,4.1872217E3,5.7554023E3,5.54375E3,7.1943594E3,4.215532E3,4.0616797E3,3.4289531E3,7.119008E3,1.2902621E4,1.1378234E4,1.5168371E4,1.3946055E4,0E0,0E0,0E0,0E0,0E0,0E0,0E0,0E0,0E0,0E0,0E0,0E0,0E0,0E0,0E0,0E0,0E0,0E0,0E0,0E0,0E0,0E0,0E0,0E0,0E0,0E0,0E0,0E0,0E0,0E0,0E0,0E0],"parents":[2147483647,0,0,1,1,2,2,3,3,4,4,5,5,6,6,7,7,8,8,9,9,10,10,11,11,12,12,13,13,14,14,15,15,16,16,17,17,18,18,19,19,20,20,21,21,22,22,23,23,24,24,25,25,26,26,27,27,28,28,29,29,30,30],"right_children":[2,4,6,8,10,12,14,16,18,20,22,24,26,28,30,32,34,36,38,40,42,44,46,48,50,52,54,56,58,60,62,-1,-1,-1,-1,-1,-1,-1,-1,-1,-1,-1,-1,-1,-1,-1,-1,-1,-1,-1,-1,-1,-1,-1,-1,-1,-1,-1,-1,-1,-1,-1,-1],"split_conditions":[2.7949524E1,7.84491E0,3.6907175E0,2.9224516E1,1.3822176E0,3.0849337E1,1.392386E0,5.839149E-1,1.0020058E1,8.8445115E-1,2.850394E1,2.9169554E1,1.0020058E1,3.1271784E1,3.0005148E1,5.93586E0,8.366019E-1,1.4574911E-2,1.3118408E0,9.91745E0,3.1340458E1,6.948688E-1,2.9855003E1,9.4958806E-1,5.93586E0,7.271099E-2,3.0331833E1,2.8360584E1,1.0020058E1,3.0728235E1,4.657604E0,1.4604153E-1,-1.9808403E-1,-1.5071099E-1,-5.22232E-1,-1.851917E-2,4.8010385E-1,1.1920056E-1,-2.1046354E-1,1.7645843E-1,-2.103282E-1,-5.7524675E-1,-2.1611497E-1,-5.746417E-1,-9.4585323E-1,-6.479115E-1,-3.079543E-1,3.3177084E-1,-8.47044E-3,6.807372E-1,3.4561664E-1,7.452965E-1,1.2075406E0,4.0548286E-1,7.3990554E-1,-6.857497E-2,2.6159105E-1,7.7106816E-1,3.6601815E-1,-3.8125658E-1,-5.0689645E-2,3.8494754E-1,1.2156422E-2],"split_indices":[7,2,2,0,8,7,8,9,12,9,0,0,12,7,0,6,8,10,8,12,0,9,4,9,6,10,4,0,12,7,6,0,0,0,0,0,0,0,0,0,0,0,0,0,0,0,0,0,0,0,0,0,0,0,0,0,0,0,0,0,0,0,0],"split_type":[0,0,0,0,0,0,0,0,0,0,0,0,0,0,0,0,0,0,0,0,0,0,0,0,0,0,0,0,0,0,0,0,0,0,0,0,0,0,0,0,0,0,0,0,0,0,0,0,0,0,0,0,0,0,0,0,0,0,0,0,0,0,0],"sum_hessian":[2.694E4,1.0636E4,1.6304E4,5.547E3,5.089E3,4.017E3,1.2287E4,2.599E3,2.948E3,2.321E3,2.768E3,1.909E3,2.108E3,5.711E3,6.576E3,7.73E2,1.826E3,6.85E2,2.263E3,1.04E3,1.281E3,1.163E3,1.605E3,9.39E2,9.7E2,4.31E2,1.677E3,3.123E3,2.588E3,3.579E3,2.997E3,3.19E2,4.54E2,5.16E2,1.31E3,1.73E2,5.12E2,9.52E2,1.311E3,2.29E2,8.11E2,8.48E2,4.33E2,3.98E2,7.65E2,8.48E2,7.57E2,4.26E2,5.13E2,3.89E2,5.81E2,1.96E2,2.35E2,9.66E2,7.11E2,1.29E3,1.833E3,5.7E2,2.018E3,1.637E3,1.942E3,9.31E2,2.066E3],"tree_param":{"num_deleted":"0","num_feature":"14","num_nodes":"63","size_leaf_vector":"1"}},{"base_weights":[-1.6892904E-2,-2.1228633E0,3.6705964E0,1.620139E0,-3.161949E0,6.0856104E0,1.9814588E0,-1.2944868E0,3.9878397E0,-5.3194494E0,-1.4582682E0,1.0115372E1,5.0709767E0,4.256626E0,2.2809362E-1,1.4700619E0,-2.8604567E0,1.7483908E0,6.144498E0,-2.9450421E0,-6.8599825E0,-3.059133E0,8.35965E-1,7.1329327E0,1.3462657E1,7.1568923E0,3.1743827E0,7.942897E0,3.202845E0,-1.8644911E0,2.0550702E0,-1.2525977E-1,2.7071142E-1,-3.810668E-1,-3.838775E-2,3.5165453E-1,-8.540641E-3,7.5776136E-1,3.3922148E-1,-3.844302E-1,-7.8591935E-2,-3.1603825E-1,-6.492082E-1,-6.814289E-2,-3.872565E-1,2.749466E-1,-4.7521472E-2,3.72196E-1,8.2514733E-1,8.858624E-1,1.3041317E0,4.57941E-1,7.8129935E-1,1.2182033E-1,4.447143E-1,4.0169796E-1,7.8299344E-1,1.3054207E-1,4.5299658E-1,9.815742E-3,-2.970508E-1,4.0271676E-1,6.322271E-2],"categories":[],"categories_nodes":[],"categories_segments":[],"categories_sizes":[],"default_left":[0,0,0,0,0,0,0,0,0,0,0,0,0,0,0,0,0,0,0,0,0,0,0,0,0,0,0,0,0,0,0,0,0,0,0,0,0,0,0,0,0,0,0,0,0,0,0,0,0,0,0,0,0,0,0,0,0,0,0,0,0,0,0],"id":11,"left_children":[1,3,5,7,9,11,13,15,17,19,21,23,25,27,29,31,33,35,37,39,41,43,45,47,49,51,53,55,57,59,61,-1,-1,-1,-1,-1,-1,-1,-1,-1,-1,-1,-1,-1,-1,-1,-1,-1,-1,-1,-1,-1,-1,-1,-1,-1,-1,-1,-1,-1,-1,-1,-1],"loss_changes":[2.0957414E5,6.6811625E4,4.000578E4,2.576645E4,4.941192E4,1.6454922E4,2.3032662E4,7.251286E3,9.938496E3,2.1678188E4,2.7599652E4,8.000242E3,1.2743727E4,9.736367E3,1.2474795E4,3.5261738E3,4.840297E3,4.9705215E3,6.606676E3,8.524422E3,1.3103391E4,1.7401348E4,1.1490643E4,3.3532188E3,2.4039766E3,5.6860234E3,6.655283E3,2.9579648E3,7.5491777E3,5.588005E3,6.5592817E3,0E0,0E0,0E0,0E0,0E0,0E0,0E0,0E0,0E0,0E0,0E0,0E0,0E0,0E0,0E0,0E0,0E0,0E0,0E0,0E0,0E0,0E0,0E0,0E0,0E0,0E0,0E0,0E0,0E0,0E0,0E0,0E0],"parents":[2147483647,0,0,1,1,2,2,3,3,4,4,5,5,6,6,7,7,8,8,9,9,10,10,11,11,12,12,13,13,14,14,15,15,16,16,17,17,18,18,19,19,20,20,21,21,22,22,23,23,24,24,25,25,26,26,27,27,28,28,29,29,30,30],"right_children":[2,4,6,8,10,12,14,16,18,20,22,24,26,28,30,32,34,36,38,40,42,44,46,48,50,52,54,56,58,60,62,-1,-1,-1,-1,-1,-1,-1,-1,-1,-1,-1,-1,-1,-1,-1,-1,-1,-1,-1,-1,-1,-1,-1,-1,-1,-1,-1,-1,-1,-1,-1,-1],"split_conditions":[3.0376278E1,1.0020058E1,8.058982E-1,6.3843384E-2,2.6806677E1,1.0020058E1,6.439522E0,7.58298E-1,2.9503592E1,5.884303E0,3.0588385E1,7.774066E-2,1.4301089E0,1.0020058E1,2.911169E1,2.6415262E1,1.424928E-3,1.192303E0,7.58298E-1,2.9570774E1,6.0051507E-1,6.6139197E0,6.948688E-1,2.9961756E1,2.9861805E1,3.1509945E1,3.0740225E1,4.124955E-2,3.084549E1,1.515241E0,8.7289065E-1,-1.2525977E-1,2.7071142E-1,-3.810668E-1,-3.838775E-2,3.5165453E-1,-8.540641E-3,7.5776136E-1,3.3922148E-1,-3.844302E-1,-7.8591935E-2,-3.1603825E-1,-6.492082E-1,-6.814289E-2,-3.872565E-1,2.749466E-1,-4.7521472E-2,3.72196E-1,8.2514733E-1,8.858624E-1,1.3041317E0,4.57941E-1,7.8129935E-1,1.2182033E-1,4.447143E-1,4.0169796E-1,7.8299344E-1,1.3054207E-1,4.5299658E-1,9.815742E-3,-2.970508E-1,4.0271676E-1,6.322271E-2],"split_indices":[7,12,9,10,7,12,6,9,4,6,4,10,8,12,0,7,11,8,9,0,9,6,9,0,0,0,4,10,0,8,8,0,0,0,0,0,0,0,0,0,0,0,0,0,0,0,0,0,0,0,0,0,0,0,0,0,0,0,0,0,0,0,0],"split_type":[0,0,0,0,0,0,0,0,0,0,0,0,0,0,0,0,0,0,0,0,0,0,0,0,0,0,0,0,0,0,0,0,0,0,0,0,0,0,0,0,0,0,0,0,0,0,0,0,0,0,0,0,0,0,0,0,0,0,0,0,0,0,0],"sum_hessian":[2.6985E4,1.7176E4,9.809E3,3.732E3,1.3444E4,4.036E3,5.773E3,1.673E3,2.059E3,5.931E3,7.513E3,8.1E2,3.226E3,2.512E3,3.261E3,6.05E2,1.068E3,1.011E3,1.048E3,2.335E3,3.596E3,4.425E3,3.088E3,4.3E2,3.8E2,1.535E3,1.691E3,5.57E2,1.955E3,1.52E3,1.741E3,2.34E2,3.71E2,5.93E2,4.75E2,4.16E2,5.95E2,3.8E2,6.68E2,1.198E3,1.137E3,1.085E3,2.511E3,1.977E3,2.448E3,1.095E3,1.993E3,2.43E2,1.87E2,2.09E2,1.71E2,9.93E2,5.42E2,1E3,6.91E2,2.17E2,3.4E2,1.194E3,7.61E2,7.33E2,7.87E2,5.18E2,1.223E3],"tree_param":{"num_deleted":"0","num_feature":"14","num_nodes":"63","size_leaf_vector":"1"}},{"base_weights":[-1.3900366E-2,-3.4540293E0,1.9668112E0,6.9499594E-1,-4.448339E0,3.9995406E0,2.5283711E-2,3.6741989E0,-9.440091E-1,-6.322792E0,-2.5788853E0,6.701298E0,2.6523001E0,-1.6271058E0,2.2844207E0,6.48958E0,2.142983E0,-3.0748E0,1.0284474E0,-2.7188723E0,-7.381123E0,-4.5387325E0,-8.09582E-1,9.572596E0,5.2007957E0,6.4336367E0,1.6754892E0,-3.331089E0,4.686845E-1,5.951729E0,1.1570046E0,2.8496692E-1,6.474147E-1,4.447906E-1,8.443342E-2,-4.529968E-1,-1.122639E-1,2.7713472E-1,-8.305793E-2,9.9121965E-2,-3.054291E-1,-3.7085396E-1,-7.041997E-1,-1.5709025E-1,-4.8747966E-1,2.2463514E-1,-1.4407074E-1,1.1109077E0,6.8356436E-1,2.3585658E-1,5.424083E-1,2.2979042E-1,6.8105763E-1,2.857549E-1,-1.6783047E-2,-5.5711072E-2,-3.8213742E-1,3.408406E-1,-4.3610234E-2,9.449947E-2,5.783643E-1,3.722672E-1,1.105389E-2],"categories":[],"categories_nodes":[],"categories_segments":[],"categories_sizes":[],"default_left":[0,0,0,0,0,0,0,0,0,0,0,0,0,0,0,0,0,0,0,0,0,0,0,0,0,0,0,0,0,0,0,0,0,0,0,0,0,0,0,0,0,0,0,0,0,0,0,0,0,0,0,0,0,0,0,0,0,0,0,0,0,0,0],"id":12,"left_children":[1,3,5,7,9,11,13,15,17,19,21,23,25,27,29,31,33,35,37,39,41,43,45,47,49,51,53,55,57,59,61,-1,-1,-1,-1,-1,-1,-1,-1,-1,-1,-1,-1,-1,-1,-1,-1,-1,-1,-1,-1,-1,-1,-1,-1,-1,-1,-1,-1,-1,-1,-1,-1],"loss_changes":[1.8387316E5,4.0679695E4,6.7585414E4,9.315213E3,2.7856125E4,3.0433781E4,3.2704574E4,2.9046113E3,5.1769224E3,1.5125875E4,1.3811102E4,1.1940469E4,2.0614566E4,1.8071791E4,1.5295203E4,1.088125E3,1.6292166E3,2.5526177E3,3.2252722E3,3.9325044E3,1.1935359E4,7.5549844E3,7.5178477E3,4.1120547E3,6.490293E3,8.46275E3,1.5871631E4,1.0627027E4,8.72865E3,5.2948457E3,1.0087436E4,0E0,0E0,0E0,0E0,0E0,0E0,0E0,0E0,0E0,0E0,0E0,0E0,0E0,0E0,0E0,0E0,0E0,0E0,0E0,0E0,0E0,0E0,0E0,0E0,0E0,0E0,0E0,0E0,0E0,0E0,0E0,0E0],"parents":[2147483647,0,0,1,1,2,2,3,3,4,4,5,5,6,6,7,7,8,8,9,9,10,10,11,11,12,12,13,13,14,14,15,15,16,16,17,17,18,18,19,19,20,20,21,21,22,22,23,23,24,24,25,25,26,26,27,27,28,28,29,29,30,30],"right_children":[2,4,6,8,10,12,14,16,18,20,22,24,26,28,30,32,34,36,38,40,42,44,46,48,50,52,54,56,58,60,62,-1,-1,-1,-1,-1,-1,-1,-1,-1,-1,-1,-1,-1,-1,-1,-1,-1,-1,-1,-1,-1,-1,-1,-1,-1,-1,-1,-1,-1,-1,-1,-1],"split_conditions":[2.7625854E1,2.9251773E0,7.306422E0,5.4910755E0,2.9522501E1,6.564716E-1,3.0639204E1,9.899553E-1,2.8981485E1,6.543209E-1,2.9097954E1,5.373545E0,9.91745E0,3.0157545E1,1.0190505E1,2.7627722E1,4.0337586E-1,2.7837856E1,1.5035759E0,9.516778E0,7.0279115E-1,1.0831214E0,9.132373E0,1.0020058E1,2.8314434E1,4.0383466E-2,7.4485908E0,7.1849567E-1,9.814201E0,4.6297163E-3,6.981559E-1,2.8496692E-1,6.474147E-1,4.447906E-1,8.443342E-2,-4.529968E-1,-1.122639E-1,2.7713472E-1,-8.305793E-2,9.9121965E-2,-3.054291E-1,-3.7085396E-1,-7.041997E-1,-1.5709025E-1,-4.8747966E-1,2.2463514E-1,-1.4407074E-1,1.1109077E0,6.8356436E-1,2.3585658E-1,5.424083E-1,2.2979042E-1,6.8105763E-1,2.857549E-1,-1.6783047E-2,-5.5711072E-2,-3.8213742E-1,3.408406E-1,-4.3610234E-2,9.449947E-2,5.783643E-1,3.722672E-1,1.105389E-2],"split_indices":[7,2,2,6,0,9,4,8,4,8,4,6,12,0,12,4,9,0,8,12,9,8,12,12,0,10,6,9,12,10,8,0,0,0,0,0,0,0,0,0,0,0,0,0,0,0,0,0,0,0,0,0,0,0,0,0,0,0,0,0,0,0,0],"split_type":[0,0,0,0,0,0,0,0,0,0,0,0,0,0,0,0,0,0,0,0,0,0,0,0,0,0,0,0,0,0,0,0,0,0,0,0,0,0,0,0,0,0,0,0,0,0,0,0,0,0,0,0,0,0,0,0,0,0,0,0,0,0,0],"sum_hessian":[2.6983E4,9.859E3,1.7124E4,1.906E3,7.953E3,8.365E3,8.759E3,6.76E2,1.23E3,3.97E3,3.983E3,2.782E3,5.583E3,5.059E3,3.7E3,2.37E2,4.39E2,5.91E2,6.39E2,9.02E2,3.068E3,1.889E3,2.094E3,9.53E2,1.829E3,1.145E3,4.438E3,2.79E3,2.269E3,8.69E2,2.831E3,8.5E1,1.52E2,1.05E2,3.34E2,2.31E2,3.6E2,2.93E2,3.46E2,1.96E2,7.06E2,1.048E3,2.02E3,7.12E2,1.177E3,4.5E2,1.644E3,1.81E2,7.72E2,7.55E2,1.074E3,4.23E2,7.22E2,2.212E3,2.226E3,9.89E2,1.801E3,4.78E2,1.791E3,1.84E2,6.85E2,6.38E2,2.193E3],"tree_param":{"num_deleted":"0","num_feature":"14","num_nodes":"63","size_leaf_vector":"1"}},{"base_weights":[7.169482E-3,-1.8352587E0,3.2277236E0,1.765981E0,-2.8198702E0,7.2705054E0,2.3380518E0,4.493617E0,4.3709752E-1,-5.9089E-2,-3.982741E0,1.0301646E1,6.1205554E0,5.0577703E0,1.0902731E0,2.308609E0,6.1401105E0,-1.6950463E0,2.2370048E0,-1.4475044E0,2.508584E0,-5.869581E0,-2.3210871E0,8.357114E0,1.2111634E1,4.1681623E0,7.74486E0,3.1570868E0,6.9815736E0,3.583047E0,-2.4596243E-1,4.318229E-1,9.9082895E-2,7.7295274E-1,3.9833418E-1,-3.3537024E-1,-1.7116807E-2,1.6269725E-2,3.236274E-1,5.8169708E-2,-2.5535402E-1,5.1714726E-2,3.6216196E-1,-3.2749E-1,-6.1708766E-1,-3.4158945E-1,-5.4917388E-2,8.6119926E-1,4.7835353E-1,7.6464224E-1,1.0640916E0,5.936279E-1,2.2267023E-1,7.8532696E-1,4.9569914E-1,4.061071E-1,1.1883127E-1,3.8378105E-1,7.058447E-1,5.276554E-1,1.8862836E-1,2.0705055E-1,-1.0800141E-1],"categories":[],"categories_nodes":[],"categories_segments":[],"categories_sizes":[],"default_left":[0,0,0,0,0,0,0,0,0,0,0,0,0,0,0,0,0,0,0,0,0,0,0,0,0,0,0,0,0,0,0,0,0,0,0,0,0,0,0,0,0,0,0,0,0,0,0,0,0,0,0,0,0,0,0,0,0,0,0,0,0,0,0],"id":13,"left_children":[1,3,5,7,9,11,13,15,17,19,21,23,25,27,29,31,33,35,37,39,41,43,45,47,49,51,53,55,57,59,61,-1,-1,-1,-1,-1,-1,-1,-1,-1,-1,-1,-1,-1,-1,-1,-1,-1,-1,-1,-1,-1,-1,-1,-1,-1,-1,-1,-1,-1,-1,-1,-1],"loss_changes":[1.6059395E5,6.104985E4,3.5407375E4,1.3398589E4,4.3404805E4,6.1274766E3,2.739446E4,4.3425215E3,9.548055E3,1.4292139E4,2.9812266E4,1.6128203E3,4.0586719E3,9.261922E3,1.8440926E4,1.7188608E3,2.7730059E3,4.211573E3,4.96012E3,9.87291E3,5.2854775E3,1.4554781E4,1.6115779E4,1.2982285E3,6.3225E2,2.6274502E3,2.194621E3,4.0960107E3,5.029883E3,7.1155996E3,1.1283527E4,0E0,0E0,0E0,0E0,0E0,0E0,0E0,0E0,0E0,0E0,0E0,0E0,0E0,0E0,0E0,0E0,0E0,0E0,0E0,0E0,0E0,0E0,0E0,0E0,0E0,0E0,0E0,0E0,0E0,0E0,0E0,0E0],"parents":[2147483647,0,0,1,1,2,2,3,3,4,4,5,5,6,6,7,7,8,8,9,9,10,10,11,11,12,12,13,13,14,14,15,15,16,16,17,17,18,18,19,19,20,20,21,21,22,22,23,23,24,24,25,25,26,26,27,27,28,28,29,29,30,30],"right_children":[2,4,6,8,10,12,14,16,18,20,22,24,26,28,30,32,34,36,38,40,42,44,46,48,50,52,54,56,58,60,62,-1,-1,-1,-1,-1,-1,-1,-1,-1,-1,-1,-1,-1,-1,-1,-1,-1,-1,-1,-1,-1,-1,-1,-1,-1,-1,-1,-1,-1,-1,-1,-1],"split_conditions":[3.0376278E1,3.2166474E0,2.6798031E0,9.899553E-1,4.422541E0,7.7755934E-1,6.238779E-1,2.8461254E1,2.8722176E1,3.1337755E1,2.9224516E1,2.9243334E1,2.8772684E1,2.9809238E1,1.0366118E0,4.8068708E-1,3.4678524E0,2.779177E1,2.9318228E1,9.008252E-1,2.9710484E1,1.0053982E0,2.8934484E1,9.2554396E-1,3.672732E1,3.651842E0,8.3901507E-1,1.4636389E0,2.9060503E1,4.2958684E0,4.1741858E0,4.318229E-1,9.9082895E-2,7.7295274E-1,3.9833418E-1,-3.3537024E-1,-1.7116807E-2,1.6269725E-2,3.236274E-1,5.8169708E-2,-2.5535402E-1,5.1714726E-2,3.6216196E-1,-3.2749E-1,-6.1708766E-1,-3.4158945E-1,-5.4917388E-2,8.6119926E-1,4.7835353E-1,7.6464224E-1,1.0640916E0,5.936279E-1,2.2267023E-1,7.8532696E-1,4.9569914E-1,4.061071E-1,1.1883127E-1,3.8378105E-1,7.058447E-1,5.276554E-1,1.8862836E-1,2.0705055E-1,-1.0800141E-1],"split_indices":[7,2,2,8,6,8,9,0,4,4,0,4,4,4,8,9,6,0,0,9,0,9,4,9,5,6,9,8,0,6,6,0,0,0,0,0,0,0,0,0,0,0,0,0,0,0,0,0,0,0,0,0,0,0,0,0,0,0,0,0,0,0,0],"split_type":[0,0,0,0,0,0,0,0,0,0,0,0,0,0,0,0,0,0,0,0,0,0,0,0,0,0,0,0,0,0,0,0,0,0,0,0,0,0,0,0,0,0,0,0,0,0,0,0,0,0,0,0,0,0,0,0,0,0,0,0,0,0,0],"sum_hessian":[2.7063E4,1.7215E4,9.848E3,3.696E3,1.3519E4,1.775E3,8.073E3,1.21E3,2.486E3,4.007E3,9.512E3,4.86E2,1.289E3,2.538E3,5.535E3,5.21E2,6.89E2,1.138E3,1.348E3,2.601E3,1.406E3,4.453E3,5.059E3,2.37E2,2.49E2,5.87E2,7.02E2,1.278E3,1.26E3,1.931E3,3.604E3,1.33E2,3.88E2,1.69E2,5.2E2,4.23E2,7.15E2,6.35E2,7.13E2,1.158E3,1.443E3,7.32E2,6.74E2,2.27E3,2.183E3,2.307E3,2.752E3,1.16E2,1.21E2,8.2E1,1.67E2,1.74E2,4.13E2,2.98E2,4.04E2,5.94E2,6.84E2,5.78E2,6.82E2,5.57E2,1.374E3,1.01E3,2.594E3],"tree_param":{"num_deleted":"0","num_feature":"14","num_nodes":"63","size_leaf_vector":"1"}},{"base_weights":[-1.4424708E-3,1.6369114E0,-1.8621961E0,-2.510439E-1,3.271963E0,1.4725353E0,-2.8023388E0,2.2241182E0,-1.4058831E0,5.4974737E0,1.8573532E0,-3.1939251E0,2.8528965E0,-1.09074615E-1,-3.88828E0,5.7472506E0,1.3927671E0,-3.7310736E0,-1.2393388E-1,8.847034E0,4.5013943E0,3.867102E0,3.616271E-1,-9.1571397E-1,-4.872071E0,-5.5685587E0,3.3449204E0,1.5740771E0,-1.7465335E0,-1.7708594E0,-5.2966347E0,2.0435545E-1,6.694122E-1,3.254042E-1,2.8019803E-2,-6.99644E-2,-3.7990505E-1,1.5359928E-1,-1.0126193E-1,5.221475E-1,9.99975E-1,1.8027353E-1,4.7995996E-1,1.9976361E-1,4.9090824E-1,2.6048288E-1,-3.6864348E-2,-2.1207857E-1,1.31855E-1,-1.6472763E-1,-5.2367604E-1,-6.7564434E-1,-2.911972E-1,1.3147359E-1,4.6969676E-1,1.3791171E-2,2.7325433E-1,-2.947244E-1,-9.485302E-3,-2.7801892E-1,2.254796E-3,-5.989588E-1,-3.1550914E-1],"categories":[],"categories_nodes":[],"categories_segments":[],"categories_sizes":[],"default_left":[0,0,0,0,0,0,0,0,0,0,0,0,0,0,0,0,0,0,0,0,0,0,0,0,0,0,0,0,0,0,0,0,0,0,0,0,0,0,0,0,0,0,0,0,0,0,0,0,0,0,0,0,0,0,0,0,0,0,0,0,0,0,0],"id":14,"left_children":[1,3,5,7,9,11,13,15,17,19,21,23,25,27,29,31,33,35,37,39,41,43,45,47,49,51,53,55,57,59,61,-1,-1,-1,-1,-1,-1,-1,-1,-1,-1,-1,-1,-1,-1,-1,-1,-1,-1,-1,-1,-1,-1,-1,-1,-1,-1,-1,-1,-1,-1,-1,-1],"loss_changes":[8.240293E4,4.4371984E4,3.9682254E4,1.9074467E4,2.4240602E4,1.7941973E4,2.8875398E4,6.2101777E3,1.356207E4,9.946102E3,1.4160025E4,2.4270752E3,8.923127E3,7.824538E3,2.0972531E4,3.3670342E3,4.7920347E3,4.6967754E3,6.8499043E3,5.7236914E3,7.762504E3,6.2337754E3,6.433485E3,1.2100635E3,1.7098623E3,6.295366E2,8.72057E3,3.6133025E3,4.5384893E3,8.622395E3,1.24893125E4,0E0,0E0,0E0,0E0,0E0,0E0,0E0,0E0,0E0,0E0,0E0,0E0,0E0,0E0,0E0,0E0,0E0,0E0,0E0,0E0,0E0,0E0,0E0,0E0,0E0,0E0,0E0,0E0,0E0,0E0,0E0,0E0],"parents":[2147483647,0,0,1,1,2,2,3,3,4,4,5,5,6,6,7,7,8,8,9,9,10,10,11,11,12,12,13,13,14,14,15,15,16,16,17,17,18,18,19,19,20,20,21,21,22,22,23,23,24,24,25,25,26,26,27,27,28,28,29,29,30,30],"right_children":[2,4,6,8,10,12,14,16,18,20,22,24,26,28,30,32,34,36,38,40,42,44,46,48,50,52,54,56,58,60,62,-1,-1,-1,-1,-1,-1,-1,-1,-1,-1,-1,-1,-1,-1,-1,-1,-1,-1,-1,-1,-1,-1,-1,-1,-1,-1,-1,-1,-1,-1,-1,-1],"split_conditions":[7.964323E0,2.8934484E1,1.0020058E1,6.238779E-1,5.884303E0,7.6545514E-3,5.58386E-1,1.0020058E1,2.7741817E1,1.0020058E1,8.459991E-1,7.0224323E0,4.8445385E-2,7.1405506E0,5.884303E0,6.788374E-2,4.243768E0,3.945657E0,5.2517943E0,1.0152098E-1,2.8213991E1,3.1142258E1,1.0020058E1,8.662892E-4,8.058982E-1,2.8360584E1,1.9500075E-3,3.016285E1,2.9243334E1,2.9640028E1,2.7983402E1,2.0435545E-1,6.694122E-1,3.254042E-1,2.8019803E-2,-6.99644E-2,-3.7990505E-1,1.5359928E-1,-1.0126193E-1,5.221475E-1,9.99975E-1,1.8027353E-1,4.7995996E-1,1.9976361E-1,4.9090824E-1,2.6048288E-1,-3.6864348E-2,-2.1207857E-1,1.31855E-1,-1.6472763E-1,-5.2367604E-1,-6.7564434E-1,-2.911972E-1,1.3147359E-1,4.6969676E-1,1.3791171E-2,2.7325433E-1,-2.947244E-1,-9.485302E-3,-2.7801892E-1,2.254796E-3,-5.989588E-1,-3.1550914E-1],"split_indices":[2,4,12,9,6,10,9,12,0,12,9,6,13,6,6,10,6,6,6,10,0,0,12,11,9,0,11,4,4,4,4,0,0,0,0,0,0,0,0,0,0,0,0,0,0,0,0,0,0,0,0,0,0,0,0,0,0,0,0,0,0,0,0],"split_type":[0,0,0,0,0,0,0,0,0,0,0,0,0,0,0,0,0,0,0,0,0,0,0,0,0,0,0,0,0,0,0,0,0,0,0,0,0,0,0,0,0,0,0,0,0,0,0,0,0,0,0,0,0,0,0,0,0,0,0,0,0,0,0],"sum_hessian":[2.7028E4,1.4373E4,1.2655E4,6.671E3,7.702E3,2.783E3,9.872E3,2.122E3,4.549E3,2.992E3,4.71E3,6.35E2,2.148E3,2.837E3,7.035E3,4.04E2,1.718E3,1.616E3,2.933E3,6.84E2,2.308E3,2.009E3,2.701E3,2.7E2,3.65E2,1.18E2,2.03E3,1.399E3,1.438E3,2.811E3,4.224E3,1.83E2,2.21E2,4.81E2,1.237E3,4.25E2,1.191E3,1.051E3,1.882E3,4.2E2,2.64E2,9.24E2,1.384E3,1.254E3,7.55E2,5.97E2,2.104E3,1.61E2,1.09E2,1.37E2,2.28E2,4.6E1,7.2E1,1.214E3,8.16E2,7.95E2,6.04E2,6.56E2,7.82E2,1.443E3,1.368E3,1.611E3,2.613E3],"tree_param":{"num_deleted":"0","num_feature":"14","num_nodes":"63","size_leaf_vector":"1"}},{"base_weights":[-5.5310302E-3,-2.995032E0,1.674508E0,-7.038503E-1,-4.321979E0,3.5895612E0,1.24824226E-1,2.5035315E0,-1.6130669E0,-1.5232918E0,-5.367165E0,5.6993647E0,2.2620723E0,-1.200575E0,2.252652E0,-1.2893822E0,4.2274175E0,1.3070318E0,-2.5486743E0,2.0268698E0,-2.4156601E0,-6.712401E0,-3.3391678E0,9.443145E0,4.7778196E0,2.1046522E-1,3.5964706E0,1.4913542E0,-2.2577214E0,5.469421E0,1.3839793E0,2.157445E-1,-2.5439137E-1,-4.0764323E-1,3.7808704E-1,2.5848585E-1,-4.2545147E-2,-3.125257E-1,-5.466269E-2,3.157983E-1,5.706519E-3,-3.7326244E-1,-1.0680973E-1,-7.1087927E-1,-4.3805254E-1,-3.909545E-1,-1.22951046E-1,5.868582E-1,9.865125E-1,5.660035E-1,2.888853E-1,-1.4771582E-1,1.2348519E-1,5.227792E-1,2.0919421E-1,2.0058772E-3,2.817113E-1,-3.0102885E-1,-3.0455293E-2,6.829094E-2,5.506304E-1,1.8502602E-4,2.651532E-1],"categories":[],"categories_nodes":[],"categories_segments":[],"categories_sizes":[],"default_left":[0,0,0,0,0,0,0,0,0,0,0,0,0,0,0,0,0,0,0,0,0,0,0,0,0,0,0,0,0,0,0,0,0,0,0,0,0,0,0,0,0,0,0,0,0,0,0,0,0,0,0,0,0,0,0,0,0,0,0,0,0,0,0],"id":15,"left_children":[1,3,5,7,9,11,13,15,17,19,21,23,25,27,29,31,33,35,37,39,41,43,45,47,49,51,53,55,57,59,61,-1,-1,-1,-1,-1,-1,-1,-1,-1,-1,-1,-1,-1,-1,-1,-1,-1,-1,-1,-1,-1,-1,-1,-1,-1,-1,-1,-1,-1,-1,-1,-1],"loss_changes":[1.3568727E5,2.9548445E4,5.132936E4,1.0403225E4,1.7996117E4,2.1653633E4,2.696684E4,5.1578276E3,7.595742E3,5.311383E3,1.2202367E4,1.0260211E4,1.3003131E4,1.6770602E4,1.0247582E4,1.8699501E3,2.5438867E3,2.3898794E3,5.3293135E3,1.2654314E3,3.249337E3,7.1905938E3,4.98291E3,3.4946484E3,6.4044805E3,5.138747E3,8.283172E3,4.9470273E3,1.1951953E4,5.0830176E3,7.710921E3,0E0,0E0,0E0,0E0,0E0,0E0,0E0,0E0,0E0,0E0,0E0,0E0,0E0,0E0,0E0,0E0,0E0,0E0,0E0,0E0,0E0,0E0,0E0,0E0,0E0,0E0,0E0,0E0,0E0,0E0,0E0,0E0],"parents":[2147483647,0,0,1,1,2,2,3,3,4,4,5,5,6,6,7,7,8,8,9,9,10,10,11,11,12,12,13,13,14,14,15,15,16,16,17,17,18,18,19,19,20,20,21,21,22,22,23,23,24,24,25,25,26,26,27,27,28,28,29,29,30,30],"right_children":[2,4,6,8,10,12,14,16,18,20,22,24,26,28,30,32,34,36,38,40,42,44,46,48,50,52,54,56,58,60,62,-1,-1,-1,-1,-1,-1,-1,-1,-1,-1,-1,-1,-1,-1,-1,-1,-1,-1,-1,-1,-1,-1,-1,-1,-1,-1,-1,-1,-1,-1,-1,-1],"split_conditions":[2.7587168E1,1.0831214E0,1.335072E0,1.0020058E1,4.0369997E0,5.742513E0,3.0943121E1,3.113099E-2,4.7347596E-1,3.8701186E-1,3.0757092E1,1.0020058E1,2.8049675E1,4.211103E0,1.0020058E1,4.1741858E0,5.628384E-2,6.904782E0,3.0544209E1,7.3950315E0,2.7254133E1,2.7784855E1,3.0064932E1,9.73586E-2,5.081692E0,2.8294245E1,3.7770393E0,3.0331833E1,3.110754E1,1.158582E-2,3.1271784E1,2.157445E-1,-2.5439137E-1,-4.0764323E-1,3.7808704E-1,2.5848585E-1,-4.2545147E-2,-3.125257E-1,-5.466269E-2,3.157983E-1,5.706519E-3,-3.7326244E-1,-1.0680973E-1,-7.1087927E-1,-4.3805254E-1,-3.909545E-1,-1.22951046E-1,5.868582E-1,9.865125E-1,5.660035E-1,2.888853E-1,-1.4771582E-1,1.2348519E-1,5.227792E-1,2.0919421E-1,2.0058772E-3,2.817113E-1,-3.0102885E-1,-3.0455293E-2,6.829094E-2,5.506304E-1,1.8502602E-4,2.651532E-1],"split_indices":[7,8,8,12,2,2,0,10,9,9,0,12,0,2,12,6,13,6,0,6,0,4,4,10,6,4,6,4,7,10,7,0,0,0,0,0,0,0,0,0,0,0,0,0,0,0,0,0,0,0,0,0,0,0,0,0,0,0,0,0,0,0,0],"split_type":[0,0,0,0,0,0,0,0,0,0,0,0,0,0,0,0,0,0,0,0,0,0,0,0,0,0,0,0,0,0,0,0,0,0,0,0,0,0,0,0,0,0,0,0,0,0,0,0,0,0,0,0,0,0,0,0,0,0,0,0,0,0,0],"sum_hessian":[2.7014E4,9.719E3,1.7295E4,3.565E3,6.154E3,7.735E3,9.56E3,7.87E2,2.778E3,1.674E3,4.48E3,2.986E3,4.749E3,5.891E3,3.669E3,2.46E2,5.41E2,6.74E2,2.104E3,3.36E2,1.338E3,2.692E3,1.788E3,5.88E2,2.398E3,1.872E3,2.877E3,1.661E3,4.23E3,7.79E2,2.89E3,7.9E1,1.67E2,2.7E1,5.14E2,3.29E2,3.45E2,1.217E3,8.87E2,1.69E2,1.67E2,4.33E2,9.05E2,9.74E2,1.718E3,9.61E2,8.27E2,3.42E2,2.46E2,8.06E2,1.592E3,7.36E2,1.136E3,7.19E2,2.158E3,9.65E2,6.96E2,2.347E3,1.883E3,1.83E2,5.96E2,1.685E3,1.205E3],"tree_param":{"num_deleted":"0","num_feature":"14","num_nodes":"63","size_leaf_vector":"1"}},{"base_weights":[-2.2086915E-2,-1.928451E0,2.3092225E0,-5.3037256E-2,-3.362113E0,3.9477757E-1,3.6365018E0,1.5228641E0,-1.7577847E0,1.651856E-1,-4.1146474E0,3.7258887E0,-4.64828E-1,5.3830714E0,2.154309E0,4.639987E0,6.224157E-1,-3.0293052E0,2.488908E-1,2.0331283E0,-1.3330007E0,-2.1176121E0,-5.356234E0,6.6024947E0,2.6619093E0,2.445207E0,-1.3634748E0,8.555102E0,4.529997E0,4.866777E0,1.1357707E0,5.8153674E-2,4.780567E-1,-1.06150664E-1,1.6276006E-1,-1.13100514E-1,-3.7790012E-1,2.692572E-1,-5.2000806E-2,-1.20067E-2,2.6646093E-1,-2.0520565E-1,7.914643E-2,9.450859E-2,-2.4020903E-1,-2.2382718E-1,-5.016731E-1,6.882401E-1,3.8824424E-1,3.5660937E-1,8.877826E-2,4.8369128E-1,1.242973E-1,2.9960986E-2,-2.2212762E-1,4.5151424E-1,8.551939E-1,5.037052E-1,2.2688644E-1,6.594393E-1,3.1700203E-1,3.5697925E-1,3.109572E-2],"categories":[],"categories_nodes":[],"categories_segments":[],"categories_sizes":[],"default_left":[0,0,0,0,0,0,0,0,0,0,0,0,0,0,0,0,0,0,0,0,0,0,0,0,0,0,0,0,0,0,0,0,0,0,0,0,0,0,0,0,0,0,0,0,0,0,0,0,0,0,0,0,0,0,0,0,0,0,0,0,0,0,0],"id":16,"left_children":[1,3,5,7,9,11,13,15,17,19,21,23,25,27,29,31,33,35,37,39,41,43,45,47,49,51,53,55,57,59,61,-1,-1,-1,-1,-1,-1,-1,-1,-1,-1,-1,-1,-1,-1,-1,-1,-1,-1,-1,-1,-1,-1,-1,-1,-1,-1,-1,-1,-1,-1,-1,-1],"loss_changes":[1.2006343E5,3.995942E4,3.0879371E4,1.7303826E4,2.2358812E4,1.4253081E4,1.8567898E4,9.3915E3,7.8951855E3,4.1501255E3,1.7201297E4,3.1073496E3,1.0351259E4,8.874742E3,1.0725002E4,3.9157324E3,7.1538926E3,5.1780723E3,3.3670486E3,1.8702854E3,2.3573667E3,7.778415E3,9.998133E3,9.206846E2,2.0771392E3,2.9889326E3,7.42794E3,4.27141E3,7.7553477E3,3.203461E3,7.0187305E3,0E0,0E0,0E0,0E0,0E0,0E0,0E0,0E0,0E0,0E0,0E0,0E0,0E0,0E0,0E0,0E0,0E0,0E0,0E0,0E0,0E0,0E0,0E0,0E0,0E0,0E0,0E0,0E0,0E0,0E0,0E0,0E0],"parents":[2147483647,0,0,1,1,2,2,3,3,4,4,5,5,6,6,7,7,8,8,9,9,10,10,11,11,12,12,13,13,14,14,15,15,16,16,17,17,18,18,19,19,20,20,21,21,22,22,23,23,24,24,25,25,26,26,27,27,28,28,29,29,30,30],"right_children":[2,4,6,8,10,12,14,16,18,20,22,24,26,28,30,32,34,36,38,40,42,44,46,48,50,52,54,56,58,60,62,-1,-1,-1,-1,-1,-1,-1,-1,-1,-1,-1,-1,-1,-1,-1,-1,-1,-1,-1,-1,-1,-1,-1,-1,-1,-1,-1,-1,-1,-1,-1,-1],"split_conditions":[2.9501326E1,1.3118408E0,2.8294245E1,7.7252264E0,2.572671E0,3.0372E0,9.097073E-1,1.0020058E1,3.1043785E1,6.792256E0,7.970251E-1,8.366019E-1,6.981559E-1,1.0020058E1,8.1421083E-1,1.4574911E-2,2.8353922E1,1.0108544E0,9.91745E0,2.7729675E1,3.1449892E1,1.01054E1,3.945657E0,9.2554396E-1,6.499325E0,9.622445E0,8.9231753E-1,5.069419E-2,7.2486334E0,3.0372E0,2.859295E0,5.8153674E-2,4.780567E-1,-1.06150664E-1,1.6276006E-1,-1.13100514E-1,-3.7790012E-1,2.692572E-1,-5.2000806E-2,-1.20067E-2,2.6646093E-1,-2.0520565E-1,7.914643E-2,9.450859E-2,-2.4020903E-1,-2.2382718E-1,-5.016731E-1,6.882401E-1,3.8824424E-1,3.5660937E-1,8.877826E-2,4.8369128E-1,1.242973E-1,2.9960986E-2,-2.2212762E-1,4.5151424E-1,8.551939E-1,5.037052E-1,2.2688644E-1,6.594393E-1,3.1700203E-1,3.5697925E-1,3.109572E-2],"split_indices":[7,8,4,2,2,2,9,12,4,6,9,8,8,12,8,10,4,9,12,4,4,12,6,9,6,12,9,10,2,2,2,0,0,0,0,0,0,0,0,0,0,0,0,0,0,0,0,0,0,0,0,0,0,0,0,0,0,0,0,0,0,0,0],"split_type":[0,0,0,0,0,0,0,0,0,0,0,0,0,0,0,0,0,0,0,0,0,0,0,0,0,0,0,0,0,0,0,0,0,0,0,0,0,0,0,0,0,0,0,0,0,0,0,0,0,0,0,0,0,0,0,0,0,0,0,0,0,0,0],"sum_hessian":[2.7013E4,1.4861E4,1.2152E4,6.439E3,8.422E3,4.976E3,7.176E3,3.346E3,3.093E3,1.481E3,6.941E3,1.02E3,3.956E3,3.293E3,3.883E3,7.49E2,2.597E3,1.893E3,1.2E3,6.59E2,8.22E2,2.662E3,4.279E3,2.74E2,7.46E2,9.33E2,3.023E3,6.96E2,2.597E3,1.059E3,2.824E3,1.91E2,5.58E2,1.091E3,1.506E3,9.7E2,9.23E2,2.68E2,9.32E2,2.46E2,4.13E2,5.37E2,2.85E2,5.63E2,2.099E3,1.128E3,3.151E3,1.26E2,1.48E2,3.45E2,4.01E2,1.84E2,7.49E2,1.356E3,1.667E3,2.96E2,4E2,1.27E3,1.327E3,2.22E2,8.37E2,5.17E2,2.307E3],"tree_param":{"num_deleted":"0","num_feature":"14","num_nodes":"63","size_leaf_vector":"1"}},{"base_weights":[9.683528E-3,-2.8477993E0,1.3758153E0,-1.9111077E-1,-3.6974447E0,1.5016752E-1,3.4014425E0,2.9196603E0,-1.0811363E0,-1.1633826E0,-4.5636644E0,1.8194561E0,-1.2563419E0,5.3014336E0,2.0442026E0,6.818537E0,1.6699631E0,9.6291393E-1,-2.4126825E0,-2.2168818E0,1.0166026E0,-5.8402815E0,-2.8601544E0,4.8675094E0,1.0046645E0,2.2211441E-1,-2.9651103E0,8.548541E0,4.427353E0,7.566622E-1,3.8976135E0,7.9319544E-2,6.3788074E-1,2.9104972E-1,7.7541755E-3,-9.4006106E-2,1.8416765E-1,-3.2782573E-1,-7.312908E-2,2.3199916E-2,-2.4958605E-1,3.2676116E-1,3.041352E-3,-6.032364E-1,-3.523415E-1,-8.030783E-3,-2.923107E-1,1.9948524E-1,5.6083566E-1,3.0380416E-1,4.289972E-3,-8.273339E-2,1.5898532E-1,-8.550569E-2,-3.4073028E-1,4.3601853E-1,8.256753E-1,2.4640113E-1,4.923206E-1,2.7848676E-1,-8.442714E-3,5.702661E-1,2.4924834E-1],"categories":[],"categories_nodes":[],"categories_segments":[],"categories_sizes":[],"default_left":[0,0,0,0,0,0,0,0,0,0,0,0,0,0,0,0,0,0,0,0,0,0,0,0,0,0,0,0,0,0,0,0,0,0,0,0,0,0,0,0,0,0,0,0,0,0,0,0,0,0,0,0,0,0,0,0,0,0,0,0,0,0,0],"id":17,"left_children":[1,3,5,7,9,11,13,15,17,19,21,23,25,27,29,31,33,35,37,39,41,43,45,47,49,51,53,55,57,59,61,-1,-1,-1,-1,-1,-1,-1,-1,-1,-1,-1,-1,-1,-1,-1,-1,-1,-1,-1,-1,-1,-1,-1,-1,-1,-1,-1,-1,-1,-1,-1,-1],"loss_changes":[1.0533739E5,1.9700508E4,4.5323758E4,5.861654E3,1.4510594E4,2.6709307E4,1.7736078E4,2.2835212E3,4.48232E3,3.8743428E3,1.0700359E4,1.2914422E4,1.5598278E4,8.099367E3,9.580596E3,7.5932275E2,1.1080095E3,1.8637573E3,2.5139766E3,2.5745864E3,1.651063E3,6.8419766E3,4.6281836E3,5.5631895E3,1.09059375E4,7.3444995E3,7.0232246E3,3.2770547E3,5.2410117E3,5.5698145E3,4.136324E3,0E0,0E0,0E0,0E0,0E0,0E0,0E0,0E0,0E0,0E0,0E0,0E0,0E0,0E0,0E0,0E0,0E0,0E0,0E0,0E0,0E0,0E0,0E0,0E0,0E0,0E0,0E0,0E0,0E0,0E0,0E0,0E0],"parents":[2147483647,0,0,1,1,2,2,3,3,4,4,5,5,6,6,7,7,8,8,9,9,10,10,11,11,12,12,13,13,14,14,15,15,16,16,17,17,18,18,19,19,20,20,21,21,22,22,23,23,24,24,25,25,26,26,27,27,28,28,29,29,30,30],"right_children":[2,4,6,8,10,12,14,16,18,20,22,24,26,28,30,32,34,36,38,40,42,44,46,48,50,52,54,56,58,60,62,-1,-1,-1,-1,-1,-1,-1,-1,-1,-1,-1,-1,-1,-1,-1,-1,-1,-1,-1,-1,-1,-1,-1,-1,-1,-1,-1,-1,-1,-1,-1,-1],"split_conditions":[2.7233332E1,4.8770294E-1,3.109032E1,3.3063095E0,3.8673542E0,6.792256E0,6.2409463E0,9.720927E0,5.5794225E0,3.1787577E1,3.0539457E1,1.0020058E1,7.964323E0,1.0020058E1,3.1189651E1,-2.344774E-3,6.7657976E0,2.8002008E1,2.9243334E1,3.945657E0,1.0020058E1,2.9012724E1,1.0020058E1,6.511344E-2,4.9637842E-1,3.1307243E1,8.147621E-1,4.389126E-2,3.0215061E1,3.6907175E0,9.91745E0,7.9319544E-2,6.3788074E-1,2.9104972E-1,7.7541755E-3,-9.4006106E-2,1.8416765E-1,-3.2782573E-1,-7.312908E-2,2.3199916E-2,-2.4958605E-1,3.2676116E-1,3.041352E-3,-6.032364E-1,-3.523415E-1,-8.030783E-3,-2.923107E-1,1.9948524E-1,5.6083566E-1,3.0380416E-1,4.289972E-3,-8.273339E-2,1.5898532E-1,-8.550569E-2,-3.4073028E-1,4.3601853E-1,8.256753E-1,2.4640113E-1,4.923206E-1,2.7848676E-1,-8.442714E-3,5.702661E-1,2.4924834E-1],"split_indices":[7,9,0,6,2,6,6,12,2,0,4,12,2,12,7,10,2,0,4,6,12,0,12,10,9,7,9,10,4,2,12,0,0,0,0,0,0,0,0,0,0,0,0,0,0,0,0,0,0,0,0,0,0,0,0,0,0,0,0,0,0,0,0],"split_type":[0,0,0,0,0,0,0,0,0,0,0,0,0,0,0,0,0,0,0,0,0,0,0,0,0,0,0,0,0,0,0,0,0,0,0,0,0,0,0,0,0,0,0,0,0,0,0,0,0,0,0,0,0,0,0,0,0,0,0,0,0,0,0],"sum_hessian":[2.6982E4,8.727E3,1.8255E4,2.115E3,6.612E3,1.1374E4,6.881E3,4.7E2,1.645E3,1.685E3,4.927E3,5.201E3,6.173E3,2.866E3,4.015E3,1.13E2,3.57E2,6.49E2,9.96E2,1.136E3,5.49E2,2.815E3,2.112E3,1.096E3,4.105E3,3.31E3,2.863E3,6.06E2,2.26E3,2.37E3,1.645E3,1.9E1,9.4E1,1.58E2,1.99E2,2.5E2,3.99E2,4.68E2,5.28E2,3.01E2,8.35E2,1.32E2,4.17E2,1.287E3,1.528E3,4.72E2,1.64E3,5.21E2,5.75E2,1.042E3,3.063E3,1.934E3,1.376E3,1.162E3,1.701E3,2.22E2,3.84E2,1.271E3,9.89E2,5.69E2,1.801E3,3.19E2,1.326E3],"tree_param":{"num_deleted":"0","num_feature":"14","num_nodes":"63","size_leaf_vector":"1"}},{"base_weights":[5.373404E-4,-1.3537185E0,2.5392253E0,1.4819992E-1,-2.8376503E0,4.0510073E0,9.926631E-1,-1.6268044E0,1.3992616E0,-3.7604377E-2,-3.6287239E0,6.4422097E0,3.0655658E0,3.2916505E0,-5.7200873E-3,6.306234E-1,-2.713664E0,-9.714724E-2,2.872535E0,-3.4150085E0,1.2892598E0,-4.945082E0,-1.9783278E0,4.5796857E0,8.068548E0,9.701673E-1,4.2172008E0,5.4028163E0,1.8592849E0,-1.8021454E0,1.2629609E0,-3.9891098E-2,2.1848E-1,-9.822955E-2,-3.3774197E-1,2.0051363E-1,-8.204426E-2,3.597486E-1,1.1103669E-1,-4.5232704E-1,-1.727456E-1,3.176129E-1,9.643054E-3,-5.2914006E-1,-3.0469602E-1,-3.4047414E-2,-2.9286274E-1,1.8882693E-1,4.6059158E-1,9.4455916E-1,5.6680644E-1,2.562636E-1,2.2326766E-3,5.6479937E-1,2.692194E-1,2.5568637E-1,5.425883E-1,-2.9957725E-2,2.3053095E-1,9.6625976E-2,-2.1083315E-1,6.2026083E-3,2.6051596E-1],"categories":[],"categories_nodes":[],"categories_segments":[],"categories_sizes":[],"default_left":[0,0,0,0,0,0,0,0,0,0,0,0,0,0,0,0,0,0,0,0,0,0,0,0,0,0,0,0,0,0,0,0,0,0,0,0,0,0,0,0,0,0,0,0,0,0,0,0,0,0,0,0,0,0,0,0,0,0,0,0,0,0,0],"id":18,"left_children":[1,3,5,7,9,11,13,15,17,19,21,23,25,27,29,31,33,35,37,39,41,43,45,47,49,51,53,55,57,59,61,-1,-1,-1,-1,-1,-1,-1,-1,-1,-1,-1,-1,-1,-1,-1,-1,-1,-1,-1,-1,-1,-1,-1,-1,-1,-1,-1,-1,-1,-1,-1,-1],"loss_changes":[9.268249E4,3.918175E4,2.1922355E4,1.940623E4,1.9587477E4,1.115425E4,1.06431875E4,8.866233E3,1.1301158E4,8.738567E3,1.4969695E4,4.1522812E3,8.104043E3,4.2355957E3,7.372854E3,2.7883162E3,5.4599863E3,6.151845E3,6.2224844E3,1.5341641E3,4.3860396E3,7.249086E3,7.9950273E3,1.6775049E3,2.6260273E3,2.5102026E3,5.227004E3,1.7044277E3,1.9148074E3,3.3615488E3,4.4802573E3,0E0,0E0,0E0,0E0,0E0,0E0,0E0,0E0,0E0,0E0,0E0,0E0,0E0,0E0,0E0,0E0,0E0,0E0,0E0,0E0,0E0,0E0,0E0,0E0,0E0,0E0,0E0,0E0,0E0,0E0,0E0,0E0],"parents":[2147483647,0,0,1,1,2,2,3,3,4,4,5,5,6,6,7,7,8,8,9,9,10,10,11,11,12,12,13,13,14,14,15,15,16,16,17,17,18,18,19,19,20,20,21,21,22,22,23,23,24,24,25,25,26,26,27,27,28,28,29,29,30,30],"right_children":[2,4,6,8,10,12,14,16,18,20,22,24,26,28,30,32,34,36,38,40,42,44,46,48,50,52,54,56,58,60,62,-1,-1,-1,-1,-1,-1,-1,-1,-1,-1,-1,-1,-1,-1,-1,-1,-1,-1,-1,-1,-1,-1,-1,-1,-1,-1,-1,-1,-1,-1,-1,-1],"split_conditions":[3.0534178E1,1.5035759E0,1.515241E0,2.8360584E1,1.0020058E1,5.839149E-1,4.47567E0,4.779862E0,2.9348822E1,2.1597123E-2,3.024801E1,2.9169554E1,2.7627722E1,7.970251E-1,2.8314434E1,3.1493425E1,1.0108544E0,3.7770393E0,9.4958806E-1,2.6378616E1,4.422541E0,2.818553E1,1.0345752E0,3.5888577E1,1.0020058E1,4.422541E0,1.0020058E1,2.7983402E1,2.7078354E1,3.9482802E-1,3.1227884E1,-3.9891098E-2,2.1848E-1,-9.822955E-2,-3.3774197E-1,2.0051363E-1,-8.204426E-2,3.597486E-1,1.1103669E-1,-4.5232704E-1,-1.727456E-1,3.176129E-1,9.643054E-3,-5.2914006E-1,-3.0469602E-1,-3.4047414E-2,-2.9286274E-1,1.8882693E-1,4.6059158E-1,9.4455916E-1,5.6680644E-1,2.562636E-1,2.2326766E-3,5.6479937E-1,2.692194E-1,2.5568637E-1,5.425883E-1,-2.9957725E-2,2.3053095E-1,9.6625976E-2,-2.1083315E-1,6.2026083E-3,2.6051596E-1],"split_indices":[7,8,8,0,12,9,6,6,4,10,0,0,4,9,0,4,9,6,9,7,6,4,9,5,12,6,12,4,4,9,4,0,0,0,0,0,0,0,0,0,0,0,0,0,0,0,0,0,0,0,0,0,0,0,0,0,0,0,0,0,0,0,0],"split_type":[0,0,0,0,0,0,0,0,0,0,0,0,0,0,0,0,0,0,0,0,0,0,0,0,0,0,0,0,0,0,0,0,0,0,0,0,0,0,0,0,0,0,0,0,0,0,0,0,0,0,0,0,0,0,0,0,0,0,0,0,0,0,0],"sum_hessian":[2.6956E4,1.7579E4,9.377E3,8.737E3,8.842E3,4.741E3,4.636E3,3.612E3,5.125E3,1.948E3,6.894E3,1.382E3,3.359E3,1.403E3,3.233E3,1.174E3,2.438E3,2.543E3,2.582E3,5.49E2,1.399E3,3.834E3,3.06E3,6.46E2,7.36E2,1.192E3,2.167E3,5.66E2,8.37E2,1.338E3,1.895E3,7.64E2,4.1E2,1.229E3,1.209E3,6.68E2,1.875E3,1.232E3,1.35E3,1.96E2,3.53E2,4.24E2,9.75E2,1.551E3,2.283E3,1.592E3,1.468E3,2.25E2,4.21E2,1.51E2,5.85E2,3.53E2,8.39E2,4.98E2,1.669E3,2.19E2,3.47E2,2.63E2,5.74E2,2.9E2,1.048E3,1.189E3,7.06E2],"tree_param":{"num_deleted":"0","num_feature":"14","num_nodes":"63","size_leaf_vector":"1"}},{"base_weights":[-4.90991E-4,-2.625697E0,1.1739099E0,-1.0662996E0,-3.9734774E0,3.8481445E0,3.6381033E-1,1.792861E0,-1.8138043E0,-1.3517877E0,-4.746402E0,6.7988653E0,3.0598178E0,1.7310249E0,-1.1401389E0,3.4869952E0,1.5233313E-1,1.0563663E0,-2.5582685E0,2.5630423E-1,-2.9199398E0,-6.4925604E0,-3.5681727E0,4.0669165E0,8.935929E0,5.6322336E0,2.169835E0,4.6074605E0,9.899369E-1,-2.3421361E0,6.200769E-1,4.8066106E-1,1.964315E-1,2.2745039E-1,-4.498887E-2,-1.64939E-1,1.7868213E-1,-9.590554E-2,-3.1957734E-1,-7.225117E-2,2.1734008E-1,-1.245804E-1,-3.560045E-1,-6.584686E-1,-4.1166392E-1,-8.611119E-2,-3.5018498E-1,2.116576E-1,5.3511655E-1,-4.365502E-2,7.426014E-1,3.6110386E-1,6.17237E-1,1.06255775E-2,2.6604196E-1,3.607674E-2,4.6124086E-1,-7.2182134E-2,1.6715312E-1,2.1343832E-3,-2.622347E-1,-5.2262757E-2,1.7804523E-1],"categories":[],"categories_nodes":[],"categories_segments":[],"categories_sizes":[],"default_left":[0,0,0,0,0,0,0,0,0,0,0,0,0,0,0,0,0,0,0,0,0,0,0,0,0,0,0,0,0,0,0,0,0,0,0,0,0,0,0,0,0,0,0,0,0,0,0,0,0,0,0,0,0,0,0,0,0,0,0,0,0,0,0],"id":19,"left_children":[1,3,5,7,9,11,13,15,17,19,21,23,25,27,29,31,33,35,37,39,41,43,45,47,49,51,53,55,57,59,61,-1,-1,-1,-1,-1,-1,-1,-1,-1,-1,-1,-1,-1,-1,-1,-1,-1,-1,-1,-1,-1,-1,-1,-1,-1,-1,-1,-1,-1,-1,-1,-1],"loss_changes":[8.3279195E4,1.7543074E4,4.0430062E4,8.278629E3,9.067656E3,1.0072281E4,2.945734E4,2.2312263E3,6.562494E3,2.5754377E3,7.0912344E3,5.29991E3,7.831283E3,1.5991656E4,1.4435268E4,1.0126201E3,7.881452E2,2.3280366E3,4.756086E3,1.4430924E3,1.0710488E3,3.2164102E3,4.1627734E3,1.4840557E3,1.6876094E3,2.0155371E3,5.9955977E3,7.3956562E3,1.2417985E4,8.986719E3,5.6623066E3,0E0,0E0,0E0,0E0,0E0,0E0,0E0,0E0,0E0,0E0,0E0,0E0,0E0,0E0,0E0,0E0,0E0,0E0,0E0,0E0,0E0,0E0,0E0,0E0,0E0,0E0,0E0,0E0,0E0,0E0,0E0,0E0],"parents":[2147483647,0,0,1,1,2,2,3,3,4,4,5,5,6,6,7,7,8,8,9,9,10,10,11,11,12,12,13,13,14,14,15,15,16,16,17,17,18,18,19,19,20,20,21,21,22,22,23,23,24,24,25,25,26,26,27,27,28,28,29,29,30,30],"right_children":[2,4,6,8,10,12,14,16,18,20,22,24,26,28,30,32,34,36,38,40,42,44,46,48,50,52,54,56,58,60,62,-1,-1,-1,-1,-1,-1,-1,-1,-1,-1,-1,-1,-1,-1,-1,-1,-1,-1,-1,-1,-1,-1,-1,-1,-1,-1,-1,-1,-1,-1,-1,-1],"split_conditions":[2.7083395E1,6.9552827E0,6.981559E-1,3.160649E0,3.398621E0,1.0020058E1,7.84491E0,9.7279435E-1,9.622445E0,1.5035759E0,2.8258276E1,5.7498563E-2,3.927984E0,9.91745E0,3.0832102E1,7.895298E-1,6.0654753E-1,2.6352063E-2,1.5599936E0,3.1812256E1,1.0428147E0,2.8617107E1,7.4538743E-1,3.1595446E1,4.8445385E-2,3.1394766E1,2.7575476E1,3.6944633E-3,2.7676455E1,5.839149E-1,3.0099348E1,4.8066106E-1,1.964315E-1,2.2745039E-1,-4.498887E-2,-1.64939E-1,1.7868213E-1,-9.590554E-2,-3.1957734E-1,-7.225117E-2,2.1734008E-1,-1.245804E-1,-3.560045E-1,-6.584686E-1,-4.1166392E-1,-8.611119E-2,-3.5018498E-1,2.116576E-1,5.3511655E-1,-4.365502E-2,7.426014E-1,3.6110386E-1,6.17237E-1,1.06255775E-2,2.6604196E-1,3.607674E-2,4.6124086E-1,-7.2182134E-2,1.6715312E-1,2.1343832E-3,-2.622347E-1,-5.2262757E-2,1.7804523E-1],"split_indices":[7,6,8,2,2,12,2,9,12,8,0,10,2,12,4,8,8,10,8,4,9,4,8,4,13,0,4,10,4,9,0,0,0,0,0,0,0,0,0,0,0,0,0,0,0,0,0,0,0,0,0,0,0,0,0,0,0,0,0,0,0,0,0],"split_type":[0,0,0,0,0,0,0,0,0,0,0,0,0,0,0,0,0,0,0,0,0,0,0,0,0,0,0,0,0,0,0,0,0,0,0,0,0,0,0,0,0,0,0,0,0,0,0,0,0,0,0,0,0,0,0,0,0,0,0,0,0,0,0],"sum_hessian":[2.701E4,8.348E3,1.8662E4,3.871E3,4.477E3,4.338E3,1.4324E4,8.02E2,3.069E3,1.02E3,3.457E3,9.13E2,3.425E3,7.503E3,6.821E3,3.94E2,4.08E2,6.32E2,2.437E3,5.04E2,5.16E2,1.391E3,2.066E3,4.02E2,5.11E2,8.79E2,2.546E3,1.536E3,5.967E3,4.053E3,2.768E3,1.13E2,2.81E2,8.5E1,3.23E2,1.73E2,4.59E2,1.253E3,1.184E3,3.43E2,1.61E2,2.74E2,2.42E2,6.05E2,7.86E2,5.07E2,1.559E3,2.62E2,1.4E2,1.8E1,4.93E2,5.74E2,3.05E2,9.22E2,1.624E3,3.35E2,1.201E3,2.193E3,3.774E3,1.148E3,2.905E3,1.544E3,1.224E3],"tree_param":{"num_deleted":"0","num_feature":"14","num_nodes":"63","size_leaf_vector":"1"}},{"base_weights":[1.1975673E-3,-1.3271946E0,2.0358312E0,1.6598351E0,-1.9622474E0,4.5153637E0,1.253922E0,3.1290798E0,2.1888916E-1,-6.230513E-2,-2.9519007E0,6.260722E0,3.246284E0,4.1005087E0,5.4526067E-1,4.6939397E0,1.5487269E0,2.8410392E0,-4.839101E-1,2.7941377E0,-8.323881E-1,-7.1982557E-1,-3.7353158E0,8.207014E0,5.014809E0,2.1432486E0,5.079499E0,6.992296E0,3.327362E0,2.0066848E0,-7.628026E-1,6.2473685E-1,3.1012455E-1,-3.0212995E-2,2.1197988E-1,8.427975E-2,3.7544474E-1,-1.8327229E-1,3.0531326E-2,1.4562365E-2,3.6884388E-1,1.0893639E-1,-1.3269602E-1,1.5711547E-1,-1.1483173E-1,-4.4189528E-1,-2.1460217E-1,2.2240713E-1,6.895565E-1,2.3818542E-1,5.050566E-1,-1.6953843E-2,2.3046327E-1,5.2148193E-1,2.4333824E-1,3.7569898E-1,7.094468E-1,3.7323427E-1,1.4779001E-1,3.8240886E-1,1.0267582E-1,-1.865409E-1,3.459592E-2],"categories":[],"categories_nodes":[],"categories_segments":[],"categories_sizes":[],"default_left":[0,0,0,0,0,0,0,0,0,0,0,0,0,0,0,0,0,0,0,0,0,0,0,0,0,0,0,0,0,0,0,0,0,0,0,0,0,0,0,0,0,0,0,0,0,0,0,0,0,0,0,0,0,0,0,0,0,0,0,0,0,0,0],"id":20,"left_children":[1,3,5,7,9,11,13,15,17,19,21,23,25,27,29,31,33,35,37,39,41,43,45,47,49,51,53,55,57,59,61,-1,-1,-1,-1,-1,-1,-1,-1,-1,-1,-1,-1,-1,-1,-1,-1,-1,-1,-1,-1,-1,-1,-1,-1,-1,-1,-1,-1,-1,-1,-1,-1],"loss_changes":[7.296185E4,3.0983777E4,2.0667434E4,6.0626943E3,2.5325367E4,5.641211E3,1.6353756E4,3.4994883E3,2.6679717E3,1.0151732E4,1.5483273E4,2.565625E3,2.9858662E3,3.589748E3,1.2413776E4,1.7827432E3,1.5005453E3,1.0080886E3,1.7870153E3,4.648929E3,6.592534E3,4.423643E3,1.232682E4,9.1164453E2,1.7219277E3,1.6108452E3,1.6105879E3,1.422707E3,2.520251E3,6.145789E3,6.427663E3,0E0,0E0,0E0,0E0,0E0,0E0,0E0,0E0,0E0,0E0,0E0,0E0,0E0,0E0,0E0,0E0,0E0,0E0,0E0,0E0,0E0,0E0,0E0,0E0,0E0,0E0,0E0,0E0,0E0,0E0,0E0,0E0],"parents":[2147483647,0,0,1,1,2,2,3,3,4,4,5,5,6,6,7,7,8,8,9,9,10,10,11,11,12,12,13,13,14,14,15,15,16,16,17,17,18,18,19,19,20,20,21,21,22,22,23,23,24,24,25,25,26,26,27,27,28,28,29,29,30,30],"right_children":[2,4,6,8,10,12,14,16,18,20,22,24,26,28,30,32,34,36,38,40,42,44,46,48,50,52,54,56,58,60,62,-1,-1,-1,-1,-1,-1,-1,-1,-1,-1,-1,-1,-1,-1,-1,-1,-1,-1,-1,-1,-1,-1,-1,-1,-1,-1,-1,-1,-1,-1,-1,-1],"split_conditions":[3.005462E1,2.572671E0,3.5338972E0,7.4485908E0,6.948688E-1,8.539638E-1,3.0372E0,1.0200768E0,4.2033118E-1,9.91745E0,3.8887393E0,5.5794225E0,3.1092283E1,1.0020058E1,9.2554396E-1,1.0020058E1,2.7425201E1,2.6766058E1,2.7220642E1,5.8560885E-2,4.051033E0,9.91745E0,2.7834982E1,8.458499E0,2.818553E1,2.5043137E1,8.949913E0,2.8617107E1,1.0108544E0,9.91745E0,2.8617107E1,6.2473685E-1,3.1012455E-1,-3.0212995E-2,2.1197988E-1,8.427975E-2,3.7544474E-1,-1.8327229E-1,3.0531326E-2,1.4562365E-2,3.6884388E-1,1.0893639E-1,-1.3269602E-1,1.5711547E-1,-1.1483173E-1,-4.4189528E-1,-2.1460217E-1,2.2240713E-1,6.895565E-1,2.3818542E-1,5.050566E-1,-1.6953843E-2,2.3046327E-1,5.2148193E-1,2.4333824E-1,3.7569898E-1,7.094468E-1,3.7323427E-1,1.4779001E-1,3.8240886E-1,1.0267582E-1,-1.865409E-1,3.459592E-2],"split_indices":[7,2,6,6,9,9,2,9,9,12,6,2,4,12,9,12,4,7,4,10,6,12,4,5,4,5,2,4,9,12,4,0,0,0,0,0,0,0,0,0,0,0,0,0,0,0,0,0,0,0,0,0,0,0,0,0,0,0,0,0,0,0,0],"split_type":[0,0,0,0,0,0,0,0,0,0,0,0,0,0,0,0,0,0,0,0,0,0,0,0,0,0,0,0,0,0,0,0,0,0,0,0,0,0,0,0,0,0,0,0,0,0,0,0,0,0,0,0,0,0,0,0,0,0,0,0,0,0,0],"sum_hessian":[2.6993E4,1.6331E4,1.0662E4,2.863E3,1.3468E4,2.555E3,8.107E3,1.417E3,1.446E3,4.613E3,8.855E3,1.074E3,1.481E3,1.615E3,6.492E3,7.11E2,7.06E2,3.05E2,1.141E3,9.79E2,3.634E3,2.301E3,6.554E3,4.17E2,6.57E2,9.26E2,5.55E2,3.39E2,1.276E3,3.066E3,3.426E3,1.46E2,5.65E2,2.57E2,4.49E2,1.56E2,1.49E2,3.69E2,7.72E2,4.02E2,5.77E2,9.94E2,2.64E3,4.84E2,1.817E3,2.427E3,4.127E3,3E1,3.87E2,2.57E2,4E2,2.21E2,7.05E2,3.24E2,2.31E2,1.54E2,1.85E2,6.69E2,6.07E2,6.33E2,2.433E3,1.481E3,1.945E3],"tree_param":{"num_deleted":"0","num_feature":"14","num_nodes":"63","size_leaf_vector":"1"}},{"base_weights":[-7.793661E-4,-1.7935554E0,1.3298029E0,-2.9371896E0,-2.703519E-1,-3.755478E-1,2.492356E0,-4.737259E0,-1.8928163E0,-1.2557296E0,1.5282575E0,-1.4223658E0,1.3991845E0,4.5300426E0,1.5855128E0,-2.314735E0,-5.37943E0,3.3717525E-1,-2.6270072E0,1.5815474E-1,-2.482842E0,3.1641834E0,2.7503562E-1,8.1096053E-1,-2.1923614E0,3.6195712E0,5.859984E-1,6.14957E0,3.3175886E0,2.977153E0,3.5577706E-1,-4.430128E-1,-6.858919E-2,-3.2740855E-1,-5.2478904E-1,2.3307216E-1,-2.5583724E-2,-1.0156819E-1,-3.0402836E-1,2.2452572E-1,-4.7606032E-2,-5.4654196E-2,-2.7037677E-1,4.7092685E-1,1.8262218E-1,-1.7306066E-1,8.312461E-2,2.8720137E-1,7.2893393E-3,2.0582449E-2,-2.2829907E-1,4.3370882E-1,2.0358877E-1,2.5056675E-1,-1.48509145E-2,6.9149685E-1,4.3401372E-1,1.21743314E-1,3.5411197E-1,9.096261E-2,3.124704E-1,2.1530427E-1,-2.7651459E-2],"categories":[],"categories_nodes":[],"categories_segments":[],"categories_sizes":[],"default_left":[0,0,0,0,0,0,0,0,0,0,0,0,0,0,0,0,0,0,0,0,0,0,0,0,0,0,0,0,0,0,0,0,0,0,0,0,0,0,0,0,0,0,0,0,0,0,0,0,0,0,0,0,0,0,0,0,0,0,0,0,0,0,0],"id":21,"left_children":[1,3,5,7,9,11,13,15,17,19,21,23,25,27,29,31,33,35,37,39,41,43,45,47,49,51,53,55,57,59,61,-1,-1,-1,-1,-1,-1,-1,-1,-1,-1,-1,-1,-1,-1,-1,-1,-1,-1,-1,-1,-1,-1,-1,-1,-1,-1,-1,-1,-1,-1,-1,-1],"loss_changes":[6.4528426E4,2.0073875E4,3.078416E4,1.2364828E4,8.762444E3,1.1696978E4,1.7054133E4,3.7460625E3,6.8232627E3,5.5419673E3,3.586942E3,6.8115986E3,4.2157314E3,5.562117E3,1.0936178E4,2.3813254E3,2.8729414E3,1.7492928E3,4.9883125E3,2.964048E3,2.7577354E3,1.8078145E3,1.8502545E3,2.0321672E3,4.772038E3,1.1983926E3,3.3620952E3,2.1501172E3,3.2349355E3,5.119049E3,5.560932E3,0E0,0E0,0E0,0E0,0E0,0E0,0E0,0E0,0E0,0E0,0E0,0E0,0E0,0E0,0E0,0E0,0E0,0E0,0E0,0E0,0E0,0E0,0E0,0E0,0E0,0E0,0E0,0E0,0E0,0E0,0E0,0E0],"parents":[2147483647,0,0,1,1,2,2,3,3,4,4,5,5,6,6,7,7,8,8,9,9,10,10,11,11,12,12,13,13,14,14,15,15,16,16,17,17,18,18,19,19,20,20,21,21,22,22,23,23,24,24,25,25,26,26,27,27,28,28,29,29,30,30],"right_children":[2,4,6,8,10,12,14,16,18,20,22,24,26,28,30,32,34,36,38,40,42,44,46,48,50,52,54,56,58,60,62,-1,-1,-1,-1,-1,-1,-1,-1,-1,-1,-1,-1,-1,-1,-1,-1,-1,-1,-1,-1,-1,-1,-1,-1,-1,-1,-1,-1,-1,-1,-1,-1],"split_conditions":[2.8270718E1,3.0487709E1,2.8314434E1,2.7837856E1,3.1295744E1,3.1138798E1,6.163906E-1,9.91745E0,4.8770294E-1,9.4067013E-1,6.677637E0,3.651842E0,4.051033E0,6.2409463E0,7.1405506E0,3.6112055E-2,9.651148E-1,1.0020058E1,6.9552827E0,1.0020058E1,5.081692E0,4.8770294E-1,2.0669485E1,4.2033118E-1,4.1258204E-1,7.970251E-1,4.2033118E-1,1.0020058E1,2.78876E1,2.7369694E1,1.0020058E1,-4.430128E-1,-6.858919E-2,-3.2740855E-1,-5.2478904E-1,2.3307216E-1,-2.5583724E-2,-1.0156819E-1,-3.0402836E-1,2.2452572E-1,-4.7606032E-2,-5.4654196E-2,-2.7037677E-1,4.7092685E-1,1.8262218E-1,-1.7306066E-1,8.312461E-2,2.8720137E-1,7.2893393E-3,2.0582449E-2,-2.2829907E-1,4.3370882E-1,2.0358877E-1,2.5056675E-1,-1.48509145E-2,6.9149685E-1,4.3401372E-1,1.21743314E-1,3.5411197E-1,9.096261E-2,3.124704E-1,2.1530427E-1,-2.7651459E-2],"split_indices":[7,4,0,0,0,4,9,12,9,9,6,6,6,6,6,10,9,12,6,12,6,9,5,9,9,9,9,12,4,4,12,0,0,0,0,0,0,0,0,0,0,0,0,0,0,0,0,0,0,0,0,0,0,0,0,0,0,0,0,0,0,0,0],"split_type":[0,0,0,0,0,0,0,0,0,0,0,0,0,0,0,0,0,0,0,0,0,0,0,0,0,0,0,0,0,0,0,0,0,0,0,0,0,0,0,0,0,0,0,0,0,0,0,0,0,0,0,0,0,0,0,0,0,0,0,0,0,0,0],"sum_hessian":[2.7049E4,1.1523E4,1.5526E4,6.581E3,4.942E3,6.294E3,9.232E3,2.415E3,4.166E3,3.193E3,1.749E3,3.959E3,2.335E3,2.842E3,6.39E3,5.07E2,1.908E3,1.032E3,3.134E3,1.484E3,1.709E3,7.58E2,9.91E2,1.015E3,2.944E3,6.25E2,1.71E3,1.215E3,1.627E3,2.997E3,3.393E3,1.57E2,3.5E2,9.15E2,9.93E2,2.09E2,8.23E2,1.454E3,1.68E3,3.28E2,1.156E3,5.69E2,1.14E3,1.84E2,5.74E2,2.36E2,7.55E2,2.08E2,8.07E2,6.26E2,2.318E3,2.32E2,3.93E2,3.97E2,1.313E3,2.71E2,9.44E2,6.22E2,1.005E3,1.006E3,1.991E3,7.83E2,2.61E3],"tree_param":{"num_deleted":"0","num_feature":"14","num_nodes":"63","size_leaf_vector":"1"}},{"base_weights":[-1.0546096E-2,-9.4124144E-1,2.2780955E0,1.6037574E0,-1.6717584E0,3.6141372E0,9.039733E-1,5.7765543E-1,3.3159127E0,-2.647078E0,5.0416864E-2,1.953573E0,4.666873E0,-6.762096E-2,2.6581326E0,2.740066E0,-9.718947E-2,1.8146989E0,4.589938E0,-1.3075426E0,-3.8213234E0,1.7707195E0,-9.7384214E-1,-1.2905489E-1,2.7574449E0,3.6556773E0,6.4525294E0,-1.9837666E0,8.071809E-1,5.486176E0,1.8917619E0,4.810522E-2,2.7745813E-1,1.9025941E-1,-5.2002177E-2,3.4819037E-1,8.927165E-2,5.7369435E-1,3.068168E-1,-2.0160575E-1,1.9609912E-3,-2.1868849E-1,-4.1019043E-1,3.5847303E-1,7.8108445E-2,-1.469738E-1,6.937861E-2,2.7089295E-1,-5.501846E-2,3.5757816E-1,1.455012E-1,4.00997E-1,1.9783022E-1,6.549392E-1,4.140085E-1,7.159868E-2,-2.185386E-1,-8.7583646E-2,1.2794106E-1,2.664694E-1,6.003463E-1,7.526827E-2,3.1068173E-1],"categories":[],"categories_nodes":[],"categories_segments":[],"categories_sizes":[],"default_left":[0,0,0,0,0,0,0,0,0,0,0,0,0,0,0,0,0,0,0,0,0,0,0,0,0,0,0,0,0,0,0,0,0,0,0,0,0,0,0,0,0,0,0,0,0,0,0,0,0,0,0,0,0,0,0,0,0,0,0,0,0,0,0],"id":22,"left_children":[1,3,5,7,9,11,13,15,17,19,21,23,25,27,29,31,33,35,37,39,41,43,45,47,49,51,53,55,57,59,61,-1,-1,-1,-1,-1,-1,-1,-1,-1,-1,-1,-1,-1,-1,-1,-1,-1,-1,-1,-1,-1,-1,-1,-1,-1,-1,-1,-1,-1,-1,-1,-1],"loss_changes":[5.7506504E4,3.5685633E4,1.4325816E4,7.5191436E3,2.5049074E4,6.90825E3,6.5601514E3,3.9082493E3,3.059457E3,1.4971E4,9.504382E3,2.5735493E3,4.3478906E3,4.155343E3,2.9631973E3,9.899492E2,2.7960486E3,1.3038679E3,1.6615293E3,7.1858916E3,7.192797E3,4.329373E3,5.375545E3,8.4482764E2,1.7743496E3,2.4718418E3,1.8938203E3,1.6754866E3,2.565851E3,1.2451289E3,2.04374E3,0E0,0E0,0E0,0E0,0E0,0E0,0E0,0E0,0E0,0E0,0E0,0E0,0E0,0E0,0E0,0E0,0E0,0E0,0E0,0E0,0E0,0E0,0E0,0E0,0E0,0E0,0E0,0E0,0E0,0E0,0E0,0E0],"parents":[2147483647,0,0,1,1,2,2,3,3,4,4,5,5,6,6,7,7,8,8,9,9,10,10,11,11,12,12,13,13,14,14,15,15,16,16,17,17,18,18,19,19,20,20,21,21,22,22,23,23,24,24,25,25,26,26,27,27,28,28,29,29,30,30],"right_children":[2,4,6,8,10,12,14,16,18,20,22,24,26,28,30,32,34,36,38,40,42,44,46,48,50,52,54,56,58,60,62,-1,-1,-1,-1,-1,-1,-1,-1,-1,-1,-1,-1,-1,-1,-1,-1,-1,-1,-1,-1,-1,-1,-1,-1,-1,-1,-1,-1,-1,-1,-1,-1],"split_conditions":[3.110754E1,6.655408E-1,1.515241E0,3.1037245E1,3.1295744E1,2.8049675E1,3.1493425E1,3.4678524E0,2.8772684E1,9.4067013E-1,5.713319E0,2.1634985E1,3.1493425E1,2.6952106E1,1.0190505E1,2.544407E1,3.784289E-1,3.0805879E0,9.720927E0,2.9809238E1,8.114936E0,1.0020058E1,3.1979954E1,2.1261585E0,5.373545E0,6.792256E0,8.3901507E-1,3.9482802E-1,2.355196E1,-2.770529E-4,3.1835217E1,4.810522E-2,2.7745813E-1,1.9025941E-1,-5.2002177E-2,3.4819037E-1,8.927165E-2,5.7369435E-1,3.068168E-1,-2.0160575E-1,1.9609912E-3,-2.1868849E-1,-4.1019043E-1,3.5847303E-1,7.8108445E-2,-1.469738E-1,6.937861E-2,2.7089295E-1,-5.501846E-2,3.5757816E-1,1.455012E-1,4.00997E-1,1.9783022E-1,6.549392E-1,4.140085E-1,7.159868E-2,-2.185386E-1,-8.7583646E-2,1.2794106E-1,2.664694E-1,6.003463E-1,7.526827E-2,3.1068173E-1],"split_indices":[7,8,8,0,0,0,4,6,4,9,6,1,4,0,12,5,9,6,12,4,6,12,4,6,6,6,9,9,1,11,0,0,0,0,0,0,0,0,0,0,0,0,0,0,0,0,0,0,0,0,0,0,0,0,0,0,0,0,0,0,0,0,0],"split_type":[0,0,0,0,0,0,0,0,0,0,0,0,0,0,0,0,0,0,0,0,0,0,0,0,0,0,0,0,0,0,0,0,0,0,0,0,0,0,0,0,0,0,0,0,0,0,0,0,0,0,0,0,0,0,0,0,0,0,0,0,0,0,0],"sum_hessian":[2.6996E4,1.9192E4,7.804E3,4.28E3,1.4912E4,3.956E3,3.848E3,2.677E3,1.603E3,9.52E3,5.392E3,1.536E3,2.42E3,2.477E3,1.371E3,6.36E2,2.041E3,7.37E2,8.66E2,4.448E3,5.072E3,2.012E3,3.38E3,4.28E2,1.108E3,1.547E3,8.73E2,7.76E2,1.701E3,2.91E2,1.08E3,1.62E2,4.74E2,3.72E2,1.669E3,1.58E2,5.79E2,1.94E2,6.72E2,2.328E3,2.12E3,2.769E3,2.303E3,4.55E2,1.557E3,2.301E3,1.079E3,5.8E1,3.7E2,3.91E2,7.17E2,7.19E2,8.28E2,3.68E2,5.05E2,1.6E2,6.16E2,5E2,1.201E3,1.42E2,1.49E2,7.32E2,3.48E2],"tree_param":{"num_deleted":"0","num_feature":"14","num_nodes":"63","size_leaf_vector":"1"}},{"base_weights":[5.1969523E-3,-2.3030925E0,8.6607367E-1,-1.1258179E0,-3.6520033E0,3.3872738E0,2.1003202E-1,-1.9646703E0,6.4931494E-1,-1.1959981E0,-4.3920856E0,5.520838E0,2.6543057E0,2.6334715E0,-4.6183172E-1,2.2219014E-1,-2.5624278E0,2.0880258E0,-7.700274E-1,-3.0550072E0,-3.10836E-1,-5.9746523E0,-3.4637334E0,8.31352E0,4.7906265E0,5.0527816E0,1.97747E0,5.259019E-1,4.625935E0,1.9707834E0,-1.108938E0,-1.8681915E-1,6.899651E-2,-3.4424126E-1,-1.4655271E-1,3.1772327E-1,9.3448006E-2,1.3281927E-1,-1.24660835E-1,-1.1621699E-1,-3.6207247E-1,2.0687099E-1,-7.0542715E-2,-2.827098E-1,-5.235712E-1,-9.0850435E-2,-3.2464862E-1,5.10759E-1,8.802395E-1,4.840235E-1,2.7882043E-1,6.1677414E-1,3.4596244E-1,5.0594814E-2,2.5243798E-1,-8.9227065E-2,1.7933914E-1,-3.7104294E-1,4.1538063E-1,7.3785044E-2,2.8521585E-1,-2.2230189E-1,-2.215625E-2],"categories":[],"categories_nodes":[],"categories_segments":[],"categories_sizes":[],"default_left":[0,0,0,0,0,0,0,0,0,0,0,0,0,0,0,0,0,0,0,0,0,0,0,0,0,0,0,0,0,0,0,0,0,0,0,0,0,0,0,0,0,0,0,0,0,0,0,0,0,0,0,0,0,0,0,0,0,0,0,0,0,0,0],"id":23,"left_children":[1,3,5,7,9,11,13,15,17,19,21,23,25,27,29,31,33,35,37,39,41,43,45,47,49,51,53,55,57,59,61,-1,-1,-1,-1,-1,-1,-1,-1,-1,-1,-1,-1,-1,-1,-1,-1,-1,-1,-1,-1,-1,-1,-1,-1,-1,-1,-1,-1,-1,-1,-1,-1],"loss_changes":[5.3738574E4,1.1661617E4,3.257837E4,5.844404E3,6.216547E3,6.345461E3,2.545194E4,3.484289E3,2.5745571E3,1.3055969E3,3.843246E3,2.078955E3,4.907209E3,1.4245637E4,1.9268338E4,9.4026483E2,2.6534355E3,1.0800276E3,1.2190043E3,5.967693E2,8.9372064E2,1.3277422E3,2.2924434E3,1.040001E3,1.3371348E3,1.2552949E3,3.743662E3,4.649068E3,9.173805E3,4.2963154E3,1.3430769E4,0E0,0E0,0E0,0E0,0E0,0E0,0E0,0E0,0E0,0E0,0E0,0E0,0E0,0E0,0E0,0E0,0E0,0E0,0E0,0E0,0E0,0E0,0E0,0E0,0E0,0E0,0E0,0E0,0E0,0E0,0E0,0E0],"parents":[2147483647,0,0,1,1,2,2,3,3,4,4,5,5,6,6,7,7,8,8,9,9,10,10,11,11,12,12,13,13,14,14,15,15,16,16,17,17,18,18,19,19,20,20,21,21,22,22,23,23,24,24,25,25,26,26,27,27,28,28,29,29,30,30],"right_children":[2,4,6,8,10,12,14,16,18,20,22,24,26,28,30,32,34,36,38,40,42,44,46,48,50,52,54,56,58,60,62,-1,-1,-1,-1,-1,-1,-1,-1,-1,-1,-1,-1,-1,-1,-1,-1,-1,-1,-1,-1,-1,-1,-1,-1,-1,-1,-1,-1,-1,-1,-1,-1],"split_conditions":[2.6685076E1,8.084945E0,3.0372E0,3.1787577E1,6.543209E-1,7.7755934E-1,1.0020058E1,6.543209E-1,9.790733E-1,2.385665E1,2.7837856E1,1.0020058E1,4.4164234E-1,7.174925E-2,6.181931E-1,1.469319E1,2.264079E1,9.6713835E-1,9.91745E0,7.2688565E0,8.156055E0,3.013486E0,9.814201E0,9.927419E-2,1.0273322E0,3.0805879E0,2.9169554E1,3.5462627E-4,5.267236E-2,3.084549E1,2.735232E1,-1.8681915E-1,6.899651E-2,-3.4424126E-1,-1.4655271E-1,3.1772327E-1,9.3448006E-2,1.3281927E-1,-1.24660835E-1,-1.1621699E-1,-3.6207247E-1,2.0687099E-1,-7.0542715E-2,-2.827098E-1,-5.235712E-1,-9.0850435E-2,-3.2464862E-1,5.10759E-1,8.802395E-1,4.840235E-1,2.7882043E-1,6.1677414E-1,3.4596244E-1,5.0594814E-2,2.5243798E-1,-8.9227065E-2,1.7933914E-1,-3.7104294E-1,4.1538063E-1,7.3785044E-2,2.8521585E-1,-2.2230189E-1,-2.215625E-2],"split_indices":[7,2,2,0,8,8,12,8,9,1,0,12,9,10,8,1,1,8,12,6,12,6,12,10,9,6,0,11,13,0,0,0,0,0,0,0,0,0,0,0,0,0,0,0,0,0,0,0,0,0,0,0,0,0,0,0,0,0,0,0,0,0,0],"split_type":[0,0,0,0,0,0,0,0,0,0,0,0,0,0,0,0,0,0,0,0,0,0,0,0,0,0,0,0,0,0,0,0,0,0,0,0,0,0,0,0,0,0,0,0,0,0,0,0,0,0,0,0,0,0,0,0,0,0,0,0,0,0,0],"sum_hessian":[2.7041E4,7.345E3,1.9696E4,3.923E3,3.422E3,4.066E3,1.563E4,2.664E3,1.259E3,7.93E2,2.629E3,1.038E3,3.028E3,3.392E3,1.2238E4,5.72E2,2.092E3,6.25E2,6.34E2,2.55E2,5.38E2,9.7E2,1.659E3,2.13E2,8.25E2,6.65E2,2.363E3,1.649E3,1.743E3,2.571E3,9.667E3,1.14E2,4.58E2,6.17E2,1.475E3,2.04E2,4.21E2,1.55E2,4.79E2,1.23E2,1.32E2,8.8E1,4.5E2,1.85E2,7.85E2,3.38E2,1.321E3,1.26E2,8.7E1,4.18E2,4.07E2,1.41E2,5.24E2,1.104E3,1.259E3,8.43E2,8.06E2,1E2,1.643E3,1.552E3,1.019E3,3.214E3,6.453E3],"tree_param":{"num_deleted":"0","num_feature":"14","num_nodes":"63","size_leaf_vector":"1"}},{"base_weights":[2.7473964E-4,-8.1787133E-1,2.1679068E0,2.9553893E-1,-2.1187775E0,3.3522758E0,9.09074E-1,2.2426214E0,-4.45346E-1,-9.9255186E-1,-3.3320262E0,4.8653936E0,2.302721E0,2.8522153E0,4.805016E-2,4.527446E0,1.6044998E0,7.238903E-1,-1.6936996E0,3.9704958E-1,-2.001545E0,-5.0633435E0,-2.4379816E0,6.0554304E0,3.2885718E0,1.2892518E0,3.855786E0,5.512228E0,2.0977516E0,1.5874586E0,-8.6928594E-1,2.0636776E-1,5.344767E-1,2.5463417E-1,5.7046674E-2,1.7910425E-1,-1.5658569E-2,-2.406755E-1,-5.2297052E-2,2.3558597E-1,-2.5411732E-2,-6.5200694E-2,-2.5278175E-1,-2.7442747E-1,-4.8956734E-1,7.0585352E-3,-2.4161251E-1,3.7820286E-1,6.0492617E-1,4.3757865E-1,2.0759368E-1,-5.5321727E-2,1.6622345E-1,4.9904123E-1,2.4740459E-1,2.6758373E-1,6.500965E-1,3.5025465E-1,1.0655847E-1,3.359517E-1,7.115895E-2,5.0012086E-2,-1.354554E-1],"categories":[],"categories_nodes":[],"categories_segments":[],"categories_sizes":[],"default_left":[0,0,0,0,0,0,0,0,0,0,0,0,0,0,0,0,0,0,0,0,0,0,0,0,0,0,0,0,0,0,0,0,0,0,0,0,0,0,0,0,0,0,0,0,0,0,0,0,0,0,0,0,0,0,0,0,0,0,0,0,0,0,0],"id":24,"left_children":[1,3,5,7,9,11,13,15,17,19,21,23,25,27,29,31,33,35,37,39,41,43,45,47,49,51,53,55,57,59,61,-1,-1,-1,-1,-1,-1,-1,-1,-1,-1,-1,-1,-1,-1,-1,-1,-1,-1,-1,-1,-1,-1,-1,-1,-1,-1,-1,-1,-1,-1,-1,-1],"loss_changes":[4.772503E4,2.8298848E4,1.0991016E4,1.5188313E4,1.2307879E4,6.021992E3,5.9828364E3,4.223841E3,1.1133749E4,6.5542036E3,6.700793E3,2.898004E3,3.528621E3,2.1919941E3,3.5021123E3,2.6380234E3,3.1917021E3,5.488047E3,5.0420635E3,3.5826167E3,3.7189688E3,2.5248906E3,4.2094023E3,1.7342617E3,1.0010049E3,2.125651E3,1.5916221E3,1.3438984E3,1.4907368E3,1.6844165E3,1.9144623E3,0E0,0E0,0E0,0E0,0E0,0E0,0E0,0E0,0E0,0E0,0E0,0E0,0E0,0E0,0E0,0E0,0E0,0E0,0E0,0E0,0E0,0E0,0E0,0E0,0E0,0E0,0E0,0E0,0E0,0E0,0E0,0E0],"parents":[2147483647,0,0,1,1,2,2,3,3,4,4,5,5,6,6,7,7,8,8,9,9,10,10,11,11,12,12,13,13,14,14,15,15,16,16,17,17,18,18,19,19,20,20,21,21,22,22,23,23,24,24,25,25,26,26,27,27,28,28,29,29,30,30],"right_children":[2,4,6,8,10,12,14,16,18,20,22,24,26,28,30,32,34,36,38,40,42,44,46,48,50,52,54,56,58,60,62,-1,-1,-1,-1,-1,-1,-1,-1,-1,-1,-1,-1,-1,-1,-1,-1,-1,-1,-1,-1,-1,-1,-1,-1,-1,-1,-1,-1,-1,-1,-1,-1],"split_conditions":[3.1271784E1,8.146674E0,7.605555E0,8.366019E-1,1.583296E0,6.125477E0,9.0791345E-1,1.0020058E1,1.0428147E0,6.366954E0,2.7548069E1,1.1539756E0,3.084549E1,9.720927E0,7.41373E-1,8.760662E-2,7.3295885E-1,5.713319E0,2.8861841E1,1.0190505E1,9.562585E-1,5.8268247E0,3.563532E-1,3.0099348E1,8.366019E-1,2.984673E1,4.6650144E-1,8.760662E-2,4.6650144E-1,1.0020058E1,5.373545E0,2.0636776E-1,5.344767E-1,2.5463417E-1,5.7046674E-2,1.7910425E-1,-1.5658569E-2,-2.406755E-1,-5.2297052E-2,2.3558597E-1,-2.5411732E-2,-6.5200694E-2,-2.5278175E-1,-2.7442747E-1,-4.8956734E-1,7.0585352E-3,-2.4161251E-1,3.7820286E-1,6.0492617E-1,4.3757865E-1,2.0759368E-1,-5.5321727E-2,1.6622345E-1,4.9904123E-1,2.4740459E-1,2.6758373E-1,6.500965E-1,3.5025465E-1,1.0655847E-1,3.359517E-1,7.115895E-2,5.0012086E-2,-1.354554E-1],"split_indices":[7,2,2,8,8,6,8,12,9,6,0,9,0,12,9,10,9,6,0,12,9,6,9,0,8,5,9,10,9,12,6,0,0,0,0,0,0,0,0,0,0,0,0,0,0,0,0,0,0,0,0,0,0,0,0,0,0,0,0,0,0,0,0],"split_type":[0,0,0,0,0,0,0,0,0,0,0,0,0,0,0,0,0,0,0,0,0,0,0,0,0,0,0,0,0,0,0,0,0,0,0,0,0,0,0,0,0,0,0,0,0,0,0,0,0,0,0,0,0,0,0,0,0,0,0,0,0,0,0],"sum_hessian":[2.6909E4,1.9536E4,7.373E3,1.0527E4,9.009E3,3.798E3,3.575E3,2.901E3,7.626E3,4.673E3,4.336E3,1.554E3,2.244E3,1.097E3,2.478E3,6.32E2,2.269E3,3.938E3,3.688E3,1.966E3,2.707E3,1.475E3,2.861E3,8.84E2,6.7E2,1.359E3,8.85E2,2.41E2,8.56E2,9.25E2,1.553E3,3.33E2,2.99E2,8.18E2,1.451E3,1.487E3,2.451E3,1.628E3,2.06E3,4.3E2,1.536E3,1.338E3,1.369E3,5.81E2,8.94E2,5.36E2,2.325E3,4.72E2,4.12E2,1.6E2,5.1E2,3.87E2,9.72E2,2.13E2,6.72E2,1.33E2,1.08E2,2.14E2,6.42E2,1.94E2,7.31E2,5.52E2,1.001E3],"tree_param":{"num_deleted":"0","num_feature":"14","num_nodes":"63","size_leaf_vector":"1"}},{"base_weights":[1.9465761E-2,-2.0881233E0,7.638239E-1,-4.0300226E0,-1.4086354E0,1.8437951E0,-4.556693E-1,-4.857564E0,-2.4964638E0,1.1875724E0,-1.9282697E0,4.02234E0,1.239006E0,2.1159284E0,-9.8005515E-1,-3.1555226E0,-5.6653347E0,2.8086954E-1,-3.2519708E0,3.446285E0,5.169304E-1,1.6515598E-2,-2.538888E0,2.2993498E0,6.0346646E0,2.3187113E0,5.7004366E-2,3.5576465E0,1.0807194E0,-2.4472697E0,-1.16258346E-1,-1.09614894E-1,-3.125632E-1,-3.072744E-1,-5.045681E-1,-1.2335777E-1,2.736526E-1,-3.0924039E-2,-3.1753153E-1,1.1805473E-1,4.4704327E-1,-7.220999E-2,1.2619911E-1,1.11869946E-1,-8.635758E-2,-4.096951E-2,-2.5190964E-1,7.8377776E-2,3.4118977E-1,-2.649237E-1,5.264045E-1,1.0900222E-1,3.0216467E-1,1.6709201E-1,-4.812912E-2,5.071356E-1,2.2611287E-1,1.0005709E-2,2.0141897E-1,-9.161555E-2,-2.7743122E-1,1.2736157E-1,-7.396766E-2],"categories":[],"categories_nodes":[],"categories_segments":[],"categories_sizes":[],"default_left":[0,0,0,0,0,0,0,0,0,0,0,0,0,0,0,0,0,0,0,0,0,0,0,0,0,0,0,0,0,0,0,0,0,0,0,0,0,0,0,0,0,0,0,0,0,0,0,0,0,0,0,0,0,0,0,0,0,0,0,0,0,0,0],"id":25,"left_children":[1,3,5,7,9,11,13,15,17,19,21,23,25,27,29,31,33,35,37,39,41,43,45,47,49,51,53,55,57,59,61,-1,-1,-1,-1,-1,-1,-1,-1,-1,-1,-1,-1,-1,-1,-1,-1,-1,-1,-1,-1,-1,-1,-1,-1,-1,-1,-1,-1,-1,-1,-1,-1],"loss_changes":[4.228549E4,9.276988E3,2.6234512E4,2.3014102E3,7.03504E3,1.3913719E4,1.2618729E4,1.6085801E3,1.3459209E3,1.3160836E3,5.158635E3,7.943379E3,1.0554152E4,2.3617363E3,9.849757E3,5.0852173E2,9.1361914E2,7.9509503E2,1.0341875E3,8.316426E2,1.01313434E3,1.5750718E3,4.0855762E3,3.2068936E3,5.414789E3,6.0216562E3,5.285332E3,1.3285684E3,1.2685989E3,3.823332E3,6.758044E3,0E0,0E0,0E0,0E0,0E0,0E0,0E0,0E0,0E0,0E0,0E0,0E0,0E0,0E0,0E0,0E0,0E0,0E0,0E0,0E0,0E0,0E0,0E0,0E0,0E0,0E0,0E0,0E0,0E0,0E0,0E0,0E0],"parents":[2147483647,0,0,1,1,2,2,3,3,4,4,5,5,6,6,7,7,8,8,9,9,10,10,11,11,12,12,13,13,14,14,15,15,16,16,17,17,18,18,19,19,20,20,21,21,22,22,23,23,24,24,25,25,26,26,27,27,28,28,29,29,30,30],"right_children":[2,4,6,8,10,12,14,16,18,20,22,24,26,28,30,32,34,36,38,40,42,44,46,48,50,52,54,56,58,60,62,-1,-1,-1,-1,-1,-1,-1,-1,-1,-1,-1,-1,-1,-1,-1,-1,-1,-1,-1,-1,-1,-1,-1,-1,-1,-1,-1,-1,-1,-1,-1,-1],"split_conditions":[2.6605186E1,2.5043137E1,1.583296E0,3.1199389E1,2.5109062E0,1.0020058E1,2.572671E0,4.9475446E0,1.0020058E1,1.0020058E1,4.9637842E-1,8.561824E-2,1.0345752E0,8.058982E-1,2.7897478E1,4.59745E0,5.034773E-1,1.1624218E-1,3.563532E-1,8.286195E-2,2.8861841E1,1.3822176E0,6.543209E-1,1.9500075E-3,4.8445385E-2,3.084549E1,3.5338972E0,1.0190505E1,3.0757092E1,6.6139197E0,6.401078E-1,-1.09614894E-1,-3.125632E-1,-3.072744E-1,-5.045681E-1,-1.2335777E-1,2.736526E-1,-3.0924039E-2,-3.1753153E-1,1.1805473E-1,4.4704327E-1,-7.220999E-2,1.2619911E-1,1.11869946E-1,