{"learner":{"attributes":{"scikit_learn":"{\"_estimator_type\": \"classifier\"}"},"feature_names":["ndci_mean_7d","ndci_slope_7d","sst_anomaly","wind_speed_3d","ndci_x_wind"],"feature_types":["float","float","float","float","float"],"gradient_booster":{"model":{"cats":{"enc":[],"feature_segments":[],"sorted_idx":[]},"gbtree_model_param":{"num_parallel_tree":"1","num_trees":"100"},"iteration_indptr":[0,1,2,3,4,5,6,7,8,9,10,11,12,13,14,15,16,17,18,19,20,21,22,23,24,25,26,27,28,29,30,31,32,33,34,35,36,37,38,39,40,41,42,43,44,45,46,47,48,49,50,51,52,53,54,55,56,57,58,59,60,61,62,63,64,65,66,67,68,69,70,71,72,73,74,75,76,77,78,79,80,81,82,83,84,85,86,87,88,89,90,91,92,93,94,95,96,97,98,99,100],"tree_info":[0,0,0,0,0,0,0,0,0,0,0,0,0,0,0,0,0,0,0,0,0,0,0,0,0,0,0,0,0,0,0,0,0,0,0,0,0,0,0,0,0,0,0,0,0,0,0,0,0,0,0,0,0,0,0,0,0,0,0,0,0,0,0,0,0,0,0,0,0,0,0,0,0,0,0,0,0,0,0,0,0,0,0,0,0,0,0,0,0,0,0,0,0,0,0,0,0,0,0,0],"trees":[{"base_weights":[-0E0,-1.9785331E-1,1.2497175E0,-1.908046E-1,1.5860349E0,-1.8222223E-1,1.7792379E0,1.9833796E-1,-1.8139535E-1],"categories":[],"categories_nodes":[],"categories_segments":[],"categories_sizes":[],"default_left":[0,0,0,0,0,0,0,0,0],"id":0,"left_children":[1,-1,3,-1,5,-1,7,-1,-1],"loss_changes":[8.926113E2,0E0,2.3799612E2,0E0,1.3526846E2,0E0,1.431499E2,0E0,0E0],"parents":[2147483647,0,0,2,2,4,4,6,6],"right_children":[2,-1,4,-1,6,-1,8,-1,-1],"split_conditions":[7.0351106E-1,-1.9785331E-1,1.0307589E0,-1.908046E-1,9.688512E0,-1.8222223E-1,1.9941565E1,1.9833796E-1,-1.8139535E-1],"split_indices":[0,0,2,0,3,0,3,0,0],"split_type":[0,0,0,0,0,0,0,0,0],"sum_hessian":[3.59E2,1.3875E2,2.2025E2,2.075E1,1.995E2,1.025E1,1.8925E2,1.795E2,9.75E0],"tree_param":{"num_deleted":"0","num_feature":"5","num_nodes":"9","size_leaf_vector":"1"}},{"base_weights":[-1.5392934E-3,-1.8001112E-1,1.1343595E0,-1.7415954E-1,1.4409223E0,-1.6692106E-1,1.6175783E0,1.8043156E-1,-1.6622156E-1],"categories":[],"categories_nodes":[],"categories_segments":[],"categories_sizes":[],"default_left":[0,0,0,0,0,0,0,0,0],"id":1,"left_children":[1,-1,3,-1,5,-1,7,-1,-1],"loss_changes":[7.30462E2,0E0,1.9572021E2,0E0,1.1180563E2,0E0,1.1839667E2,0E0,0E0],"parents":[2147483647,0,0,2,2,4,4,6,6],"right_children":[2,-1,4,-1,6,-1,8,-1,-1],"split_conditions":[7.0351106E-1,-1.8001112E-1,1.0307589E0,-1.7415954E-1,9.688512E0,-1.6692106E-1,1.9941565E1,1.8043156E-1,-1.6622156E-1],"split_indices":[0,0,2,0,3,0,3,0,0],"split_type":[0,0,0,0,0,0,0,0,0],"sum_hessian":[3.5554504E2,1.3740092E2,2.1814412E2,2.0562283E1,1.9758185E2,1.0165381E1,1.8741646E2,1.7774623E2,9.670235E0],"tree_param":{"num_deleted":"0","num_feature":"5","num_nodes":"9","size_leaf_vector":"1"}},{"base_weights":[-2.8358267E-3,-1.6654193E0,1.0468364E0,-1.672696E-1,-5.8824576E-2,-1.6138281E-1,1.3310261E0,-1.5494704E-1,1.4954082E0,1.6692929E-1,-1.5432566E-1],"categories":[],"categories_nodes":[],"categories_segments":[],"categories_sizes":[],"default_left":[0,0,0,0,0,0,0,0,0,0,0],"id":2,"left_children":[1,3,5,-1,-1,-1,7,-1,9,-1,-1],"loss_changes":[6.0837213E2,7.354736E-2,1.6372774E2,0E0,0E0,0E0,9.3995605E1,0E0,9.962537E1,0E0,0E0],"parents":[2147483647,0,0,1,1,2,2,6,6,8,8],"right_children":[2,4,6,-1,-1,-1,8,-1,10,-1,-1],"split_conditions":[7.0351106E-1,6.99022E-1,1.0307589E0,-1.672696E-1,-5.8824576E-2,-1.6138281E-1,9.688512E0,-1.5494704E-1,1.9941565E1,1.6692929E-1,-1.5432566E-1],"split_indices":[0,0,2,0,0,0,3,0,3,0,0],"split_type":[0,0,0,0,0,0,0,0,0,0,0],"sum_hessian":[3.4660483E2,1.3391278E2,2.1269205E2,1.3246507E2,1.4477057E0,2.0074085E1,1.9261797E2,9.943867E0,1.826741E2,1.7321281E2,9.46129E0],"tree_param":{"num_deleted":"0","num_feature":"5","num_nodes":"11","size_leaf_vector":"1"}},{"base_weights":[-4.1715605E-3,-1.5606458E0,9.781573E-1,-1.5674737E-1,-5.5752683E-2,-1.5126915E-1,1.2449738E0,-1.4530915E-1,1.3999652E0,1.5640621E-1,-1.4473584E-1],"categories":[],"categories_nodes":[],"categories_segments":[],"categories_sizes":[],"default_left":[0,0,0,0,0,0,0,0,0,0,0],"id":3,"left_children":[1,3,5,-1,-1,-1,7,-1,9,-1,-1],"loss_changes":[5.135856E2,1.626587E-2,1.3874826E2,0E0,0E0,0E0,8.004904E1,0E0,8.493387E1,0E0,0E0],"parents":[2147483647,0,0,1,1,2,2,6,6,8,8],"right_children":[2,4,6,-1,-1,-1,8,-1,10,-1,-1],"split_conditions":[7.0351106E-1,6.99022E-1,1.0307589E0,-1.5674737E-1,-5.5752683E-2,-1.5126915E-1,9.688512E0,-1.4530915E-1,1.9941565E1,1.5640621E-1,-1.4473584E-1],"split_indices":[0,0,2,0,0,0,3,0,3,0,0],"split_type":[0,0,0,0,0,0,0,0,0,0,0],"sum_hessian":[3.3390463E2,1.2896858E2,2.0493604E2,1.2753788E2,1.4307015E0,1.9376694E1,1.8555934E2,9.625467E0,1.7593388E2,1.667731E2,9.160778E0],"tree_param":{"num_deleted":"0","num_feature":"5","num_nodes":"11","size_leaf_vector":"1"}},{"base_weights":[-5.422048E-3,-1.4768498E-1,9.2282677E-1,-1.4306568E-1,1.1758214E0,-1.2905295E0,1.3287337E0,-3.0273238E-2,-1.3977915E-1,1.4861594E-1,-1.3682584E-1],"categories":[],"categories_nodes":[],"categories_segments":[],"categories_sizes":[],"default_left":[0,0,0,0,0,0,0,0,0,0,0],"id":4,"left_children":[1,-1,3,-1,5,7,9,-1,-1,-1,-1],"loss_changes":[4.3804016E2,0E0,1.18774216E2,0E0,6.8888504E1,7.323322E-1,7.3451416E1,0E0,0E0,0E0,0E0],"parents":[2147483647,0,0,2,2,4,4,5,5,6,6],"right_children":[2,-1,4,-1,6,8,10,-1,-1,-1,-1],"split_conditions":[7.0351106E-1,-1.4768498E-1,1.0307589E0,-1.4306568E-1,1.0046239E1,7.250632E-1,1.9941565E1,-3.0273238E-2,-1.3977915E-1,1.4861594E-1,-1.3682584E-1],"split_indices":[0,0,2,0,3,0,3,0,0,0,0],"split_type":[0,0,0,0,0,0,0,0,0,0,0],"sum_hessian":[3.187108E2,1.2305588E2,1.956549E2,1.8539185E1,1.7711572E2,9.905665E0,1.6721005E2,1.3446723E0,8.560993E0,1.5841234E2,8.79771E0],"tree_param":{"num_deleted":"0","num_feature":"5","num_nodes":"11","size_leaf_vector":"1"}},{"base_weights":[-6.5405937E-3,-1.4080968E0,8.7696093E-1,-1.415313E-1,-4.546654E-2,-1.362763E-1,1.1186626E0,-1.3111998E-1,1.2610909E0,1.411564E-1,-1.3017319E-1],"categories":[],"categories_nodes":[],"categories_segments":[],"categories_sizes":[],"default_left":[0,0,0,0,0,0,0,0,0,0,0],"id":5,"left_children":[1,3,5,-1,-1,-1,7,-1,9,-1,-1],"loss_changes":[3.7644864E2,1.6522217E-1,1.0246976E2,0E0,0E0,0E0,6.0091873E1,0E0,6.3545944E1,0E0,0E0],"parents":[2147483647,0,0,1,1,2,2,6,6,8,8],"right_children":[2,4,6,-1,-1,-1,8,-1,10,-1,-1],"split_conditions":[7.0351106E-1,6.99022E-1,1.0307589E0,-1.415313E-1,-4.546654E-2,-1.362763E-1,9.688512E0,-1.3111998E-1,1.9941565E1,1.411564E-1,-1.3017319E-1],"split_indices":[0,0,2,0,0,0,3,0,3,0,0],"split_type":[0,0,0,0,0,0,0,0,0,0,0],"sum_hessian":[3.0201282E2,1.16541565E2,1.8547125E2,1.1518531E2,1.3562549E0,1.7613928E1,1.6785733E2,8.839923E0,1.5901741E2,1.5062297E2,8.394439E0],"tree_param":{"num_deleted":"0","num_feature":"5","num_nodes":"11","size_leaf_vector":"1"}},{"base_weights":[-7.7289026E-3,-1.3513542E0,8.3877784E-1,-1.3586336E-1,-4.3227375E-2,-1.3056003E-1,1.0712538E0,-1.1782576E0,1.2145697E0,-2.7060075E-2,-1.2797722E-1,1.3612328E-1,-1.24482095E-1],"categories":[],"categories_nodes":[],"categories_segments":[],"categories_sizes":[],"default_left":[0,0,0,0,0,0,0,0,0,0,0,0,0],"id":6,"left_children":[1,3,5,-1,-1,-1,7,9,11,-1,-1,-1,-1],"loss_changes":[3.2582385E2,1.5342712E-1,8.901299E1,0E0,0E0,0E0,5.2726624E1,5.7853603E-1,5.5825912E1,0E0,0E0,0E0,0E0],"parents":[2147483647,0,0,1,1,2,2,6,6,7,7,8,8],"right_children":[2,4,6,-1,-1,-1,8,10,12,-1,-1,-1,-1],"split_conditions":[7.0351106E-1,6.99022E-1,1.0307589E0,-1.3586336E-1,-4.3227375E-2,-1.3056003E-1,1.0046239E1,7.250632E-1,1.9941565E1,-2.7060075E-2,-1.2797722E-1,1.3612328E-1,-1.24482095E-1],"split_indices":[0,0,2,0,0,0,3,0,3,0,0,0,0],"split_type":[0,0,0,0,0,0,0,0,0,0,0,0,0],"sum_hessian":[2.8447018E2,1.0971991E2,1.7475029E2,1.0838323E2,1.3366778E0,1.6640526E1,1.5810976E2,9.037304E0,1.4907245E2,1.2778141E0,7.759489E0,1.4110435E2,7.968092E0],"tree_param":{"num_deleted":"0","num_feature":"5","num_nodes":"13","size_leaf_vector":"1"}},{"base_weights":[-9.016795E-3,-1.3036361E0,8.059879E-1,-1.311096E-1,-4.111518E-2,-1.2567423E-1,1.0307106E0,-1.1259459E0,1.1708399E0,-2.5595924E-2,-1.2280593E-1,1.3137336E-1,-1.195391E-1],"categories":[],"categories_nodes":[],"categories_segments":[],"categories_sizes":[],"default_left":[0,0,0,0,0,0,0,0,0,0,0,0,0],"id":7,"left_children":[1,3,5,-1,-1,-1,7,9,11,-1,-1,-1,-1],"loss_changes":[2.834763E2,1.5193176E-1,7.772449E1,0E0,0E0,0E0,4.641777E1,5.3979874E-1,4.9115906E1,0E0,0E0,0E0,0E0],"parents":[2147483647,0,0,1,1,2,2,6,6,7,7,8,8],"right_children":[2,4,6,-1,-1,-1,8,10,12,-1,-1,-1,-1],"split_conditions":[7.0351106E-1,6.99022E-1,1.0307589E0,-1.311096E-1,-4.111518E-2,-1.2567423E-1,1.0046239E1,7.250632E-1,1.9941565E1,-2.5595924E-2,-1.2280593E-1,1.3137336E-1,-1.195391E-1],"split_indices":[0,0,2,0,0,0,3,0,3,0,0,0,0],"split_type":[0,0,0,0,0,0,0,0,0,0,0,0,0],"sum_hessian":[2.6667133E2,1.0279071E2,1.6388062E2,1.0147351E2,1.3172013E0,1.5648705E1,1.482319E2,8.614563E0,1.3961734E2,1.2732584E0,7.3413043E0,1.3208565E2,7.53169E0],"tree_param":{"num_deleted":"0","num_feature":"5","num_nodes":"13","size_leaf_vector":"1"}},{"base_weights":[-1.0330489E-2,-1.2630261E0,7.776459E-1,-1.2707701E-1,-3.9119985E-2,-1.2144115E-1,9.958417E-1,-1.1671881E-1,1.1279963E0,1.2668407E-1,-1.1518607E-1],"categories":[],"categories_nodes":[],"categories_segments":[],"categories_sizes":[],"default_left":[0,0,0,0,0,0,0,0,0,0,0],"id":8,"left_children":[1,3,5,-1,-1,-1,7,-1,9,-1,-1],"loss_changes":[2.4773534E2,1.5713501E-1,6.817821E1,0E0,0E0,0E0,4.116803E1,0E0,4.3209335E1,0E0,0E0],"parents":[2147483647,0,0,1,1,2,2,6,6,8,8],"right_children":[2,4,6,-1,-1,-1,8,-1,10,-1,-1],"split_conditions":[7.0351106E-1,6.99022E-1,1.0307589E0,-1.2707701E-1,-3.9119985E-2,-1.2144115E-1,9.688512E0,-1.1671881E-1,1.9941565E1,1.2668407E-1,-1.1518607E-1],"split_indices":[0,0,2,0,0,0,3,0,3,0,0],"split_type":[0,0,0,0,0,0,0,0,0,0,0],"sum_hessian":[2.4897925E2,9.5907E1,1.5307227E2,9.460904E1,1.2979511E0,1.4660544E1,1.3841171E2,7.5186605E0,1.3089305E2,1.23798035E2,7.095025E0],"tree_param":{"num_deleted":"0","num_feature":"5","num_nodes":"11","size_leaf_vector":"1"}},{"base_weights":[-1.1605041E-2,-1.228099E0,7.5305533E-1,-1.2362229E-1,-3.7233014E-2,-1.1772732E-1,9.657672E-1,-1.0507349E0,1.1016835E0,-2.3018215E-2,-1.1520759E-1,1.2392282E-1,-1.1130344E-1],"categories":[],"categories_nodes":[],"categories_segments":[],"categories_sizes":[],"default_left":[0,0,0,0,0,0,0,0,0,0,0,0,0],"id":9,"left_children":[1,3,5,-1,-1,-1,7,9,11,-1,-1,-1,-1],"loss_changes":[2.1734686E2,1.6667175E-1,6.0050896E1,0E0,0E0,0E0,3.672957E1,4.5888805E-1,3.85681E1,0E0,0E0,0E0,0E0],"parents":[2147483647,0,0,1,1,2,2,6,6,7,7,8,8],"right_children":[2,4,6,-1,-1,-1,8,10,12,-1,-1,-1,-1],"split_conditions":[7.0351106E-1,6.99022E-1,1.0307589E0,-1.2362229E-1,-3.7233014E-2,-1.1772732E-1,1.0046239E1,7.250632E-1,1.9941565E1,-2.3018215E-2,-1.1520759E-1,1.2392282E-1,-1.1130344E-1],"split_indices":[0,0,2,0,0,0,3,0,3,0,0,0,0],"split_type":[0,0,0,0,0,0,0,0,0,0,0,0,0],"sum_hessian":[2.3166066E2,8.9179474E1,1.4248119E2,8.7900444E1,1.2790273E0,1.3692172E1,1.2878902E2,7.707472E0,1.2108154E2,1.2068708E0,6.500601E0,1.1441621E2,6.665342E0],"tree_param":{"num_deleted":"0","num_feature":"5","num_nodes":"13","size_leaf_vector":"1"}},{"base_weights":[-1.3023716E-2,-1.1977704E0,7.310439E-1,-1.20636635E-1,-3.5446532E-2,-1.1443037E-1,9.3902713E-1,-1.011526E0,1.0737374E0,-2.1805199E-2,-1.1152326E-1,1.2095E-1,-1.07799016E-1],"categories":[],"categories_nodes":[],"categories_segments":[],"categories_sizes":[],"default_left":[0,0,0,0,0,0,0,0,0,0,0,0,0],"id":10,"left_children":[1,3,5,-1,-1,-1,7,9,11,-1,-1,-1,-1],"loss_changes":[1.9124544E2,1.7903137E-1,5.3054245E1,0E0,0E0,0E0,3.275186E1,4.3982697E-1,3.4375824E1,0E0,0E0,0E0,0E0],"parents":[2147483647,0,0,1,1,2,2,6,6,7,7,8,8],"right_children":[2,4,6,-1,-1,-1,8,10,12,-1,-1,-1,-1],"split_conditions":[7.0351106E-1,6.99022E-1,1.0307589E0,-1.20636635E-1,-3.5446532E-2,-1.1443037E-1,1.0046239E1,7.250632E-1,1.9941565E1,-2.1805199E-2,-1.1152326E-1,1.2095E-1,-1.07799016E-1],"split_indices":[0,0,2,0,0,0,3,0,3,0,0,0,0],"split_type":[0,0,0,0,0,0,0,0,0,0,0,0,0],"sum_hessian":[2.1495349E2,8.268616E1,1.3226735E2,8.1425644E1,1.2605084E0,1.2755087E1,1.1951225E2,7.3001404E0,1.1221211E2,1.2024685E0,6.097672E0,1.05964226E2,6.247885E0],"tree_param":{"num_deleted":"0","num_feature":"5","num_nodes":"13","size_leaf_vector":"1"}},{"base_weights":[-1.4508812E-2,-1.1711986E0,7.112897E-1,-1.18035756E-1,-3.3753637E-2,-1.1147032E-1,9.152102E-1,-1.0664302E-1,1.0427436E0,1.1759186E-1,-1.04600824E-1],"categories":[],"categories_nodes":[],"categories_segments":[],"categories_sizes":[],"default_left":[0,0,0,0,0,0,0,0,0,0,0],"id":11,"left_children":[1,3,5,-1,-1,-1,7,-1,9,-1,-1],"loss_changes":[1.6871947E2,1.9317627E-1,4.7005642E1,0E0,0E0,0E0,2.93265E1,0E0,3.054802E1,0E0,0E0],"parents":[2147483647,0,0,1,1,2,2,6,6,8,8],"right_children":[2,4,6,-1,-1,-1,8,-1,10,-1,-1],"split_conditions":[7.0351106E-1,6.99022E-1,1.0307589E0,-1.18035756E-1,-3.3753637E-2,-1.1147032E-1,9.688512E0,-1.0664302E-1,1.9941565E1,1.1759186E-1,-1.04600824E-1],"split_indices":[0,0,2,0,0,0,3,0,3,0,0],"split_type":[0,0,0,0,0,0,0,0,0,0,0],"sum_hessian":[1.9897813E2,7.647996E1,1.2249818E2,7.52375E1,1.2424546E0,1.1857206E1,1.1064097E2,6.244871E0,1.04396095E2,9.854976E1,5.846334E0],"tree_param":{"num_deleted":"0","num_feature":"5","num_nodes":"11","size_leaf_vector":"1"}},{"base_weights":[-1.5989345E-2,-1.1477188E0,6.935554E-1,-1.1575325E-1,-3.214816E-2,-1.087837E-1,8.940122E-1,-9.55867E-1,1.0276805E0,-1.9718807E-2,-1.0610249E-1,1.1611684E-1,-1.0165181E-1],"categories":[],"categories_nodes":[],"categories_segments":[],"categories_sizes":[],"default_left":[0,0,0,0,0,0,0,0,0,0,0,0,0],"id":12,"left_children":[1,3,5,-1,-1,-1,7,9,11,-1,-1,-1,-1],"loss_changes":[1.4920163E2,2.0839691E-1,4.1758343E1,0E0,0E0,0E0,2.6503761E1,3.8701916E-1,2.757817E1,0E0,0E0,0E0,0E0],"parents":[2147483647,0,0,1,1,2,2,6,6,7,7,8,8],"right_children":[2,4,6,-1,-1,-1,8,10,12,-1,-1,-1,-1],"split_conditions":[7.0351106E-1,6.99022E-1,1.0307589E0,-1.1575325E-1,-3.214816E-2,-1.087837E-1,1.0046239E1,7.250632E-1,1.9941565E1,-1.9718807E-2,-1.0610249E-1,1.1611684E-1,-1.0165181E-1],"split_indices":[0,0,2,0,0,0,3,0,3,0,0,0,0],"split_type":[0,0,0,0,0,0,0,0,0,0,0,0,0],"sum_hessian":[1.8381105E2,7.059459E1,1.1321646E2,6.9369675E1,1.2249106E0,1.1003676E1,1.0221278E2,6.473454E0,9.573933E1,1.1380403E0,5.3354135E0,9.0276184E1,5.4631424E0],"tree_param":{"num_deleted":"0","num_feature":"5","num_nodes":"13","size_leaf_vector":"1"}},{"base_weights":[-1.764788E-2,-1.1267977E0,6.7709565E-1,-1.1373605E-1,-3.062453E-2,-1.0631942E-1,8.745237E-1,-9.23597E-1,1.0082651E0,-1.9447472E-2,-1.0424954E-1,1.1412119E-1,-9.8906435E-2],"categories":[],"categories_nodes":[],"categories_segments":[],"categories_sizes":[],"default_left":[0,0,0,0,0,0,0,0,0,0,0,0,0],"id":13,"left_children":[1,3,5,-1,-1,-1,7,9,11,-1,-1,-1,-1],"loss_changes":[1.3216203E2,2.2415161E-1,3.716803E1,0E0,0E0,0E0,2.3843117E1,4.1430426E-1,2.4803268E1,0E0,0E0,0E0,0E0],"parents":[2147483647,0,0,1,1,2,2,6,6,7,7,8,8],"right_children":[2,4,6,-1,-1,-1,8,10,12,-1,-1,-1,-1],"split_conditions":[7.0351106E-1,6.99022E-1,1.0307589E0,-1.1373605E-1,-3.062453E-2,-1.0631942E-1,1.0046239E1,-4.48416E-2,1.9941565E1,-1.9447472E-2,-1.0424954E-1,1.1412119E-1,-9.8906435E-2],"split_indices":[0,0,2,0,0,0,3,1,3,0,0,0,0],"split_type":[0,0,0,0,0,0,0,0,0,0,0,0,0],"sum_hessian":[1.6952092E2,6.504903E1,1.0447189E2,6.384112E1,1.2079086E0,1.0197519E1,9.4274376E1,6.1176906E0,8.8156685E1,1.2272773E0,4.8904133E0,8.305686E1,5.099822E0],"tree_param":{"num_deleted":"0","num_feature":"5","num_nodes":"13","size_leaf_vector":"1"}},{"base_weights":[-1.941039E-2,-1.1080003E0,6.617326E-1,-1.1194104E-1,-2.917772E-2,-1.04035854E-1,8.565002E-1,-8.9183015E-1,9.9078095E-1,-1.5777588E-2,-1.0068406E-1,1.1235138E-1,-9.632804E-2],"categories":[],"categories_nodes":[],"categories_segments":[],"categories_sizes":[],"default_left":[0,0,0,0,0,0,0,0,0,0,0,0,0],"id":14,"left_children":[1,3,5,-1,-1,-1,7,9,11,-1,-1,-1,-1],"loss_changes":[1.1724367E2,2.4009705E-1,3.314054E1,0E0,0E0,0E0,2.1505486E1,4.145193E-1,2.2362938E1,0E0,0E0,0E0,0E0],"parents":[2147483647,0,0,1,1,2,2,6,6,7,7,8,8],"right_children":[2,4,6,-1,-1,-1,8,10,12,-1,-1,-1,-1],"split_conditions":[7.0351106E-1,6.99022E-1,1.0307589E0,-1.1194104E-1,-2.917772E-2,-1.04035854E-1,1.0046239E1,7.250632E-1,1.9941565E1,-1.5777588E-2,-1.0068406E-1,1.1235138E-1,-9.632804E-2],"split_indices":[0,0,2,0,0,0,3,0,3,0,0,0,0],"split_type":[0,0,0,0,0,0,0,0,0,0,0,0,0],"sum_hessian":[1.5613118E2,5.9851295E1,9.6279884E1,5.8659824E1,1.1914709E0,9.440141E0,8.6839745E1,5.791613E0,8.1048134E1,1.1057844E0,4.6858287E0,7.629098E1,4.757154E0],"tree_param":{"num_deleted":"0","num_feature":"5","num_nodes":"13","size_leaf_vector":"1"}},{"base_weights":[-2.1260038E-2,-1.090968E0,6.4740497E-1,-1.1033284E-1,-2.7803132E-2,-1.0189881E-1,8.398853E-1,-9.662086E-2,9.6694076E-1,1.09804444E-1,-9.3886994E-2],"categories":[],"categories_nodes":[],"categories_segments":[],"categories_sizes":[],"default_left":[0,0,0,0,0,0,0,0,0,0,0],"id":15,"left_children":[1,3,5,-1,-1,-1,7,-1,9,-1,-1],"loss_changes":[1.0415065E2,2.5595093E-1,2.960139E1,0E0,0E0,0E0,1.949614E1,0E0,2.0038208E1,0E0,0E0],"parents":[2147483647,0,0,1,1,2,2,6,6,8,8],"right_children":[2,4,6,-1,-1,-1,8,-1,10,-1,-1],"split_conditions":[7.0351106E-1,6.99022E-1,1.0307589E0,-1.1033284E-1,-2.7803132E-2,-1.0189881E-1,9.688512E0,-9.662086E-2,1.9941565E1,1.09804444E-1,-9.3886994E-2],"split_indices":[0,0,2,0,0,0,3,0,3,0,0],"split_type":[0,0,0,0,0,0,0,0,0,0,0],"sum_hessian":[1.4362152E2,5.500108E1,8.8620445E1,5.382547E1,1.1756103E0,8.731731E0,7.988872E1,4.816569E0,7.507214E1,7.063678E1,4.4353695E0],"tree_param":{"num_deleted":"0","num_feature":"5","num_nodes":"11","size_leaf_vector":"1"}},{"base_weights":[-2.3151433E-2,-1.0754007E0,6.339551E-1,-1.0888199E-1,-2.6496565E-2,-9.987996E-2,8.244649E-1,-8.4977406E-1,9.605657E-1,-1.4747386E-2,-9.754893E-2,1.0936558E-1,-9.155931E-2],"categories":[],"categories_nodes":[],"categories_segments":[],"categories_sizes":[],"default_left":[0,0,0,0,0,0,0,0,0,0,0,0,0],"id":16,"left_children":[1,3,5,-1,-1,-1,7,9,11,-1,-1,-1,-1],"loss_changes":[9.263186E1,2.714882E-1,2.648291E1,0E0,0E0,0E0,1.7773952E1,3.9695644E-1,1.8304028E1,0E0,0E0,0E0,0E0],"parents":[2147483647,0,0,1,1,2,2,6,6,7,7,8,8],"right_children":[2,4,6,-1,-1,-1,8,10,12,-1,-1,-1,-1],"split_conditions":[7.0351106E-1,6.99022E-1,1.0307589E0,-1.0888199E-1,-2.6496565E-2,-9.987996E-2,1.0046239E1,-4.48416E-2,1.9941565E1,-1.4747386E-2,-9.754893E-2,1.0936558E-1,-9.155931E-2],"split_indices":[0,0,2,0,0,0,3,1,3,0,0,0,0],"split_type":[0,0,0,0,0,0,0,0,0,0,0,0,0],"sum_hessian":[1.319835E2,5.0492077E1,8.1491425E1,4.9331745E1,1.1603332E0,8.071581E0,7.3419846E1,5.1254597E0,6.829439E1,1.1081166E0,4.017343E0,6.41601E1,4.134285E0],"tree_param":{"num_deleted":"0","num_feature":"5","num_nodes":"13","size_leaf_vector":"1"}},{"base_weights":[-2.5254432E-2,-1.0610446E0,6.208697E-1,-1.0756371E-1,-2.5254184E-2,-9.7955674E-2,8.096226E-1,-8.214925E-1,9.47119E-1,-1.1859753E-2,-9.450676E-2,1.0808267E-1,-8.932561E-2],"categories":[],"categories_nodes":[],"categories_segments":[],"categories_sizes":[],"default_left":[0,0,0,0,0,0,0,0,0,0,0,0,0],"id":17,"left_children":[1,3,5,-1,-1,-1,7,9,11,-1,-1,-1,-1],"loss_changes":[8.244123E1,2.865715E-1,2.371732E1,0E0,0E0,0E0,1.6124664E1,3.9651203E-1,1.6609024E1,0E0,0E0,0E0,0E0],"parents":[2147483647,0,0,1,1,2,2,6,6,7,7,8,8],"right_children":[2,4,6,-1,-1,-1,8,10,12,-1,-1,-1,-1],"split_conditions":[7.0351106E-1,6.99022E-1,1.0307589E0,-1.0756371E-1,-2.5254184E-2,-9.7955674E-2,1.0046239E1,7.250632E-1,1.9941565E1,-1.1859753E-2,-9.450676E-2,1.0808267E-1,-8.932561E-2],"split_indices":[0,0,2,0,0,0,3,0,3,0,0,0,0],"split_type":[0,0,0,0,0,0,0,0,0,0,0,0,0],"sum_hessian":[1.2120036E2,4.631363E1,7.488673E1,4.516799E1,1.1456397E0,7.4583263E0,6.7428406E1,4.8553166E0,6.2573086E1,1.0189947E0,3.8363218E0,5.8719673E1,3.8534129E0],"tree_param":{"num_deleted":"0","num_feature":"5","num_nodes":"13","size_leaf_vector":"1"}},{"base_weights":[-2.7469393E-2,-1.047682E0,6.082956E-1,-1.0635697E-1,-2.4072403E-2,-9.610628E-2,7.955419E-1,-7.947947E-1,9.345846E-1,-1.1541409E-2,-9.293116E-2,1.0691545E-1,-8.717024E-2],"categories":[],"categories_nodes":[],"categories_segments":[],"categories_sizes":[],"default_left":[0,0,0,0,0,0,0,0,0,0,0,0,0],"id":18,"left_children":[1,3,5,-1,-1,-1,7,9,11,-1,-1,-1,-1],"loss_changes":[7.34268E1,3.010521E-1,2.1267168E1,0E0,0E0,0E0,1.4647274E1,4.0415668E-1,1.5099335E1,0E0,0E0,0E0,0E0],"parents":[2147483647,0,0,1,1,2,2,6,6,7,7,8,8],"right_children":[2,4,6,-1,-1,-1,8,10,12,-1,-1,-1,-1],"split_conditions":[7.0351106E-1,6.99022E-1,1.0307589E0,-1.0635697E-1,-2.4072403E-2,-9.610628E-2,1.0046239E1,-4.48416E-2,1.9941565E1,-1.1541409E-2,-9.293116E-2,1.0691545E-1,-8.717024E-2],"split_indices":[0,0,2,0,0,0,3,1,3,0,0,0,0],"split_type":[0,0,0,0,0,0,0,0,0,0,0,0,0],"sum_hessian":[1.1122288E2,4.245208E1,6.87708E1,4.1320553E1,1.1315262E0,6.890144E0,6.1880653E1,4.5960445E0,5.728461E1,1.0666901E0,3.5293543E0,5.3692562E1,3.592048E0],"tree_param":{"num_deleted":"0","num_feature":"5","num_nodes":"13","size_leaf_vector":"1"}},{"base_weights":[-2.9827928E-2,-1.0351255E0,5.9594053E-1,-1.05243675E-1,-2.2947941E-2,-9.43153E-2,7.81842E-1,-8.845366E-2,9.126886E-1,1.04595415E-1,-8.5080735E-2],"categories":[],"categories_nodes":[],"categories_segments":[],"categories_sizes":[],"default_left":[0,0,0,0,0,0,0,0,0,0,0],"id":19,"left_children":[1,3,5,-1,-1,-1,7,-1,9,-1,-1],"loss_changes":[6.5428635E1,3.1484985E-1,1.9087362E1,0E0,0E0,0E0,1.3403255E1,0E0,1.3593605E1,0E0,0E0],"parents":[2147483647,0,0,1,1,2,2,6,6,8,8],"right_children":[2,4,6,-1,-1,-1,8,-1,10,-1,-1],"split_conditions":[7.0351106E-1,6.99022E-1,1.0307589E0,-1.05243675E-1,-2.2947941E-2,-9.43153E-2,9.688512E0,-8.845366E-2,1.9941565E1,1.04595415E-1,-8.5080735E-2],"split_indices":[0,0,2,0,0,0,3,0,3,0,0],"split_type":[0,0,0,0,0,0,0,0,0,0,0],"sum_hessian":[1.0202568E2,3.88918E1,6.313388E1,3.7773815E1,1.1179843E0,6.364905E0,5.6768974E1,3.7136915E0,5.3055283E1,4.9705944E1,3.3493373E0],"tree_param":{"num_deleted":"0","num_feature":"5","num_nodes":"11","size_leaf_vector":"1"}},{"base_weights":[-3.226651E-2,-1.0232103E0,5.839091E-1,-1.0420811E-1,-2.1877736E-2,-9.256902E-2,7.686592E-1,-7.5984037E-1,9.118457E-1,-1.0478953E-2,-8.947686E-2,1.0487019E-1,-8.304718E-2],"categories":[],"categories_nodes":[],"categories_segments":[],"categories_sizes":[],"default_left":[0,0,0,0,0,0,0,0,0,0,0,0,0],"id":20,"left_children":[1,3,5,-1,-1,-1,7,9,11,-1,-1,-1,-1],"loss_changes":[5.8332214E1,3.278618E-1,1.71495E1,0E0,0E0,0E0,1.2305275E1,3.561287E-1,1.2547287E1,0E0,0E0,0E0,0E0],"parents":[2147483647,0,0,1,1,2,2,6,6,7,7,8,8],"right_children":[2,4,6,-1,-1,-1,8,10,12,-1,-1,-1,-1],"split_conditions":[7.0351106E-1,6.99022E-1,1.0307589E0,-1.0420811E-1,-2.1877736E-2,-9.256902E-2,1.0046239E1,-4.48416E-2,1.9941565E1,-1.0478953E-2,-8.947686E-2,1.0487019E-1,-8.304718E-2],"split_indices":[0,0,2,0,0,0,3,1,3,0,0,0,0],"split_type":[0,0,0,0,0,0,0,0,0,0,0,0,0],"sum_hessian":[9.355484E1,3.561601E1,5.7938835E1,3.4511005E1,1.1050038E0,5.8802886E0,5.2058544E1,4.0901394E0,4.7968407E1,1.002043E0,3.0880961E0,4.4844074E1,3.1243298E0],"tree_param":{"num_deleted":"0","num_feature":"5","num_nodes":"13","size_leaf_vector":"1"}},{"base_weights":[-3.4936365E-2,-1.0117917E0,5.718381E-1,-1.0323661E-1,-2.0858934E-2,-9.085612E-2,7.5556695E-1,-7.3457956E-1,9.011205E-1,-1.3322807E-2,-8.681961E-2,1.0395105E-1,-8.106189E-2],"categories":[],"categories_nodes":[],"categories_segments":[],"categories_sizes":[],"default_left":[0,0,0,0,0,0,0,0,0,0,0,0,0],"id":21,"left_children":[1,3,5,-1,-1,-1,7,9,11,-1,-1,-1,-1],"loss_changes":[5.2009758E1,3.4003067E-1,1.54182625E1,0E0,0E0,0E0,1.1230993E1,2.7700925E-1,1.1465073E1,0E0,0E0,0E0,0E0],"parents":[2147483647,0,0,1,1,2,2,6,6,7,7,8,8],"right_children":[2,4,6,-1,-1,-1,8,10,12,-1,-1,-1,-1],"split_conditions":[7.0351106E-1,6.99022E-1,1.0307589E0,-1.0323661E-1,-2.0858934E-2,-9.085612E-2,1.0046239E1,-3.4813754E-2,1.9941565E1,-1.3322807E-2,-8.681961E-2,1.0395105E-1,-8.106189E-2],"split_indices":[0,0,2,0,0,0,3,1,3,0,0,0,0],"split_type":[0,0,0,0,0,0,0,0,0,0,0,0,0],"sum_hessian":[8.576987E1,3.2607334E1,5.3162533E1,3.1514761E1,1.0925719E0,5.433872E0,4.7728657E1,3.8870494E0,4.384161E1,1.0697321E0,2.8173175E0,4.092559E1,2.91602E0],"tree_param":{"num_deleted":"0","num_feature":"5","num_nodes":"13","size_leaf_vector":"1"}},{"base_weights":[-3.7795972E-2,-1.0007409E0,5.5966127E-1,-1.0231697E-1,-1.9888863E-2,-8.916732E-2,7.4246114E-1,-8.294358E-2,8.7814647E-1,1.0151259E-1,-7.9119E-2],"categories":[],"categories_nodes":[],"categories_segments":[],"categories_sizes":[],"default_left":[0,0,0,0,0,0,0,0,0,0,0],"id":22,"left_children":[1,3,5,-1,-1,-1,7,-1,9,-1,-1],"loss_changes":[4.63732E1,3.5129738E-1,1.3869546E1,0E0,0E0,0E0,1.0274807E1,0E0,1.0335857E1,0E0,0E0],"parents":[2147483647,0,0,1,1,2,2,6,6,8,8],"right_children":[2,4,6,-1,-1,-1,8,-1,10,-1,-1],"split_conditions":[7.0351106E-1,6.99022E-1,1.0307589E0,-1.0231697E-1,-1.9888863E-2,-8.916732E-2,9.688512E0,-8.294358E-2,1.9941565E1,1.0151259E-1,-7.9119E-2],"split_indices":[0,0,2,0,0,0,3,0,3,0,0],"split_type":[0,0,0,0,0,0,0,0,0,0,0],"sum_hessian":[7.86309E1,2.984828E1,4.8782623E1,2.8767607E1,1.0806732E0,5.023199E0,4.3759422E1,3.070869E0,4.0688553E1,3.7965176E1,2.7233794E0],"tree_param":{"num_deleted":"0","num_feature":"5","num_nodes":"11","size_leaf_vector":"1"}},{"base_weights":[-4.0722255E-2,-9.899422E-1,5.476044E-1,-1.0204973E-1,-2.3747087E-2,-8.749518E-2,7.296144E-1,-7.0435834E-1,8.80943E-1,-1.22031225E-2,-8.374317E-2,1.022852E-1,-7.721419E-2],"categories":[],"categories_nodes":[],"categories_segments":[],"categories_sizes":[],"default_left":[0,0,0,0,0,0,0,0,0,0,0,0,0],"id":23,"left_children":[1,3,5,-1,-1,-1,7,9,11,-1,-1,-1,-1],"loss_changes":[4.1356808E1,4.0882874E-1,1.2487553E1,0E0,0E0,0E0,9.543173E0,2.4502802E-1,9.619047E0,0E0,0E0,0E0,0E0],"parents":[2147483647,0,0,1,1,2,2,6,6,7,7,8,8],"right_children":[2,4,6,-1,-1,-1,8,10,12,-1,-1,-1,-1],"split_conditions":[7.0351106E-1,4.838243E0,1.0307589E0,-1.0204973E-1,-2.3747087E-2,-8.749518E-2,1.0046239E1,-3.4813754E-2,1.9941565E1,-1.22031225E-2,-8.374317E-2,1.022852E-1,-7.721419E-2],"split_indices":[0,2,2,0,0,0,3,1,3,0,0,0,0],"split_type":[0,0,0,0,0,0,0,0,0,0,0,0,0],"sum_hessian":[7.2085526E1,2.732159E1,4.4763935E1,2.5913155E1,1.4084356E0,4.6458316E0,4.0118103E1,3.480718E0,3.6637386E1,1.0040463E0,2.4766717E0,3.4092007E1,2.5453794E0],"tree_param":{"num_deleted":"0","num_feature":"5","num_nodes":"13","size_leaf_vector":"1"}},{"base_weights":[-4.3983392E-2,-9.785388E-1,5.3522736E-1,-1.0061406E-1,-1.5466149E-2,-8.583387E-2,7.165181E-1,-6.808137E-1,8.7100166E-1,-1.1614515E-2,-8.158692E-2,1.0150563E-1,-7.5344376E-2],"categories":[],"categories_nodes":[],"categories_segments":[],"categories_sizes":[],"default_left":[0,0,0,0,0,0,0,0,0,0,0,0,0],"id":24,"left_children":[1,3,5,-1,-1,-1,7,9,11,-1,-1,-1,-1],"loss_changes":[3.68549E1,4.3642998E-1,1.1246887E1,0E0,0E0,0E0,8.749142E0,2.348926E-1,8.828953E0,0E0,0E0,0E0,0E0],"parents":[2147483647,0,0,1,1,2,2,6,6,7,7,8,8],"right_children":[2,4,6,-1,-1,-1,8,10,12,-1,-1,-1,-1],"split_conditions":[7.0351106E-1,6.99022E-1,1.0307589E0,-1.0061406E-1,-1.5466149E-2,-8.583387E-2,1.0046239E1,-3.4813754E-2,1.9941565E1,-1.1614515E-2,-8.158692E-2,1.0150563E-1,-7.5344376E-2],"split_indices":[0,0,2,0,0,0,3,1,3,0,0,0,0],"split_type":[0,0,0,0,0,0,0,0,0,0,0,0,0],"sum_hessian":[6.6117775E1,2.5034777E1,4.1082996E1,2.400919E1,1.0255871E0,4.299386E0,3.678361E1,3.3226461E0,3.3460964E1,1.0003116E0,2.3223345E0,3.1079954E1,2.3810096E0],"tree_param":{"num_deleted":"0","num_feature":"5","num_nodes":"13","size_leaf_vector":"1"}},{"base_weights":[-4.732888E-2,-9.679114E-1,5.2264977E-1,-1.0038465E-1,-1.8976174E-2,-8.417897E-2,7.0328903E-1,-6.5789425E-1,8.611495E-1,-1.2165353E-2,-7.926237E-2,1.0075437E-1,-7.350757E-2],"categories":[],"categories_nodes":[],"categories_segments":[],"categories_sizes":[],"default_left":[0,0,0,0,0,0,0,0,0,0,0,0,0],"id":25,"left_children":[1,3,5,-1,-1,-1,7,9,11,-1,-1,-1,-1],"loss_changes":[3.2846775E1,4.7836494E-1,1.0134385E1,0E0,0E0,0E0,8.030163E0,2.0531797E-1,8.114996E0,0E0,0E0,0E0,0E0],"parents":[2147483647,0,0,1,1,2,2,6,6,7,7,8,8],"right_children":[2,4,6,-1,-1,-1,8,10,12,-1,-1,-1,-1],"split_conditions":[7.0351106E-1,4.838243E0,1.0307589E0,-1.0038465E-1,-1.8976174E-2,-8.417897E-2,1.0046239E1,7.37488E-1,1.9941565E1,-1.2165353E-2,-7.926237E-2,1.0075437E-1,-7.350757E-2],"split_indices":[0,2,2,0,0,0,3,0,3,0,0,0,0],"split_type":[0,0,0,0,0,0,0,0,0,0,0,0,0],"sum_hessian":[6.0635475E1,2.291955E1,3.7715923E1,2.1630604E1,1.2889466E0,3.9815624E0,3.3734364E1,3.1765306E0,3.0557833E1,1.0199486E0,2.156582E0,2.832854E1,2.2292917E0],"tree_param":{"num_deleted":"0","num_feature":"5","num_nodes":"13","size_leaf_vector":"1"}},{"base_weights":[-5.090979E-2,-9.900596E-2,4.9004668E-1,-8.5153334E-2,6.8091834E-1,-7.6423734E-2,8.223736E-1,9.747919E-2,-7.425102E-2],"categories":[],"categories_nodes":[],"categories_segments":[],"categories_sizes":[],"default_left":[0,0,0,0,0,0,0,0,0],"id":26,"left_children":[1,-1,3,-1,5,-1,7,-1,-1],"loss_changes":[2.9265577E1,0E0,9.955602E0,0E0,7.294668E0,0E0,7.9231377E0,0E0,0E0],"parents":[2147483647,0,0,2,2,4,4,6,6],"right_children":[2,-1,4,-1,6,-1,8,-1,-1],"split_conditions":[6.99022E-1,-9.900596E-2,1.0307589E0,-8.5153334E-2,9.688512E0,-7.6423734E-2,1.9941565E1,9.747919E-2,-7.425102E-2],"split_indices":[0,0,2,0,3,0,3,0,0],"split_type":[0,0,0,0,0,0,0,0,0],"sum_hessian":[5.5649963E1,2.0035793E1,3.561417E1,4.004743E0,3.1609428E1,2.4256344E0,2.9183794E1,2.6937216E1,2.246577E0],"tree_param":{"num_deleted":"0","num_feature":"5","num_nodes":"9","size_leaf_vector":"1"}},{"base_weights":[-5.443482E-2,-9.4634014E-1,4.9761242E-1,-9.8758586E-2,-1.6179672E-2,-8.082412E-2,6.767122E-1,-6.326149E-1,8.42244E-1,-1.17700985E-2,-7.73172E-2,9.9324234E-2,-6.9865614E-2],"categories":[],"categories_nodes":[],"categories_segments":[],"categories_sizes":[],"default_left":[0,0,0,0,0,0,0,0,0,0,0,0,0],"id":27,"left_children":[1,3,5,-1,-1,-1,7,9,11,-1,-1,-1,-1],"loss_changes":[2.6115335E1,4.9570656E-1,8.224308E0,0E0,0E0,0E0,6.9073133E0,1.8923783E-1,6.8689346E0,0E0,0E0,0E0,0E0],"parents":[2147483647,0,0,1,1,2,2,6,6,7,7,8,8],"right_children":[2,4,6,-1,-1,-1,8,10,12,-1,-1,-1,-1],"split_conditions":[7.0351106E-1,4.838243E0,1.0307589E0,-9.8758586E-2,-1.6179672E-2,-8.082412E-2,1.0046239E1,2.0120394E0,1.9941565E1,-1.17700985E-2,-7.73172E-2,9.9324234E-2,-6.9865614E-2],"split_indices":[0,2,2,0,0,0,3,2,3,0,0,0,0],"split_type":[0,0,0,0,0,0,0,0,0,0,0,0,0],"sum_hessian":[5.1083244E1,1.9256914E1,3.182633E1,1.8049212E1,1.207702E0,3.4148872E0,2.8411442E1,2.8720813E0,2.5539362E1,1.0098838E0,1.8621976E0,2.3583723E1,1.9556389E0],"tree_param":{"num_deleted":"0","num_feature":"5","num_nodes":"13","size_leaf_vector":"1"}},{"base_weights":[-5.8397926E-2,-9.743273E-2,4.6389103E-1,-8.175487E-2,6.526944E-1,-6.1070675E-1,8.1680685E-1,-1.1206234E-2,-7.518487E-2,9.783711E-2,-7.060037E-2],"categories":[],"categories_nodes":[],"categories_segments":[],"categories_sizes":[],"default_left":[0,0,0,0,0,0,0,0,0,0,0],"id":28,"left_children":[1,-1,3,-1,5,7,9,-1,-1,-1,-1],"loss_changes":[2.3380413E1,0E0,8.082445E0,0E0,6.2526274E0,1.8054938E-1,6.8385963E0,0E0,0E0,0E0,0E0],"parents":[2147483647,0,0,2,2,4,4,5,5,6,6],"right_children":[2,-1,4,-1,6,8,10,-1,-1,-1,-1],"split_conditions":[6.99022E-1,-9.743273E-2,1.0307589E0,-8.175487E-2,1.0046239E1,2.0120394E0,1.9941565E1,-1.1206234E-2,-7.518487E-2,9.783711E-2,-7.060037E-2],"split_indices":[0,0,2,0,3,2,3,0,0,0,0],"split_type":[0,0,0,0,0,0,0,0,0,0,0],"sum_hessian":[4.6929344E1,1.6728086E1,3.0201258E1,3.4506903E0,2.6750568E1,2.7625003E0,2.3988068E1,1.0051931E0,1.757307E0,2.2010374E1,1.9776936E0],"tree_param":{"num_deleted":"0","num_feature":"5","num_nodes":"11","size_leaf_vector":"1"}},{"base_weights":[-6.24304E-2,-9.6624814E-2,4.4888178E-1,-8.006243E-2,6.3610554E-1,-5.8952755E-1,8.034812E-1,-1.0669166E-2,-7.310797E-2,9.6706234E-2,-6.883111E-2],"categories":[],"categories_nodes":[],"categories_segments":[],"categories_sizes":[],"default_left":[0,0,0,0,0,0,0,0,0,0,0],"id":29,"left_children":[1,-1,3,-1,5,7,9,-1,-1,-1,-1],"loss_changes":[2.0830471E1,0E0,7.263448E0,0E0,5.7389536E0,1.7219901E-1,6.2797422E0,0E0,0E0,0E0,0E0],"parents":[2147483647,0,0,2,2,4,4,5,5,6,6],"right_children":[2,-1,4,-1,6,8,10,-1,-1,-1,-1],"split_conditions":[6.99022E-1,-9.6624814E-2,1.0307589E0,-8.006243E-2,1.0046239E1,2.0120394E0,1.9941565E1,-1.0669166E-2,-7.310797E-2,9.6706234E-2,-6.883111E-2],"split_indices":[0,0,2,0,3,2,3,0,0,0,0],"split_type":[0,0,0,0,0,0,0,0,0,0,0],"sum_hessian":[4.3136078E1,1.5264371E1,2.7871708E1,3.2050881E0,2.466662E1,2.6607447E0,2.2005877E1,1.0007848E0,1.6599599E0,2.014828E1,1.8575962E0],"tree_param":{"num_deleted":"0","num_feature":"5","num_nodes":"11","size_leaf_vector":"1"}},{"base_weights":[-6.6640206E-2,-9.580611E-2,4.3336976E-1,-7.837332E-2,6.188902E-1,-7.033313E-2,7.703223E-1,9.2925325E-2,-6.7094974E-2],"categories":[],"categories_nodes":[],"categories_segments":[],"categories_sizes":[],"default_left":[0,0,0,0,0,0,0,0,0],"id":30,"left_children":[1,-1,3,-1,5,-1,7,-1,-1],"loss_changes":[1.854982E1,0E0,6.5260715E0,0E0,5.3020353E0,0E0,5.618992E0,0E0,0E0],"parents":[2147483647,0,0,2,2,4,4,6,6],"right_children":[2,-1,4,-1,6,-1,8,-1,-1],"split_conditions":[6.99022E-1,-9.580611E-2,1.0307589E0,-7.837332E-2,9.688512E0,-7.033313E-2,1.9941565E1,9.2925325E-2,-6.7094974E-2],"split_indices":[0,0,2,0,3,0,3,0,0],"split_type":[0,0,0,0,0,0,0,0,0],"sum_hessian":[3.96862E1,1.3932022E1,2.5754179E1,2.9799263E0,2.2774252E1,1.9657629E0,2.0808489E1,1.9061777E1,1.7467111E0],"tree_param":{"num_deleted":"0","num_feature":"5","num_nodes":"9","size_leaf_vector":"1"}},{"base_weights":[-7.092692E-2,-9.044938E-1,4.4464338E-1,-9.565905E-2,-1.1616922E-2,-6.442872E-1,6.385306E-1,-1.3954391E-2,-7.641472E-2,8.246117E-1,-7.013448E-2,-5.8639407E-2,9.650821E-2],"categories":[],"categories_nodes":[],"categories_segments":[],"categories_sizes":[],"default_left":[0,0,0,0,0,0,0,0,0,0,0,0,0],"id":31,"left_children":[1,3,5,-1,-1,7,9,-1,-1,11,-1,-1,-1],"loss_changes":[1.6537199E1,4.9164295E-1,5.450449E0,0E0,0E0,1.4171827E-1,5.754839E0,0E0,0E0,4.2703266E0,0E0,0E0,0E0],"parents":[2147483647,0,0,1,1,2,2,5,5,6,6,9,9],"right_children":[2,4,6,-1,-1,8,10,-1,-1,12,-1,-1,-1],"split_conditions":[7.0351106E-1,4.838243E0,1.0046239E1,-9.565905E-2,-1.1616922E-2,-3.1139629E-2,1.9941565E1,-1.3954391E-2,-7.641472E-2,1.0307589E0,-7.013448E-2,-5.8639407E-2,9.650821E-2],"split_indices":[0,2,3,0,0,1,3,0,0,2,0,0,0],"split_type":[0,0,0,0,0,0,0,0,0,0,0,0,0],"sum_hessian":[3.6544056E1,1.3676968E1,2.2867086E1,1.2628934E1,1.048034E0,3.1050675E0,1.976202E1,1.0111649E0,2.0939026E0,1.7689827E1,2.0721922E0,1.3142148E0,1.6375612E1],"tree_param":{"num_deleted":"0","num_feature":"5","num_nodes":"13","size_leaf_vector":"1"}},{"base_weights":[-7.558435E-2,-9.415426E-2,4.040102E-1,-7.524096E-2,5.8908784E-1,-5.4593515E-1,7.661846E-1,-1.4292101E-2,-6.660519E-2,9.353744E-2,-6.3541554E-2],"categories":[],"categories_nodes":[],"categories_segments":[],"categories_sizes":[],"default_left":[0,0,0,0,0,0,0,0,0,0,0],"id":32,"left_children":[1,-1,3,-1,5,7,9,-1,-1,-1,-1],"loss_changes":[1.4779153E1,0E0,5.3685083E0,0E0,4.5185385E0,6.635165E-2,4.8773327E0,0E0,0E0,0E0,0E0],"parents":[2147483647,0,0,2,2,4,4,5,5,6,6],"right_children":[2,-1,4,-1,6,8,10,-1,-1,-1,-1],"split_conditions":[6.99022E-1,-9.415426E-2,1.0307589E0,-7.524096E-2,1.0046239E1,2.071108E0,1.9941565E1,-1.4292101E-2,-6.660519E-2,9.353744E-2,-6.3541554E-2],"split_indices":[0,0,2,0,3,2,3,0,0,0,0],"split_type":[0,0,0,0,0,0,0,0,0,0,0],"sum_hessian":[3.3670006E1,1.1657664E1,2.201234E1,2.6139898E0,1.9398352E1,2.3370936E0,1.7061256E1,1.0394374E0,1.2976563E0,1.5520399E1,1.5408584E0],"tree_param":{"num_deleted":"0","num_feature":"5","num_nodes":"11","size_leaf_vector":"1"}},{"base_weights":[-8.039972E-2,-9.327387E-2,3.8695094E-1,-7.3568165E-2,5.6986815E-1,-6.596607E-2,7.274357E-1,8.900347E-2,-6.1913222E-2],"categories":[],"categories_nodes":[],"categories_segments":[],"categories_sizes":[],"default_left":[0,0,0,0,0,0,0,0,0],"id":33,"left_children":[1,-1,3,-1,5,-1,7,-1,-1],"loss_changes":[1.313739E1,0E0,4.8182898E0,0E0,4.1577806E0,0E0,4.3396454E0,0E0,0E0],"parents":[2147483647,0,0,2,2,4,4,6,6],"right_children":[2,-1,4,-1,6,-1,8,-1,-1],"split_conditions":[6.99022E-1,-9.327387E-2,1.0307589E0,-7.3568165E-2,9.688512E0,-6.596607E-2,1.9941565E1,8.900347E-2,-6.1913222E-2],"split_indices":[0,0,2,0,3,0,3,0,0],"split_type":[0,0,0,0,0,0,0,0,0],"sum_hessian":[3.1074177E1,1.0651859E1,2.0422318E1,2.4379225E0,1.7984394E1,1.6809675E0,1.6303427E1,1.4849388E1,1.454039E0],"tree_param":{"num_deleted":"0","num_feature":"5","num_nodes":"9","size_leaf_vector":"1"}},{"base_weights":[-8.5208915E-2,-8.716903E-1,4.0150926E-1,-9.3184076E-2,-1.1561231E-2,-6.021707E-1,6.0479426E-1,-1.4768856E-2,-7.159786E-2,7.972544E-1,-6.526168E-2,-5.3315815E-2,9.429207E-2],"categories":[],"categories_nodes":[],"categories_segments":[],"categories_sizes":[],"default_left":[0,0,0,0,0,0,0,0,0,0,0,0,0],"id":34,"left_children":[1,3,5,-1,-1,7,9,-1,-1,11,-1,-1,-1],"loss_changes":[1.1722388E1,4.2311287E-1,4.248248E0,0E0,0E0,8.601451E-2,4.4719653E0,0E0,0E0,3.3344088E0,0E0,0E0,0E0],"parents":[2147483647,0,0,1,1,2,2,5,5,6,6,9,9],"right_children":[2,4,6,-1,-1,8,10,-1,-1,12,-1,-1,-1],"split_conditions":[7.0351106E-1,4.7291627E0,1.0046239E1,-9.3184076E-2,-1.1561231E-2,-2.216233E-2,1.9941565E1,-1.4768856E-2,-7.159786E-2,1.0307589E0,-6.526168E-2,-5.3315815E-2,9.429207E-2],"split_indices":[0,2,3,0,0,1,3,0,0,2,0,0,0],"split_type":[0,0,0,0,0,0,0,0,0,0,0,0,0],"sum_hessian":[2.8708862E1,1.0672446E1,1.8036417E1,9.670624E0,1.0018222E0,2.7073255E0,1.5329091E1,1.0023249E0,1.7050004E0,1.361164E1,1.7174507E0,1.0807456E0,1.2530894E1],"tree_param":{"num_deleted":"0","num_feature":"5","num_nodes":"13","size_leaf_vector":"1"}},{"base_weights":[-9.039396E-2,-9.146992E-2,3.5529423E-1,-7.051316E-2,5.371719E-1,-5.0729483E-1,7.239278E-1,-1.4437198E-2,-6.1249193E-2,8.9822814E-2,-5.8573127E-2],"categories":[],"categories_nodes":[],"categories_segments":[],"categories_sizes":[],"default_left":[0,0,0,0,0,0,0,0,0,0,0],"id":35,"left_children":[1,-1,3,-1,5,7,9,-1,-1,-1,-1],"loss_changes":[1.0439611E1,0E0,3.9641771E0,0E0,3.573236E0,2.9202104E-2,3.8029652E0,0E0,0E0,0E0,0E0],"parents":[2147483647,0,0,2,2,4,4,5,5,6,6],"right_children":[2,-1,4,-1,6,8,10,-1,-1,-1,-1],"split_conditions":[6.99022E-1,-9.146992E-2,1.0307589E0,-7.051316E-2,1.0046239E1,-7.946093E-3,1.9941565E1,-1.4437198E-2,-6.1249193E-2,8.9822814E-2,-5.8573127E-2],"split_indices":[0,0,2,0,3,1,3,0,0,0,0],"split_type":[0,0,0,0,0,0,0,0,0,0,0],"sum_hessian":[2.6531544E1,8.941609E0,1.7589935E1,2.1540327E0,1.5435902E1,2.0810258E0,1.33548765E1,1.0007838E0,1.080242E0,1.2063515E1,1.2913617E0],"tree_param":{"num_deleted":"0","num_feature":"5","num_nodes":"11","size_leaf_vector":"1"}},{"base_weights":[-9.567813E-2,-8.40967E-1,3.7507758E-1,-9.146341E-2,-8.316801E-3,-6.8155445E-2,5.6089056E-1,7.440709E-1,-6.1642766E-2,-4.67921E-2,8.848005E-2],"categories":[],"categories_nodes":[],"categories_segments":[],"categories_sizes":[],"default_left":[0,0,0,0,0,0,0,0,0,0,0],"id":36,"left_children":[1,3,5,-1,-1,-1,7,9,-1,-1,-1],"loss_changes":[9.290189E0,4.9396038E-1,3.596119E0,0E0,0E0,0E0,3.5791984E0,2.6269808E0,0E0,0E0,0E0],"parents":[2147483647,0,0,1,1,2,2,6,6,7,7],"right_children":[2,4,6,-1,-1,-1,8,10,-1,-1,-1],"split_conditions":[7.0890164E-1,4.7291627E0,9.688512E0,-9.146341E-2,-8.316801E-3,-6.8155445E-2,1.9941565E1,1.0391985E0,-6.1642766E-2,-4.67921E-2,8.848005E-2],"split_indices":[0,2,3,0,0,0,3,2,0,0,0],"split_type":[0,0,0,0,0,0,0,0,0,0,0],"sum_hessian":[2.4580122E1,9.211028E0,1.5369093E1,8.206316E0,1.0047122E0,1.8995091E0,1.3469584E1,1.1974459E1,1.4951252E0,1.0038795E0,1.0970579E1],"tree_param":{"num_deleted":"0","num_feature":"5","num_nodes":"11","size_leaf_vector":"1"}},{"base_weights":[-1.0055158E-1,-8.953557E-2,3.226609E-1,-5.7577676E-1,5.24928E-1,-1.6915124E-2,-6.753921E-2,7.1813464E-1,-6.2254626E-2,-4.7917243E-2,8.722299E-2],"categories":[],"categories_nodes":[],"categories_segments":[],"categories_sizes":[],"default_left":[0,0,0,0,0,0,0,0,0,0,0],"id":37,"left_children":[1,-1,3,5,7,-1,-1,9,-1,-1,-1],"loss_changes":[8.2874775E0,0E0,3.255602E0,2.604425E-2,3.5039766E0,0E0,0E0,2.6809778E0,0E0,0E0,0E0],"parents":[2147483647,0,0,2,2,3,3,4,4,7,7],"right_children":[2,-1,4,6,8,-1,-1,10,-1,-1,-1],"split_conditions":[6.99022E-1,-8.953557E-2,1.0046239E1,7.5308233E-1,1.9941565E1,-1.6915124E-2,-6.753921E-2,1.0391985E0,-6.2254626E-2,-4.7917243E-2,8.722299E-2],"split_indices":[0,0,3,0,3,0,0,2,0,0,0],"split_type":[0,0,0,0,0,0,0,0,0,0,0],"sum_hessian":[2.2779049E1,7.527183E0,1.5251864E1,2.463368E0,1.2788497E1,1.0156345E0,1.4477335E0,1.1265776E1,1.5227209E0,1.0440462E0,1.0221729E1],"tree_param":{"num_deleted":"0","num_feature":"5","num_nodes":"11","size_leaf_vector":"1"}},{"base_weights":[-1.0597581E-1,-8.231527E-1,3.3973747E-1,-9.0653434E-2,-1.509171E-2,-6.5532975E-2,5.266898E-1,7.125964E-1,-5.8991093E-2,-4.004749E-2,8.601417E-2],"categories":[],"categories_nodes":[],"categories_segments":[],"categories_sizes":[],"default_left":[0,0,0,0,0,0,0,0,0,0,0],"id":38,"left_children":[1,3,5,-1,-1,-1,7,9,-1,-1,-1],"loss_changes":[7.368529E0,3.55999E-1,3.0211258E0,0E0,0E0,0E0,3.0491838E0,2.2017703E0,0E0,0E0,0E0],"parents":[2147483647,0,0,1,1,2,2,6,6,7,7],"right_children":[2,4,6,-1,-1,-1,8,10,-1,-1,-1],"split_conditions":[7.0351106E-1,1.1995639E1,9.688512E0,-9.0653434E-2,-1.509171E-2,-6.5532975E-2,1.9941565E1,1.0999906E0,-5.8991093E-2,-4.004749E-2,8.601417E-2],"split_indices":[0,4,3,0,0,0,3,2,0,0,0],"split_type":[0,0,0,0,0,0,0,0,0,0,0],"sum_hessian":[2.1176619E1,7.792017E0,1.3384602E1,6.6221004E0,1.1699167E0,1.7207036E0,1.16638975E1,1.0309286E1,1.3546113E0,1.005981E0,9.303306E0],"tree_param":{"num_deleted":"0","num_feature":"5","num_nodes":"11","size_leaf_vector":"1"}},{"base_weights":[-1.1106053E-1,-8.7473504E-2,2.8938916E-1,-5.5636793E-2,4.9359316E-1,6.869279E-1,-5.9274327E-2,-4.2510808E-2,8.462774E-2],"categories":[],"categories_nodes":[],"categories_segments":[],"categories_sizes":[],"default_left":[0,0,0,0,0,0,0,0,0],"id":39,"left_children":[1,-1,3,-1,5,7,-1,-1,-1],"loss_changes":[6.5841656E0,0E0,2.7499003E0,0E0,2.9431827E0,2.2582417E0,0E0,0E0,0E0],"parents":[2147483647,0,0,2,2,4,4,5,5],"right_children":[2,-1,4,-1,6,8,-1,-1,-1],"split_conditions":[6.99022E-1,-8.7473504E-2,1.0046239E1,-5.5636793E-2,1.9941565E1,1.0813724E0,-5.9274327E-2,-4.2510808E-2,8.462774E-2],"split_indices":[0,0,3,0,3,2,0,0,0],"split_type":[0,0,0,0,0,0,0,0,0],"sum_hessian":[1.970227E1,6.3700104E0,1.333226E1,2.2575474E0,1.1074713E1,9.713645E0,1.3610669E0,1.0084317E0,8.705214E0],"tree_param":{"num_deleted":"0","num_feature":"5","num_nodes":"9","size_leaf_vector":"1"}},{"base_weights":[-1.1517064E-1,-7.900264E-1,3.1431064E-1,-8.888714E-2,-1.2178258E-2,-5.160742E-2,5.296633E-1,7.28453E-1,-5.5515714E-2,-2.9679973E-2,8.885152E-2],"categories":[],"categories_nodes":[],"categories_segments":[],"categories_sizes":[],"default_left":[0,0,0,0,0,0,0,0,0,0,0],"id":40,"left_children":[1,3,5,-1,-1,-1,7,9,-1,-1,-1],"loss_changes":[5.8633595E0,4.0820694E-1,2.518354E0,0E0,0E0,0E0,2.6606233E0,1.7857065E0,0E0,0E0,0E0],"parents":[2147483647,0,0,1,1,2,2,6,6,7,7],"right_children":[2,4,6,-1,-1,-1,8,10,-1,-1,-1],"split_conditions":[7.0890164E-1,1.1995639E1,1.0046239E1,-8.888714E-2,-1.2178258E-2,-5.160742E-2,1.9941565E1,1.1174114E0,-5.5515714E-2,-2.9679973E-2,8.885152E-2],"split_indices":[0,4,3,0,0,0,3,2,0,0,0],"split_type":[0,0,0,0,0,0,0,0,0,0,0],"sum_hessian":[1.8373053E1,6.8188753E0,1.1554177E1,5.6525974E0,1.1662779E0,2.091827E0,9.462351E0,8.274568E0,1.1877828E0,1.0020187E0,7.272549E0],"tree_param":{"num_deleted":"0","num_feature":"5","num_nodes":"11","size_leaf_vector":"1"}},{"base_weights":[-1.18573025E-1,-8.526465E-2,2.5976944E-1,-6.2805764E-2,4.422935E-1,-4.2307153E-2,6.3959146E-1,8.183243E-2,-4.20939E-2],"categories":[],"categories_nodes":[],"categories_segments":[],"categories_sizes":[],"default_left":[0,0,0,0,0,0,0,0,0],"id":41,"left_children":[1,-1,3,-1,5,-1,7,-1,-1],"loss_changes":[5.2660837E0,0E0,2.3443208E0,0E0,2.1767786E0,0E0,2.1432838E0,0E0,0E0],"parents":[2147483647,0,0,2,2,4,4,6,6],"right_children":[2,-1,4,-1,6,-1,8,-1,-1],"split_conditions":[6.99022E-1,-8.526465E-2,1.0307589E0,-6.2805764E-2,1.0046239E1,-4.2307153E-2,1.9629929E1,8.183243E-2,-4.20939E-2],"split_indices":[0,0,2,0,3,0,3,0,0],"split_type":[0,0,0,0,0,0,0,0,0],"sum_hessian":[1.716358E1,5.411112E0,1.1752468E1,1.5878664E0,1.0164602E1,1.6747375E0,8.489864E0,7.4608564E0,1.0290082E0],"tree_param":{"num_deleted":"0","num_feature":"5","num_nodes":"9","size_leaf_vector":"1"}},{"base_weights":[-1.2257425E-1,-7.622104E-1,2.8643742E-1,-8.6987205E-2,-9.803586E-3,-5.9769344E-2,4.7331145E-1,6.58669E-1,-5.288999E-2,-2.26542E-2,8.076334E-2],"categories":[],"categories_nodes":[],"categories_segments":[],"categories_sizes":[],"default_left":[0,0,0,0,0,0,0,0,0,0,0],"id":42,"left_children":[1,3,5,-1,-1,-1,7,9,-1,-1,-1],"loss_changes":[4.6813545E0,4.1003752E-1,2.1222E0,0E0,0E0,0E0,2.1592343E0,1.326482E0,0E0,0E0,0E0],"parents":[2147483647,0,0,1,1,2,2,6,6,7,7],"right_children":[2,4,6,-1,-1,-1,8,10,-1,-1,-1],"split_conditions":[7.0890164E-1,1.1995639E1,9.688512E0,-8.6987205E-2,-9.803586E-3,-5.9769344E-2,1.9941565E1,1.1665936E0,-5.288999E-2,-2.26542E-2,8.076334E-2],"split_indices":[0,4,3,0,0,0,3,2,0,0,0],"split_type":[0,0,0,0,0,0,0,0,0,0,0],"sum_hessian":[1.6059292E1,5.926908E0,1.0132385E1,4.833674E0,1.0932341E0,1.3843637E0,8.748021E0,7.671899E0,1.0761222E0,1.0300597E0,6.6418395E0],"tree_param":{"num_deleted":"0","num_feature":"5","num_nodes":"11","size_leaf_vector":"1"}},{"base_weights":[-1.266467E-1,-8.2909755E-2,2.2903085E-1,-6.029975E-2,4.0914482E-1,-4.0688515E-2,6.0899574E-1,7.877467E-2,-3.4679588E-2],"categories":[],"categories_nodes":[],"categories_segments":[],"categories_sizes":[],"default_left":[0,0,0,0,0,0,0,0,0],"id":43,"left_children":[1,-1,3,-1,5,-1,7,-1,-1],"loss_changes":[4.2031384E0,0E0,1.962173E0,0E0,1.8795816E0,0E0,1.7147951E0,0E0,0E0],"parents":[2147483647,0,0,2,2,4,4,6,6],"right_children":[2,-1,4,-1,6,-1,8,-1,-1],"split_conditions":[6.99022E-1,-8.2909755E-2,1.0307589E0,-6.029975E-2,1.0046239E1,-4.0688515E-2,1.9394339E1,7.877467E-2,-3.4679588E-2],"split_indices":[0,0,2,0,3,0,3,0,0],"split_type":[0,0,0,0,0,0,0,0,0],"sum_hessian":[1.5062893E1,4.6158032E0,1.0447089E1,1.4412826E0,9.005807E0,1.567885E0,7.4379215E0,6.4141693E0,1.0237522E0],"tree_param":{"num_deleted":"0","num_feature":"5","num_nodes":"9","size_leaf_vector":"1"}},{"base_weights":[-1.3019681E-1,-8.161812E-2,2.1247861E-1,-5.879257E-2,3.882628E-1,-3.87158E-2,5.8544207E-1,7.644796E-2,-3.330097E-2],"categories":[],"categories_nodes":[],"categories_segments":[],"categories_sizes":[],"default_left":[0,0,0,0,0,0,0,0,0],"id":44,"left_children":[1,-1,3,-1,5,-1,7,-1,-1],"loss_changes":[3.7353976E0,0E0,1.7616632E0,0E0,1.6850204E0,0E0,1.5704975E0,0E0,0E0],"parents":[2147483647,0,0,2,2,4,4,6,6],"right_children":[2,-1,4,-1,6,-1,8,-1,-1],"split_conditions":[6.99022E-1,-8.161812E-2,1.0307589E0,-5.879257E-2,1.0046239E1,-3.87158E-2,1.9394339E1,7.644796E-2,-3.330097E-2],"split_indices":[0,0,2,0,3,0,3,0,0],"split_type":[0,0,0,0,0,0,0,0,0],"sum_hessian":[1.4152836E1,4.254393E0,9.898442E0,1.3602375E0,8.538205E0,1.5356553E0,7.0025496E0,6.0004926E0,1.0020573E0],"tree_param":{"num_deleted":"0","num_feature":"5","num_nodes":"9","size_leaf_vector":"1"}},{"base_weights":[-1.335753E-1,-7.249172E-1,2.4650154E-1,-8.437211E-2,-7.765602E-3,-5.6008596E-2,4.3166998E-1,6.192238E-1,-4.54593E-2,-1.2266151E-2,7.603351E-2],"categories":[],"categories_nodes":[],"categories_segments":[],"categories_sizes":[],"default_left":[0,0,0,0,0,0,0,0,0,0,0],"id":45,"left_children":[1,3,5,-1,-1,-1,7,9,-1,-1,-1],"loss_changes":[3.3988857E0,3.8506198E-1,1.6558616E0,0E0,0E0,0E0,1.6553184E0,8.5170674E-1,0E0,0E0,0E0],"parents":[2147483647,0,0,1,1,2,2,6,6,7,7],"right_children":[2,4,6,-1,-1,-1,8,10,-1,-1,-1],"split_conditions":[7.0890164E-1,1.1866706E1,9.688512E0,-8.437211E-2,-7.765602E-3,-5.6008596E-2,1.967554E1,1.2109627E0,-4.54593E-2,-1.2266151E-2,7.603351E-2],"split_indices":[0,4,3,0,0,0,3,2,0,0,0],"split_type":[0,0,0,0,0,0,0,0,0,0,0],"sum_hessian":[1.3327545E1,4.8595424E0,8.468002E0,3.8494554E0,1.0100871E0,1.2030072E0,7.264995E0,6.2447667E0,1.0202281E0,1.0188682E0,5.2258987E0],"tree_param":{"num_deleted":"0","num_feature":"5","num_nodes":"11","size_leaf_vector":"1"}},{"base_weights":[-1.3645548E-1,-7.0526147E-1,2.2994502E-1,-8.280077E-2,-7.3967515E-3,-5.457717E-2,4.1156355E-1,5.940802E-1,-4.088014E-2,-1.1663543E-2,7.3787145E-2],"categories":[],"categories_nodes":[],"categories_segments":[],"categories_sizes":[],"default_left":[0,0,0,0,0,0,0,0,0,0,0],"id":46,"left_children":[1,3,5,-1,-1,-1,7,9,-1,-1,-1],"loss_changes":[2.9935615E0,3.7025332E-1,1.494989E0,0E0,0E0,0E0,1.422216E0,7.8616595E-1,0E0,0E0,0E0],"parents":[2147483647,0,0,1,1,2,2,6,6,7,7],"right_children":[2,4,6,-1,-1,-1,8,10,-1,-1,-1],"split_conditions":[7.0890164E-1,1.1866706E1,9.688512E0,-8.280077E-2,-7.3967515E-3,-5.457717E-2,1.9629929E1,1.2310064E0,-4.088014E-2,-1.1663543E-2,7.3787145E-2],"split_indices":[0,4,3,0,0,0,3,2,0,0,0],"split_type":[0,0,0,0,0,0,0,0,0,0,0],"sum_hessian":[1.2585623E1,4.5685287E0,8.017095E0,3.5639625E0,1.004566E0,1.1405616E0,6.8765326E0,5.850692E0,1.0258409E0,1.0162983E0,4.8343935E0],"tree_param":{"num_deleted":"0","num_feature":"5","num_nodes":"11","size_leaf_vector":"1"}},{"base_weights":[-1.3884823E-1,-7.781174E-2,1.720106E-1,-5.5811066E-2,3.4609398E-1,-3.796132E-2,5.473199E-1,7.236723E-2,-2.4138821E-2],"categories":[],"categories_nodes":[],"categories_segments":[],"categories_sizes":[],"default_left":[0,0,0,0,0,0,0,0,0],"id":47,"left_children":[1,-1,3,-1,5,-1,7,-1,-1],"loss_changes":[2.7008114E0,0E0,1.401907E0,0E0,1.4192972E0,0E0,1.135087E0,0E0,0E0],"parents":[2147483647,0,0,2,2,4,4,6,6],"right_children":[2,-1,4,-1,6,-1,8,-1,-1],"split_conditions":[6.99022E-1,-7.781174E-2,1.0307589E0,-5.5811066E-2,1.0046239E1,-3.796132E-2,1.9018446E1,7.236723E-2,-2.4138821E-2],"split_indices":[0,0,2,0,3,0,3,0,0],"split_type":[0,0,0,0,0,0,0,0,0],"sum_hessian":[1.1917348E1,3.4072824E0,8.510066E0,1.2137007E0,7.2963653E0,1.3915031E0,5.904862E0,4.8932147E0,1.0116473E0],"tree_param":{"num_deleted":"0","num_feature":"5","num_nodes":"9","size_leaf_vector":"1"}},{"base_weights":[-1.4157087E-1,-6.7672014E-1,2.0419808E-1,-8.03539E-2,-8.570505E-3,-4.207963E-2,4.1904002E-1,6.2238914E-1,-3.6232468E-2,-6.1653103E-3,7.87394E-2],"categories":[],"categories_nodes":[],"categories_segments":[],"categories_sizes":[],"default_left":[0,0,0,0,0,0,0,0,0,0,0],"id":48,"left_children":[1,3,5,-1,-1,-1,7,9,-1,-1,-1],"loss_changes":[2.411984E0,3.1001902E-1,1.2818449E0,0E0,0E0,0E0,1.2786423E0,6.8369913E-1,0E0,0E0,0E0],"parents":[2147483647,0,0,1,1,2,2,6,6,7,7],"right_children":[2,4,6,-1,-1,-1,8,10,-1,-1,-1],"split_conditions":[7.0890164E-1,1.1559579E1,1.0046239E1,-8.03539E-2,-8.570505E-3,-4.207963E-2,1.9491966E1,1.2881033E0,-3.6232468E-2,-6.1653103E-3,7.87394E-2],"split_indices":[0,4,3,0,0,0,3,2,0,0,0],"split_type":[0,0,0,0,0,0,0,0,0,0,0],"sum_hessian":[1.12882805E1,4.0550704E0,7.2332096E0,3.0426033E0,1.0124673E0,1.6051252E0,5.628084E0,4.6272955E0,1.0007888E0,1.0210005E0,3.606295E0],"tree_param":{"num_deleted":"0","num_feature":"5","num_nodes":"11","size_leaf_vector":"1"}},{"base_weights":[-1.413778E-1,-7.5130485E-2,1.4924157E-1,-5.382433E-2,3.2051307E-1,-3.4106817E-2,5.1494426E-1,6.897136E-2,-2.045954E-2],"categories":[],"categories_nodes":[],"categories_segments":[],"categories_sizes":[],"default_left":[0,0,0,0,0,0,0,0,0],"id":49,"left_children":[1,-1,3,-1,5,-1,7,-1,-1],"loss_changes":[2.192741E0,0E0,1.2068193E0,0E0,1.160825E0,0E0,9.3559897E-1,0E0,0E0],"parents":[2147483647,0,0,2,2,4,4,6,6],"right_children":[2,-1,4,-1,6,-1,8,-1,-1],"split_conditions":[6.99022E-1,-7.5130485E-2,1.0307589E0,-5.382433E-2,1.0046239E1,-3.4106817E-2,1.878621E1,6.897136E-2,-2.045954E-2],"split_indices":[0,0,2,0,3,0,3,0,0],"split_type":[0,0,0,0,0,0,0,0,0],"sum_hessian":[1.073787E1,2.9537044E0,7.7841663E0,1.1251551E0,6.6590114E0,1.3411983E0,5.317813E0,4.3119364E0,1.0058764E0],"tree_param":{"num_deleted":"0","num_feature":"5","num_nodes":"9","size_leaf_vector":"1"}},{"base_weights":[-1.4359552E-1,-6.486121E-1,1.8345791E-1,-7.786813E-2,-9.037835E-3,-3.8306747E-2,3.9083892E-1,5.8980423E-1,-3.0107174E-2,-3.6708347E-3,7.554718E-2],"categories":[],"categories_nodes":[],"categories_segments":[],"categories_sizes":[],"default_left":[0,0,0,0,0,0,0,0,0,0,0],"id":50,"left_children":[1,3,5,-1,-1,-1,7,9,-1,-1,-1],"loss_changes":[1.9710172E0,2.6564908E-1,1.0408704E0,0E0,0E0,0E0,1.0101175E0,5.5031526E-1,0E0,0E0,0E0],"parents":[2147483647,0,0,1,1,2,2,6,6,7,7],"right_children":[2,4,6,-1,-1,-1,8,10,-1,-1,-1],"split_conditions":[7.0890164E-1,1.1095705E1,1.0046239E1,-7.786813E-2,-9.037835E-3,-3.8306747E-2,1.9255424E1,1.3485276E0,-3.0107174E-2,-3.6708347E-3,7.554718E-2],"split_indices":[0,4,3,0,0,0,3,2,0,0,0],"split_type":[0,0,0,0,0,0,0,0,0,0,0],"sum_hessian":[1.0213013E1,3.6278708E0,6.5851426E0,2.6220317E0,1.005839E0,1.5375854E0,5.047557E0,4.034866E0,1.0126914E0,1.0065963E0,3.0282693E0],"tree_param":{"num_deleted":"0","num_feature":"5","num_nodes":"11","size_leaf_vector":"1"}},{"base_weights":[-1.4231706E-1,-7.239948E-2,1.2913774E-1,-5.1976293E-2,2.9723746E-1,-3.0576611E-2,4.8369262E-1,6.5608464E-2,-1.7462121E-2],"categories":[],"categories_nodes":[],"categories_segments":[],"categories_sizes":[],"default_left":[0,0,0,0,0,0,0,0,0],"id":51,"left_children":[1,-1,3,-1,5,-1,7,-1,-1],"loss_changes":[1.7932369E0,0E0,1.047659E0,0E0,9.5062685E-1,0E0,7.774148E-1,0E0,0E0],"parents":[2147483647,0,0,2,2,4,4,6,6],"right_children":[2,-1,4,-1,6,-1,8,-1,-1],"split_conditions":[6.99022E-1,-7.239948E-2,1.0307589E0,-5.1976293E-2,1.0046239E1,-3.0576611E-2,1.8688934E1,6.5608464E-2,-1.7462121E-2],"split_indices":[0,0,2,0,3,0,3,0,0],"split_type":[0,0,0,0,0,0,0,0,0],"sum_hessian":[9.764727E0,2.5765538E0,7.1881733E0,1.0485512E0,6.1396217E0,1.2989321E0,4.8406897E0,3.8388107E0,1.0018792E0],"tree_param":{"num_deleted":"0","num_feature":"5","num_nodes":"9","size_leaf_vector":"1"}},{"base_weights":[-1.4409368E-1,-6.2122697E-1,1.6524534E-1,-7.5282305E-2,-9.60956E-3,-4.2287637E-2,3.362158E-1,-2.8504765E-2,5.612227E-1,7.3606566E-2,-4.1880845E-3],"categories":[],"categories_nodes":[],"categories_segments":[],"categories_sizes":[],"default_left":[0,0,0,0,0,0,0,0,0,0,0],"id":52,"left_children":[1,3,5,-1,-1,-1,7,-1,9,-1,-1],"loss_changes":[1.6264122E0,2.227869E-1,8.5137796E-1,0E0,0E0,0E0,1.0017288E0,0E0,5.324888E-1,0E0,0E0],"parents":[2147483647,0,0,1,1,2,2,6,6,8,8],"right_children":[2,4,6,-1,-1,-1,8,-1,10,-1,-1],"split_conditions":[7.0890164E-1,1.0793777E1,1.0999906E0,-7.5282305E-2,-9.60956E-3,-4.2287637E-2,1.0046239E1,-2.8504765E-2,1.4912213E1,7.3606566E-2,-4.1880845E-3],"split_indices":[0,4,2,0,0,0,3,0,4,0,0],"split_type":[0,0,0,0,0,0,0,0,0,0,0],"sum_hessian":[9.323843E0,3.2707324E0,6.05311E0,2.2686315E0,1.0021011E0,1.0314914E0,5.021619E0,1.2642038E0,3.757415E0,2.7420244E0,1.0153904E0],"tree_param":{"num_deleted":"0","num_feature":"5","num_nodes":"11","size_leaf_vector":"1"}},{"base_weights":[-1.4345832E-1,-6.9652565E-2,1.1057885E-1,-4.473399E-2,2.6853082E-1,-2.7101085E-2,4.451515E-1,6.1312374E-2,-1.3774556E-2],"categories":[],"categories_nodes":[],"categories_segments":[],"categories_sizes":[],"default_left":[0,0,0,0,0,0,0,0,0],"id":53,"left_children":[1,-1,3,-1,5,-1,7,-1,-1],"loss_changes":[1.4720381E0,0E0,7.957571E-1,0E0,7.4958944E-1,0E0,6.0835207E-1,0E0,0E0],"parents":[2147483647,0,0,2,2,4,4,6,6],"right_children":[2,-1,4,-1,6,-1,8,-1,-1],"split_conditions":[6.99022E-1,-6.9652565E-2,1.0813724E0,-4.473399E-2,1.0046239E1,-2.7101085E-2,1.848883E1,6.1312374E-2,-1.3774556E-2],"split_indices":[0,0,2,0,3,0,3,0,0],"split_type":[0,0,0,0,0,0,0,0,0],"sum_hessian":[8.928972E0,2.2621639E0,6.6668086E0,1.0667396E0,5.600069E0,1.2492949E0,4.3507743E0,3.3372345E0,1.0135398E0],"tree_param":{"num_deleted":"0","num_feature":"5","num_nodes":"9","size_leaf_vector":"1"}},{"base_weights":[-1.4389765E-1,-5.9474444E-1,1.4907499E-1,-7.249809E-2,-1.0777996E-2,-3.1891316E-2,3.4059083E-1,5.359054E-1,-2.3345686E-2,3.1231036E-3,6.860217E-2],"categories":[],"categories_nodes":[],"categories_segments":[],"categories_sizes":[],"default_left":[0,0,0,0,0,0,0,0,0,0,0],"id":54,"left_children":[1,3,5,-1,-1,-1,7,9,-1,-1,-1],"loss_changes":[1.3533211E0,1.737423E-1,7.0042115E-1,0E0,0E0,0E0,7.0466405E-1,2.9375446E-1,0E0,0E0,0E0],"parents":[2147483647,0,0,1,1,2,2,6,6,7,7],"right_children":[2,4,6,-1,-1,-1,8,10,-1,-1,-1],"split_conditions":[7.0890164E-1,1.0501735E1,1.0046239E1,-7.249809E-2,-1.0777996E-2,-3.1891316E-2,1.9124924E1,1.6017754E0,-2.3345686E-2,3.1231036E-3,6.860217E-2],"split_indices":[0,4,3,0,0,0,3,2,0,0,0],"split_type":[0,0,0,0,0,0,0,0,0,0,0],"sum_hessian":[8.5745325E0,2.9715972E0,5.6029353E0,1.9589177E0,1.0126795E0,1.4338859E0,4.1690493E0,3.1602478E0,1.0088016E0,1.001468E0,2.1587799E0],"tree_param":{"num_deleted":"0","num_feature":"5","num_nodes":"11","size_leaf_vector":"1"}},{"base_weights":[-1.4091647E-1,-6.6929124E-2,9.63887E-2,-4.2906802E-2,2.5033745E-1,-1.1536397E-1,4.9679565E-1,2.3627618E-2,-3.911407E-2,7.5032756E-2,-1.1946323E-2],"categories":[],"categories_nodes":[],"categories_segments":[],"categories_sizes":[],"default_left":[0,0,0,0,0,0,0,0,0,0,0],"id":55,"left_children":[1,-1,3,-1,5,7,9,-1,-1,-1,-1],"loss_changes":[1.2272191E0,0E0,6.9576323E-1,0E0,6.21225E-1,4.1538978E-1,7.030632E-1,0E0,0E0,0E0,0E0],"parents":[2147483647,0,0,2,2,4,4,5,5,6,6],"right_children":[2,-1,4,-1,6,8,10,-1,-1,-1,-1],"split_conditions":[6.99022E-1,-6.6929124E-2,1.0813724E0,-4.2906802E-2,1.0105761E1,2.5690112E0,1.8466312E1,2.3627618E-2,-3.911407E-2,7.5032756E-2,-1.1946323E-2],"split_indices":[0,0,2,0,4,2,3,0,0,0,0],"split_type":[0,0,0,0,0,0,0,0,0,0,0],"sum_hessian":[8.273016E0,1.9998477E0,6.273168E0,1.0165169E0,5.256651E0,2.3305013E0,2.9261496E0,1.087313E0,1.2431884E0,1.9190787E0,1.0070709E0],"tree_param":{"num_deleted":"0","num_feature":"5","num_nodes":"11","size_leaf_vector":"1"}},{"base_weights":[-1.3803914E-1,-5.6275815E-1,1.3474923E-1,-6.8497494E-2,-1.1928793E-2,-3.0051587E-2,3.2078254E-1,5.1028687E-1,-2.0527214E-2,4.9730274E-3,6.538157E-2],"categories":[],"categories_nodes":[],"categories_segments":[],"categories_sizes":[],"default_left":[0,0,0,0,0,0,0,0,0,0,0],"id":56,"left_children":[1,3,5,-1,-1,-1,7,9,-1,-1,-1],"loss_changes":[1.11569E0,1.190089E-1,6.042626E-1,0E0,0E0,0E0,5.909979E-1,2.2348607E-1,0E0,0E0,0E0],"parents":[2147483647,0,0,1,1,2,2,6,6,7,7],"right_children":[2,4,6,-1,-1,-1,8,10,-1,-1,-1],"split_conditions":[7.0890164E-1,3.8433667E-2,1.0046239E1,-6.8497494E-2,-1.1928793E-2,-3.0051587E-2,1.9018446E1,1.7117889E0,-2.0527214E-2,4.9730274E-3,6.538157E-2],"split_indices":[0,1,3,0,0,0,3,2,0,0,0],"split_type":[0,0,0,0,0,0,0,0,0,0,0],"sum_hessian":[7.975255E0,2.703322E0,5.271933E0,1.6923461E0,1.0109758E0,1.3942941E0,3.877639E0,2.872744E0,1.004895E0,1.0024751E0,1.8702691E0],"tree_param":{"num_deleted":"0","num_feature":"5","num_nodes":"11","size_leaf_vector":"1"}},{"base_weights":[-1.347333E-1,-6.436739E-2,8.929696E-2,-3.8760684E-2,2.3940906E-1,-2.2157064E-2,4.0202227E-1,5.5649675E-2,-8.418745E-3],"categories":[],"categories_nodes":[],"categories_segments":[],"categories_sizes":[],"default_left":[0,0,0,0,0,0,0,0,0],"id":57,"left_children":[1,-1,3,-1,5,-1,7,-1,-1],"loss_changes":[1.0522921E0,0E0,5.8936954E-1,0E0,5.308975E-1,0E0,4.007792E-1,0E0,0E0],"parents":[2147483647,0,0,2,2,4,4,6,6],"right_children":[2,-1,4,-1,6,-1,8,-1,-1],"split_conditions":[6.99022E-1,-6.436739E-2,1.1083679E0,-3.8760684E-2,1.0046239E1,-2.2157064E-2,1.8342964E1,5.5649675E-2,-8.418745E-3],"split_indices":[0,0,2,0,3,0,3,0,0],"split_type":[0,0,0,0,0,0,0,0,0],"sum_hessian":[7.7250533E0,1.7886143E0,5.936439E0,1.0424563E0,4.893983E0,1.1816505E0,3.7123322E0,2.7075508E0,1.0047815E0],"tree_param":{"num_deleted":"0","num_feature":"5","num_nodes":"9","size_leaf_vector":"1"}},{"base_weights":[-1.3425857E-1,-5.383788E-1,1.2429403E-1,-6.574007E-2,-1.2134366E-2,-2.7343446E-2,3.0024147E-1,4.818206E-1,-1.7346112E-2,6.4203897E-3,6.1783202E-2],"categories":[],"categories_nodes":[],"categories_segments":[],"categories_sizes":[],"default_left":[0,0,0,0,0,0,0,0,0,0,0],"id":58,"left_children":[1,3,5,-1,-1,-1,7,9,-1,-1,-1],"loss_changes":[9.52131E-1,9.3612075E-2,5.005012E-1,0E0,0E0,0E0,4.811233E-1,1.65147E-1,0E0,0E0,0E0],"parents":[2147483647,0,0,1,1,2,2,6,6,7,7],"right_children":[2,4,6,-1,-1,-1,8,10,-1,-1,-1],"split_conditions":[7.0890164E-1,3.496463E-2,1.0046239E1,-6.574007E-2,-1.2134366E-2,-2.7343446E-2,1.878621E1,1.8197128E0,-1.7346112E-2,6.4203897E-3,6.1783202E-2],"split_indices":[0,1,3,0,0,0,3,2,0,0,0],"split_type":[0,0,0,0,0,0,0,0,0,0,0],"sum_hessian":[7.472053E0,2.4930744E0,4.9789786E0,1.4911358E0,1.0019386E0,1.3571279E0,3.621851E0,2.6058443E0,1.0160066E0,1.0018272E0,1.604017E0],"tree_param":{"num_deleted":"0","num_feature":"5","num_nodes":"11","size_leaf_vector":"1"}},{"base_weights":[-1.3044047E-1,-6.1877396E-2,8.064789E-2,-3.7025075E-2,2.2619829E-1,-1.0973819E-1,4.6111277E-1,8.845435E-3,-2.458109E-2,6.983798E-2,-6.633989E-3],"categories":[],"categories_nodes":[],"categories_segments":[],"categories_sizes":[],"default_left":[0,0,0,0,0,0,0,0,0,0,0],"id":59,"left_children":[1,-1,3,-1,5,7,9,-1,-1,-1,-1],"loss_changes":[9.018348E-1,0E0,5.205097E-1,0E0,4.966192E-1,1.062508E-1,4.8662496E-1,0E0,0E0,0E0,0E0],"parents":[2147483647,0,0,2,2,4,4,5,5,6,6],"right_children":[2,-1,4,-1,6,8,10,-1,-1,-1,-1],"split_conditions":[6.99022E-1,-6.1877396E-2,1.1083679E0,-3.7025075E-2,1.0105761E1,2.5341602E-3,1.83109E1,8.845435E-3,-2.458109E-2,6.983798E-2,-6.633989E-3],"split_indices":[0,0,2,0,4,1,3,0,0,0,0],"split_type":[0,0,0,0,0,0,0,0,0,0,0],"sum_hessian":[7.264643E0,1.6096096E0,5.6550336E0,1.0032575E0,4.6517763E0,2.133562E0,2.5182142E0,1.0109873E0,1.1225747E0,1.5133802E0,1.004834E0],"tree_param":{"num_deleted":"0","num_feature":"5","num_nodes":"11","size_leaf_vector":"1"}},{"base_weights":[-1.2688947E-1,-6.0397636E-2,7.581952E-2,-3.4084413E-2,2.1255034E-1,-1.1019295E-1,4.4386724E-1,8.133362E-3,-2.3999117E-2,6.7997865E-2,-6.303905E-3],"categories":[],"categories_nodes":[],"categories_segments":[],"categories_sizes":[],"default_left":[0,0,0,0,0,0,0,0,0,0,0],"id":60,"left_children":[1,-1,3,-1,5,7,9,-1,-1,-1,-1],"loss_changes":[8.2483876E-1,0E0,4.451429E-1,0E0,4.6261388E-1,9.694877E-2,4.5300782E-1,0E0,0E0,0E0,0E0],"parents":[2147483647,0,0,2,2,4,4,5,5,6,6],"right_children":[2,-1,4,-1,6,8,10,-1,-1,-1,-1],"split_conditions":[6.99022E-1,-6.0397636E-2,1.1174114E0,-3.4084413E-2,1.0105761E1,2.5341602E-3,1.83109E1,8.133362E-3,-2.3999117E-2,6.7997865E-2,-6.303905E-3],"split_indices":[0,0,2,0,4,1,3,0,0,0,0],"split_type":[0,0,0,0,0,0,0,0,0,0,0],"sum_hessian":[7.055497E0,1.5136092E0,5.541888E0,1.0004321E0,4.541456E0,2.114643E0,2.426813E0,1.0050315E0,1.1096115E0,1.4227045E0,1.0041085E0],"tree_param":{"num_deleted":"0","num_feature":"5","num_nodes":"11","size_leaf_vector":"1"}},{"base_weights":[-1.2319752E-1,-5.023262E-1,1.1351292E-1,-6.089274E-2,-1.3545823E-2,-2.5170226E-2,2.8167662E-1,4.5446467E-1,-1.4291174E-2,9.291655E-3,5.7097953E-2],"categories":[],"categories_nodes":[],"categories_segments":[],"categories_sizes":[],"default_left":[0,0,0,0,0,0,0,0,0,0,0],"id":61,"left_children":[1,3,5,-1,-1,-1,7,9,-1,-1,-1],"loss_changes":[7.6291865E-1,4.2963147E-2,4.1839254E-1,0E0,0E0,0E0,3.8379288E-1,8.7150574E-2,0E0,0E0,0E0],"parents":[2147483647,0,0,1,1,2,2,6,6,7,7],"right_children":[2,4,6,-1,-1,-1,8,10,-1,-1,-1],"split_conditions":[7.0890164E-1,2.6435869E-2,1.0046239E1,-6.089274E-2,-1.3545823E-2,-2.5170226E-2,1.8688934E1,1.9789202E0,-1.4291174E-2,9.291655E-3,5.7097953E-2],"split_indices":[0,1,3,0,0,0,3,2,0,0,0],"split_type":[0,0,0,0,0,0,0,0,0,0,0],"sum_hessian":[6.865712E0,2.207671E0,4.6580415E0,1.1993692E0,1.0083016E0,1.3119661E0,3.3460753E0,2.3282275E0,1.0178477E0,1.0055254E0,1.3227022E0],"tree_param":{"num_deleted":"0","num_feature":"5","num_nodes":"11","size_leaf_vector":"1"}},{"base_weights":[-1.1936883E-1,-5.8054846E-2,7.2567254E-2,-2.951099E-2,1.9859424E-1,-1.0434967E-1,4.2064828E-1,-1.5733261E-3,-1.4203458E-2,6.5132596E-2,-5.014702E-3],"categories":[],"categories_nodes":[],"categories_segments":[],"categories_sizes":[],"default_left":[0,0,0,0,0,0,0,0,0,0,0],"id":62,"left_children":[1,-1,3,-1,5,7,9,-1,-1,-1,-1],"loss_changes":[7.240478E-1,0E0,3.51863E-1,0E0,4.011618E-1,7.942684E-3,3.8707203E-1,0E0,0E0,0E0,0E0],"parents":[2147483647,0,0,2,2,4,4,5,5,6,6],"right_children":[2,-1,4,-1,6,8,10,-1,-1,-1,-1],"split_conditions":[6.99022E-1,-5.8054846E-2,1.1665936E0,-2.951099E-2,1.0105761E1,7.485656E-1,1.4552913E1,-1.5733261E-3,-1.4203458E-2,6.5132596E-2,-5.014702E-3],"split_indices":[0,0,2,0,4,0,4,0,0,0,0],"split_type":[0,0,0,0,0,0,0,0,0,0,0],"sum_hessian":[6.7038183E0,1.3750892E0,5.328729E0,1.0177771E0,4.310952E0,2.0475674E0,2.2633848E0,1.0338811E0,1.0136864E0,1.2617168E0,1.001668E0],"tree_param":{"num_deleted":"0","num_feature":"5","num_nodes":"11","size_leaf_vector":"1"}},{"base_weights":[-1.1549188E-1,-5.6628536E-2,6.88526E-2,-2.8267458E-2,1.8985373E-1,-9.911333E-2,4.0582475E-1,-1.4933571E-3,-1.3492699E-2,6.3423574E-2,-4.7647227E-3],"categories":[],"categories_nodes":[],"categories_segments":[],"categories_sizes":[],"default_left":[0,0,0,0,0,0,0,0,0,0,0],"id":63,"left_children":[1,-1,3,-1,5,7,9,-1,-1,-1,-1],"loss_changes":[6.658865E-1,0E0,3.1933433E-1,0E0,3.6753446E-1,7.1709603E-3,3.614326E-1,0E0,0E0,0E0,0E0],"parents":[2147483647,0,0,2,2,4,4,5,5,6,6],"right_children":[2,-1,4,-1,6,8,10,-1,-1,-1,-1],"split_conditions":[6.99022E-1,-5.6628536E-2,1.1665936E0,-2.8267458E-2,1.0105761E1,7.485656E-1,1.4552913E1,-1.4933571E-3,-1.3492699E-2,6.3423574E-2,-4.7647227E-3],"split_indices":[0,0,2,0,4,0,4,0,0,0,0],"split_type":[0,0,0,0,0,0,0,0,0,0,0],"sum_hessian":[6.5437613E0,1.2979312E0,5.24583E0,1.001163E0,4.244667E0,2.0469496E0,2.1977174E0,1.0338567E0,1.0130928E0,1.196451E0,1.0012665E0],"tree_param":{"num_deleted":"0","num_feature":"5","num_nodes":"11","size_leaf_vector":"1"}},{"base_weights":[-1.1163216E-1,-4.716992E-2,1.07107535E-1,-2.2930795E-2,2.6611227E-1,4.3309212E-1,-1.2793139E-2,1.12168575E-2,5.319361E-2],"categories":[],"categories_nodes":[],"categories_segments":[],"categories_sizes":[],"default_left":[0,0,0,0,0,0,0,0,0],"id":64,"left_children":[1,-1,3,-1,5,7,-1,-1,-1],"loss_changes":[6.3307583E-1,0E0,3.507425E-1,0E0,3.2785457E-1,3.982222E-2,0E0,0E0,0E0],"parents":[2147483647,0,0,2,2,4,4,5,5],"right_children":[2,-1,4,-1,6,8,-1,-1,-1],"split_conditions":[7.0890164E-1,-4.716992E-2,1.0046239E1,-2.2930795E-2,1.8688934E1,2.0603223E0,-1.2793139E-2,1.12168575E-2,5.319361E-2],"split_indices":[0,0,3,0,3,2,0,0,0],"split_type":[0,0,0,0,0,0,0,0,0],"sum_hessian":[6.3964734E0,1.9802866E0,4.416187E0,1.2754656E0,3.1407213E0,2.1363328E0,1.0043886E0,1.0057383E0,1.1305945E0],"tree_param":{"num_deleted":"0","num_feature":"5","num_nodes":"9","size_leaf_vector":"1"}},{"base_weights":[-1.05050586E-1,-5.4368626E-2,6.911391E-2,-3.356103E-2,2.5659627E-1,-1.699872E-2,4.387607E-1,6.151807E-2,-8.137561E-4],"categories":[],"categories_nodes":[],"categories_segments":[],"categories_sizes":[],"default_left":[0,0,0,0,0,0,0,0,0],"id":65,"left_children":[1,-1,3,-1,5,-1,7,-1,-1],"loss_changes":[5.9155965E-1,0E0,5.472934E-1,0E0,4.4139826E-1,0E0,2.8781855E-1,0E0,0E0],"parents":[2147483647,0,0,2,2,4,4,6,6],"right_children":[2,-1,4,-1,6,-1,8,-1,-1],"split_conditions":[1.0307589E0,-5.4368626E-2,7.0351106E-1,-3.356103E-2,1.0046239E1,-1.699872E-2,1.4552913E1,6.151807E-2,-8.137561E-4],"split_indices":[2,0,0,0,3,0,4,0,0],"split_type":[0,0,0,0,0,0,0,0,0],"sum_hessian":[6.251589E0,1.1737646E0,5.0778246E0,1.3574228E0,3.7204015E0,1.1333133E0,2.5870883E0,1.5848771E0,1.0022111E0],"tree_param":{"num_deleted":"0","num_feature":"5","num_nodes":"9","size_leaf_vector":"1"}},{"base_weights":[-1.03293635E-1,-5.3013533E-2,6.6757105E-2,-1.4781938E-1,2.3910868E-1,1.1580567E-2,-3.6150675E-2,4.5909073E-2,-1.726083E-2],"categories":[],"categories_nodes":[],"categories_segments":[],"categories_sizes":[],"default_left":[0,0,0,0,0,0,0,0,0],"id":66,"left_children":[1,-1,3,5,7,-1,-1,-1,-1],"loss_changes":[5.477724E-1,0E0,2.5487947E-1,2.2563198E-1,4.1199976E-1,0E0,0E0,0E0,0E0],"parents":[2147483647,0,0,2,2,3,3,4,4],"right_children":[2,-1,4,6,8,-1,-1,-1,-1],"split_conditions":[6.99022E-1,-5.3013533E-2,1.0105761E1,2.5690112E0,1.9018446E1,1.1580567E-2,-3.6150675E-2,4.5909073E-2,-1.726083E-2],"split_indices":[0,0,4,2,3,0,0,0,0],"split_type":[0,0,0,0,0,0,0,0,0],"sum_hessian":[6.0590887E0,1.122929E0,4.9361596E0,2.262144E0,2.6740155E0,1.2178046E0,1.0443395E0,1.6678256E0,1.00619E0],"tree_param":{"num_deleted":"0","num_feature":"5","num_nodes":"9","size_leaf_vector":"1"}},{"base_weights":[-1.015698E-1,-5.2858587E-2,6.956776E-2,-3.1040072E-2,2.4445665E-1,-1.5854448E-2,4.209475E-1,5.9256036E-2,1.5310732E-4],"categories":[],"categories_nodes":[],"categories_segments":[],"categories_sizes":[],"default_left":[0,0,0,0,0,0,0,0,0],"id":67,"left_children":[1,-1,3,-1,5,-1,7,-1,-1],"loss_changes":[5.448041E-1,0E0,4.6439686E-1,0E0,3.9129922E-1,0E0,2.4719822E-1,0E0,0E0],"parents":[2147483647,0,0,2,2,4,4,6,6],"right_children":[2,-1,4,-1,6,-1,8,-1,-1],"split_conditions":[1.0307589E0,-5.2858587E-2,7.0351106E-1,-3.1040072E-2,1.0046239E1,-1.5854448E-2,1.4423876E1,5.9256036E-2,1.5310732E-4],"split_indices":[2,0,0,0,3,0,4,0,0],"split_type":[0,0,0,0,0,0,0,0,0],"sum_hessian":[5.951862E0,1.1052994E0,4.8465624E0,1.2833893E0,3.563173E0,1.1161739E0,2.446999E0,1.4435287E0,1.0034704E0],"tree_param":{"num_deleted":"0","num_feature":"5","num_nodes":"9","size_leaf_vector":"1"}},{"base_weights":[-9.959892E-2,-5.1529672E-2,6.639989E-2,-1.9316696E-1,3.1228948E-1,1.1623027E-2,-4.1028067E-2,6.149453E-2,-1.8887023E-2],"categories":[],"categories_nodes":[],"categories_segments":[],"categories_sizes":[],"default_left":[0,0,0,0,0,0,0,0,0],"id":68,"left_children":[1,-1,3,5,7,-1,-1,-1,-1],"loss_changes":[5.0211096E-1,0E0,4.2613238E-1,2.7648404E-1,6.205425E-1,0E0,0E0,0E0,0E0],"parents":[2147483647,0,0,2,2,3,3,4,4],"right_children":[2,-1,4,6,8,-1,-1,-1,-1],"split_conditions":[1.0307589E0,-5.1529672E-2,1.0105761E1,2.5690112E0,1.9124924E1,1.1623027E-2,-4.1028067E-2,6.149453E-2,-1.8887023E-2],"split_indices":[2,0,4,2,3,0,0,0,0],"split_type":[0,0,0,0,0,0,0,0,0],"sum_hessian":[5.780567E0,1.04912E0,4.731447E0,2.406016E0,2.3254313E0,1.1837599E0,1.2222561E0,1.3082939E0,1.0171374E0],"tree_param":{"num_deleted":"0","num_feature":"5","num_nodes":"9","size_leaf_vector":"1"}},{"base_weights":[-9.7234406E-2,-4.057335E-2,9.0576895E-2,-1.9040998E-2,2.3251586E-1,3.860094E-2,-8.775331E-3],"categories":[],"categories_nodes":[],"categories_segments":[],"categories_sizes":[],"default_left":[0,0,0,0,0,0,0],"id":69,"left_children":[1,-1,3,-1,5,-1,-1],"loss_changes":[4.2172596E-1,0E0,2.4159758E-1,0E0,2.175981E-1,0E0,0E0],"parents":[2147483647,0,0,2,2,4,4],"right_children":[2,-1,4,-1,6,-1,-1],"split_conditions":[7.0890164E-1,-4.057335E-2,1.0046239E1,-1.9040998E-2,1.848883E1,3.860094E-2,-8.775331E-3],"split_indices":[0,0,3,0,3,0,0],"split_type":[0,0,0,0,0,0,0],"sum_hessian":[5.6444335E0,1.6968539E0,3.9475796E0,1.2102461E0,2.7373335E0,1.7117077E0,1.0256257E0],"tree_param":{"num_deleted":"0","num_feature":"5","num_nodes":"7","size_leaf_vector":"1"}},{"base_weights":[-9.345259E-2,-4.7395468E-2,6.35458E-2,-2.7705649E-2,2.2308424E-1,-1.3758813E-2,3.8804996E-1,5.5008676E-2,1.4979048E-3],"categories":[],"categories_nodes":[],"categories_segments":[],"categories_sizes":[],"default_left":[0,0,0,0,0,0,0,0,0],"id":70,"left_children":[1,-1,3,-1,5,-1,7,-1,-1],"loss_changes":[4.210841E-1,0E0,3.6147693E-1,0E0,3.098068E-1,0E0,1.863432E-1,0E0,0E0],"parents":[2147483647,0,0,2,2,4,4,6,6],"right_children":[2,-1,4,-1,6,-1,8,-1,-1],"split_conditions":[1.0391985E0,-4.7395468E-2,7.0351106E-1,-2.7705649E-2,1.0046239E1,-1.3758813E-2,1.4348795E1,5.5008676E-2,1.4979048E-3],"split_indices":[2,0,0,0,3,0,4,0,0],"split_type":[0,0,0,0,0,0,0,0,0],"sum_hessian":[5.54466E0,1.0298529E0,4.514807E0,1.2051953E0,3.309612E0,1.0907696E0,2.2188423E0,1.2161471E0,1.0026952E0],"tree_param":{"num_deleted":"0","num_feature":"5","num_nodes":"9","size_leaf_vector":"1"}},{"base_weights":[-9.087027E-2,-4.3568235E-2,5.925133E-2,-1.7180482E-1,2.8480366E-1,1.2983294E-2,-3.896578E-2,5.773768E-2,-1.6101787E-2],"categories":[],"categories_nodes":[],"categories_segments":[],"categories_sizes":[],"default_left":[0,0,0,0,0,0,0,0,0],"id":71,"left_children":[1,-1,3,5,7,-1,-1,-1,-1],"loss_changes":[3.5756722E-1,0E0,3.275028E-1,2.650882E-1,4.9485683E-1,0E0,0E0,0E0,0E0],"parents":[2147483647,0,0,2,2,3,3,4,4],"right_children":[2,-1,4,6,8,-1,-1,-1,-1],"split_conditions":[1.0813724E0,-4.3568235E-2,1.0105761E1,2.5690112E0,1.878621E1,1.2983294E-2,-3.896578E-2,5.773768E-2,-1.6101787E-2],"split_indices":[2,0,4,2,3,0,0,0,0],"split_type":[0,0,0,0,0,0,0,0,0],"sum_hessian":[5.4089737E0,1.0636637E0,4.3453097E0,2.2641766E0,2.0811331E0,1.1189376E0,1.1452391E0,1.0783646E0,1.0027685E0],"tree_param":{"num_deleted":"0","num_feature":"5","num_nodes":"9","size_leaf_vector":"1"}},{"base_weights":[-8.752783E-2,-3.7098538E-2,8.508032E-2,-1.6828967E-2,2.1604389E-1,3.598594E-2,-7.398831E-3],"categories":[],"categories_nodes":[],"categories_segments":[],"categories_sizes":[],"default_left":[0,0,0,0,0,0,0],"id":72,"left_children":[1,-1,3,-1,5,-1,-1],"loss_changes":[3.4012154E-1,0E0,1.9341296E-1,0E0,1.7503978E-1,0E0,0E0],"parents":[2147483647,0,0,2,2,4,4],"right_children":[2,-1,4,-1,6,-1,-1],"split_conditions":[7.0890164E-1,-3.7098538E-2,1.0046239E1,-1.6828967E-2,1.848883E1,3.598594E-2,-7.398831E-3],"split_indices":[0,0,3,0,3,0,0],"split_type":[0,0,0,0,0,0,0],"sum_hessian":[5.3064866E0,1.5733823E0,3.7331047E0,1.1749549E0,2.5581496E0,1.5492041E0,1.0089456E0],"tree_param":{"num_deleted":"0","num_feature":"5","num_nodes":"7","size_leaf_vector":"1"}},{"base_weights":[-8.39327E-2,-4.21092E-2,6.2964015E-2,-1.577182E-1,2.775367E-2,1.398741E-2,-3.5872325E-2],"categories":[],"categories_nodes":[],"categories_segments":[],"categories_sizes":[],"default_left":[0,0,0,0,0,0,0],"id":73,"left_children":[1,-1,3,5,-1,-1,-1],"loss_changes":[3.3475775E-1,0E0,2.902372E-1,2.4180546E-1,0E0,0E0,0E0],"parents":[2147483647,0,0,2,2,3,3],"right_children":[2,-1,4,6,-1,-1,-1],"split_conditions":[1.0813724E0,-4.21092E-2,1.0105761E1,2.436637E0,2.775367E-2,1.398741E-2,-3.5872325E-2],"split_indices":[2,0,4,2,0,0,0],"split_type":[0,0,0,0,0,0,0],"sum_hessian":[5.2236853E0,1.0187806E0,4.2049046E0,2.2035642E0,2.0013402E0,1.0109531E0,1.1926112E0],"tree_param":{"num_deleted":"0","num_feature":"5","num_nodes":"7","size_leaf_vector":"1"}},{"base_weights":[-8.229409E-2,-4.042327E-2,5.9420742E-2,-2.42354E-2,2.0330882E-1,-1.1258102E-2,3.5184126E-2],"categories":[],"categories_nodes":[],"categories_segments":[],"categories_sizes":[],"default_left":[0,0,0,0,0,0,0],"id":74,"left_children":[1,-1,3,-1,5,-1,-1],"loss_changes":[3.0522245E-1,0E0,2.7296072E-1,0E0,2.2879575E-1,0E0,0E0],"parents":[2147483647,0,0,2,2,4,4],"right_children":[2,-1,4,-1,6,-1,-1],"split_conditions":[1.0999906E0,-4.042327E-2,7.0351106E-1,-2.42354E-2,1.0046239E1,-1.1258102E-2,3.5184126E-2],"split_indices":[2,0,0,0,3,0,0],"split_type":[0,0,0,0,0,0,0],"sum_hessian":[5.1635513E0,1.0120361E0,4.151515E0,1.1194285E0,3.0320868E0,1.0471389E0,1.9849478E0],"tree_param":{"num_deleted":"0","num_feature":"5","num_nodes":"7","size_leaf_vector":"1"}},{"base_weights":[-8.189701E-2,-3.387462E-2,7.444253E-2,-1.5402933E-2,1.9889392E-1,3.855609E-2,-1.0972596E-2],"categories":[],"categories_nodes":[],"categories_segments":[],"categories_sizes":[],"default_left":[0,0,0,0,0,0,0],"id":75,"left_children":[1,-1,3,-1,5,-1,-1],"loss_changes":[2.691415E-1,0E0,1.6131327E-1,0E0,2.3884974E-1,0E0,0E0],"parents":[2147483647,0,0,2,2,4,4],"right_children":[2,-1,4,-1,6,-1,-1],"split_conditions":[7.0890164E-1,-3.387462E-2,1.7117889E0,-1.5402933E-2,2.7904313E0,3.855609E-2,-1.0972596E-2],"split_indices":[0,0,2,0,2,0,0],"split_type":[0,0,0,0,0,0,0],"sum_hessian":[5.0744677E0,1.4785818E0,3.5958858E0,1.1842096E0,2.4116762E0,1.3474014E0,1.0642748E0],"tree_param":{"num_deleted":"0","num_feature":"5","num_nodes":"7","size_leaf_vector":"1"}},{"base_weights":[-7.812041E-2,-3.2341894E-2,7.015132E-2,-1.5551167E-2,1.9003558E-1,3.4361195E-2,-9.087011E-3],"categories":[],"categories_nodes":[],"categories_segments":[],"categories_sizes":[],"default_left":[0,0,0,0,0,0,0],"id":76,"left_children":[1,-1,3,-1,5,-1,-1],"loss_changes":[2.4133755E-1,0E0,1.5314953E-1,0E0,1.793522E-1,0E0,0E0],"parents":[2147483647,0,0,2,2,4,4],"right_children":[2,-1,4,-1,6,-1,-1],"split_conditions":[7.0890164E-1,-3.2341894E-2,1.0046239E1,-1.5551167E-2,1.8466312E1,3.4361195E-2,-9.087011E-3],"split_indices":[0,0,3,0,3,0,0],"split_type":[0,0,0,0,0,0,0],"sum_hessian":[5.011665E0,1.4430487E0,3.5686162E0,1.1349924E0,2.4336238E0,1.4290867E0,1.0045372E0],"tree_param":{"num_deleted":"0","num_feature":"5","num_nodes":"7","size_leaf_vector":"1"}},{"base_weights":[-7.4959084E-2,-3.599133E-2,5.6207944E-2,-1.4815934E-1,2.5277603E-2,1.2173074E-2,-3.4381937E-2],"categories":[],"categories_nodes":[],"categories_segments":[],"categories_sizes":[],"default_left":[0,0,0,0,0,0,0],"id":77,"left_children":[1,-1,3,5,-1,-1,-1],"loss_changes":[2.4232394E-1,0E0,2.356588E-1,2.0288524E-1,0E0,0E0,0E0],"parents":[2147483647,0,0,2,2,3,3],"right_children":[2,-1,4,6,-1,-1,-1],"split_conditions":[1.1174114E0,-3.599133E-2,1.0105761E1,2.5690112E0,2.5277603E-2,1.2173074E-2,-3.4381937E-2],"split_indices":[2,0,4,2,0,0,0],"split_type":[0,0,0,0,0,0,0],"sum_hessian":[4.9420586E0,1.008093E0,3.9339657E0,2.0494597E0,1.8845061E0,1.0201406E0,1.0293189E0],"tree_param":{"num_deleted":"0","num_feature":"5","num_nodes":"7","size_leaf_vector":"1"}},{"base_weights":[-7.365779E-2,5.873135E-2,-3.5646472E-2,-2.1304409E-1,4.2971663E-2,5.032118E-3,-3.4830805E-2],"categories":[],"categories_nodes":[],"categories_segments":[],"categories_sizes":[],"default_left":[0,0,0,0,0,0,0],"id":78,"left_children":[1,3,-1,5,-1,-1,-1],"loss_changes":[2.4173732E-1,5.831192E-1,0E0,1.4158945E-1,0E0,0E0,0E0],"parents":[2147483647,0,0,1,1,3,3],"right_children":[2,4,-1,6,-1,-1,-1],"split_conditions":[1.9629929E1,1.0735923E1,-3.5646472E-2,-4.442471E-3,4.2971663E-2,5.032118E-3,-3.4830805E-2],"split_indices":[3,4,0,1,0,0,0],"split_type":[0,0,0,0,0,0,0],"sum_hessian":[4.8973913E0,3.8754988E0,1.0218927E0,2.482563E0,1.3929355E0,1.055477E0,1.4270861E0],"tree_param":{"num_deleted":"0","num_feature":"5","num_nodes":"7","size_leaf_vector":"1"}},{"base_weights":[-7.097342E-2,-2.8424416E-2,8.519495E-2,2.6621465E-2,-8.040528E-3],"categories":[],"categories_nodes":[],"categories_segments":[],"categories_sizes":[],"default_left":[0,0,0,0,0],"id":79,"left_children":[1,-1,3,-1,-1],"loss_changes":[2.1834406E-1,0E0,1.453337E-1,0E0,0E0],"parents":[2147483647,0,0,2,2],"right_children":[2,-1,4,-1,-1],"split_conditions":[1.9145347E0,-2.8424416E-2,2.5945296E0,2.6621465E-2,-8.040528E-3],"split_indices":[2,0,2,0,0],"split_type":[0,0,0,0,0],"sum_hessian":[4.828591E0,1.6944536E0,3.1341374E0,1.2070843E0,1.9270531E0],"tree_param":{"num_deleted":"0","num_feature":"5","num_nodes":"5","size_leaf_vector":"1"}},{"base_weights":[-6.595166E-2,-2.9846463E-2,7.235646E-2,-1.4176126E-2,1.8456803E-1,3.3625174E-2,-7.822464E-3],"categories":[],"categories_nodes":[],"categories_segments":[],"categories_sizes":[],"default_left":[0,0,0,0,0,0,0],"id":80,"left_children":[1,-1,3,-1,5,-1,-1],"loss_changes":[2.0803948E-1,0E0,1.328454E-1,0E0,1.5974954E-1,0E0,0E0],"parents":[2147483647,0,0,2,2,4,4],"right_children":[2,-1,4,-1,6,-1,-1],"split_conditions":[7.0890164E-1,-2.9846463E-2,1.0046239E1,-1.4176126E-2,1.4552913E1,3.3625174E-2,-7.822464E-3],"split_indices":[0,0,3,0,4,0,0],"split_type":[0,0,0,0,0,0,0],"sum_hessian":[4.797659E0,1.3575244E0,3.4401345E0,1.0923727E0,2.3477619E0,1.3113306E0,1.0364313E0],"tree_param":{"num_deleted":"0","num_feature":"5","num_nodes":"7","size_leaf_vector":"1"}},{"base_weights":[-6.316875E-2,-2.7082248E-2,8.734181E-2,2.5652042E-2,-7.090197E-3],"categories":[],"categories_nodes":[],"categories_segments":[],"categories_sizes":[],"default_left":[0,0,0,0,0],"id":81,"left_children":[1,-1,3,-1,-1],"loss_changes":[2.0294678E-1,0E0,1.2747084E-1,0E0,0E0],"parents":[2147483647,0,0,2,2],"right_children":[2,-1,4,-1,-1],"split_conditions":[1.9145347E0,-2.7082248E-2,2.5945296E0,2.5652042E-2,-7.090197E-3],"split_indices":[2,0,2,0,0],"split_type":[0,0,0,0,0],"sum_hessian":[4.736617E0,1.6545451E0,3.0820718E0,1.1894178E0,1.892654E0],"tree_param":{"num_deleted":"0","num_feature":"5","num_nodes":"5","size_leaf_vector":"1"}},{"base_weights":[-5.8652755E-2,6.251433E-2,-3.130974E-2,-1.9404416E-1,4.171854E-2,5.10578E-3,-3.2177888E-2],"categories":[],"categories_nodes":[],"categories_segments":[],"categories_sizes":[],"default_left":[0,0,0,0,0,0,0],"id":82,"left_children":[1,3,-1,5,-1,-1,-1],"loss_changes":[1.95582E-1,5.087049E-1,0E0,1.2319806E-1,0E0,0E0,0E0],"parents":[2147483647,0,0,1,1,3,3],"right_children":[2,4,-1,6,-1,-1,-1],"split_conditions":[1.9578785E1,1.0875598E1,-3.130974E-2,-4.442471E-3,4.171854E-2,5.10578E-3,-3.2177888E-2],"split_indices":[3,4,0,1,0,0,0],"split_type":[0,0,0,0,0,0,0],"sum_hessian":[4.7089567E0,3.7008936E0,1.008063E0,2.4102676E0,1.290626E0,1.0314215E0,1.3788462E0],"tree_param":{"num_deleted":"0","num_feature":"5","num_nodes":"7","size_leaf_vector":"1"}},{"base_weights":[-5.6282967E-2,-2.6480336E-2,8.291908E-2,-7.736391E-3,2.2869876E-2],"categories":[],"categories_nodes":[],"categories_segments":[],"categories_sizes":[],"default_left":[0,0,0,0,0],"id":83,"left_children":[1,-1,3,-1,-1],"loss_changes":[1.8603238E-1,0E0,1.1469143E-1,0E0,0E0],"parents":[2147483647,0,0,2,2],"right_children":[2,-1,4,-1,-1],"split_conditions":[1.7117889E0,-2.6480336E-2,1.0105761E1,-7.736391E-3,2.2869876E-2],"split_indices":[2,0,4,0,0],"split_type":[0,0,0,0,0],"sum_hessian":[4.6526046E0,1.5013434E0,3.151261E0,1.7245017E0,1.4267594E0],"tree_param":{"num_deleted":"0","num_feature":"5","num_nodes":"5","size_leaf_vector":"1"}},{"base_weights":[-5.290152E-2,-2.7837574E-2,7.8079075E-2,-1.2736364E-2,1.8305703E-1,3.2667197E-2,-7.0792176E-3],"categories":[],"categories_nodes":[],"categories_segments":[],"categories_sizes":[],"default_left":[0,0,0,0,0,0,0],"id":84,"left_children":[1,-1,3,-1,5,-1,-1],"loss_changes":[1.8802282E-1,0E0,1.1697106E-1,0E0,1.4286013E-1,0E0,0E0],"parents":[2147483647,0,0,2,2,4,4],"right_children":[2,-1,4,-1,6,-1,-1],"split_conditions":[7.0890164E-1,-2.7837574E-2,1.0046239E1,-1.2736364E-2,1.4552913E1,3.2667197E-2,-7.0792176E-3],"split_indices":[0,0,3,0,4,0,0],"split_type":[0,0,0,0,0,0,0],"sum_hessian":[4.6306143E0,1.2880328E0,3.3425815E0,1.0582789E0,2.2843025E0,1.2757015E0,1.0086011E0],"tree_param":{"num_deleted":"0","num_feature":"5","num_nodes":"7","size_leaf_vector":"1"}},{"base_weights":[-5.0763737E-2,-2.5731677E-2,8.144006E-2,2.4960196E-2,-5.6190755E-2,-2.905469E-2,2.0816622E-2],"categories":[],"categories_nodes":[],"categories_segments":[],"categories_sizes":[],"default_left":[0,0,0,0,0,0,0],"id":85,"left_children":[1,-1,3,-1,5,-1,-1],"loss_changes":[1.7322318E-1,0E0,1.102952E-1,0E0,2.5276613E-1,0E0,0E0],"parents":[2147483647,0,0,2,2,4,4],"right_children":[2,-1,4,-1,6,-1,-1],"split_conditions":[1.6717861E0,-2.5731677E-2,2.4094818E0,2.4960196E-2,1.0105761E1,-2.905469E-2,2.0816622E-2],"split_indices":[2,0,2,0,4,0,0],"split_type":[0,0,0,0,0,0,0],"sum_hessian":[4.576107E0,1.4165493E0,3.1595578E0,1.0558832E0,2.1036747E0,1.0625972E0,1.0410775E0],"tree_param":{"num_deleted":"0","num_feature":"5","num_nodes":"7","size_leaf_vector":"1"}},{"base_weights":[-4.7615524E-2,7.185827E-2,-2.9530365E-2,-1.6644706E-1,3.943688E-2,6.0092434E-3,-2.912703E-2],"categories":[],"categories_nodes":[],"categories_segments":[],"categories_sizes":[],"default_left":[0,0,0,0,0,0,0],"id":86,"left_children":[1,3,-1,5,-1,-1,-1],"loss_changes":[1.8531306E-1,4.1495562E-1,0E0,1.1129767E-1,0E0,0E0,0E0],"parents":[2147483647,0,0,1,1,3,3],"right_children":[2,4,-1,6,-1,-1,-1],"split_conditions":[1.9491966E1,1.0875598E1,-2.9530365E-2,-4.442471E-3,3.943688E-2,6.0092434E-3,-2.912703E-2],"split_indices":[3,4,0,1,0,0,0],"split_type":[0,0,0,0,0,0,0],"sum_hessian":[4.5451384E0,3.545048E0,1.0000904E0,2.3169436E0,1.2281042E0,1.0073328E0,1.3096108E0],"tree_param":{"num_deleted":"0","num_feature":"5","num_nodes":"7","size_leaf_vector":"1"}},{"base_weights":[-4.5641277E-2,-2.6213247E-2,7.8345366E-2,-1.1405038E-2,1.8043971E-1,3.2523703E-2,-6.70228E-3],"categories":[],"categories_nodes":[],"categories_segments":[],"categories_sizes":[],"default_left":[0,0,0,0,0,0,0],"id":87,"left_children":[1,-1,3,-1,5,-1,-1],"loss_changes":[1.681036E-1,0E0,1.04364775E-1,0E0,1.3552956E-1,0E0,0E0],"parents":[2147483647,0,0,2,2,4,4],"right_children":[2,-1,4,-1,6,-1,-1],"split_conditions":[7.0890164E-1,-2.6213247E-2,1.7117889E0,-1.1405038E-2,2.725725E0,3.2523703E-2,-6.70228E-3],"split_indices":[0,0,2,0,2,0,0],"split_type":[0,0,0,0,0,0,0],"sum_hessian":[4.4976034E0,1.232083E0,3.2655206E0,1.0914974E0,2.1740232E0,1.1732396E0,1.0007836E0],"tree_param":{"num_deleted":"0","num_feature":"5","num_nodes":"7","size_leaf_vector":"1"}},{"base_weights":[-4.354314E-2,-2.5026536E-2,7.421755E-2,-1.2283452E-2,1.7470841E-1,3.0721134E-2,-5.916872E-3],"categories":[],"categories_nodes":[],"categories_segments":[],"categories_sizes":[],"default_left":[0,0,0,0,0,0,0],"id":88,"left_children":[1,-1,3,-1,5,-1,-1],"loss_changes":[1.5147585E-1,0E0,1.0560549E-1,0E0,1.1818074E-1,0E0,0E0],"parents":[2147483647,0,0,2,2,4,4],"right_children":[2,-1,4,-1,6,-1,-1],"split_conditions":[7.0890164E-1,-2.5026536E-2,1.0046239E1,-1.2283452E-2,1.4348795E1,3.0721134E-2,-5.916872E-3],"split_indices":[0,0,3,0,4,0,0],"split_type":[0,0,0,0,0,0,0],"sum_hessian":[4.4593782E0,1.2100322E0,3.2493458E0,1.0223262E0,2.2270198E0,1.2214496E0,1.0055702E0],"tree_param":{"num_deleted":"0","num_feature":"5","num_nodes":"7","size_leaf_vector":"1"}},{"base_weights":[-4.183235E-2,-2.3044951E-2,9.188867E-2,-6.794998E-3,2.3701567E-2],"categories":[],"categories_nodes":[],"categories_segments":[],"categories_sizes":[],"default_left":[0,0,0,0,0],"id":89,"left_children":[1,-1,3,-1,-1],"loss_changes":[1.5770018E-1,0E0,1.0616262E-1,0E0,0E0],"parents":[2147483647,0,0,2,2],"right_children":[2,-1,4,-1,-1],"split_conditions":[1.9145347E0,-2.3044951E-2,1.8722296E-2,-6.794998E-3,2.3701567E-2],"split_indices":[2,0,1,0,0],"split_type":[0,0,0,0,0],"sum_hessian":[4.412895E0,1.5305923E0,2.8823028E0,1.6246976E0,1.2576052E0],"tree_param":{"num_deleted":"0","num_feature":"5","num_nodes":"5","size_leaf_vector":"1"}},{"base_weights":[-3.8929235E-2,-2.2839753E-2,8.101493E-2,2.3474313E-2,-4.8286647E-2,-2.6667504E-2,1.957472E-2],"categories":[],"categories_nodes":[],"categories_segments":[],"categories_sizes":[],"default_left":[0,0,0,0,0,0,0],"id":90,"left_children":[1,-1,3,-1,5,-1,-1],"loss_changes":[1.4111985E-1,0E0,9.168092E-2,0E0,2.1340862E-1,0E0,0E0],"parents":[2147483647,0,0,2,2,4,4],"right_children":[2,-1,4,-1,6,-1,-1],"split_conditions":[1.6717861E0,-2.2839753E-2,2.4094818E0,2.3474313E-2,1.8722296E-2,-2.6667504E-2,1.957472E-2],"split_indices":[2,0,2,0,1,0,0],"split_type":[0,0,0,0,0,0,0],"sum_hessian":[4.3955083E0,1.3534108E0,3.0420973E0,1.0172302E0,2.024867E0,1.01962E0,1.0052471E0],"tree_param":{"num_deleted":"0","num_feature":"5","num_nodes":"7","size_leaf_vector":"1"}},{"base_weights":[-3.6437333E-2,7.070216E-2,-2.506871E-2,-1.5082574E-1,3.701548E-2,6.047976E-3,-2.7578516E-2],"categories":[],"categories_nodes":[],"categories_segments":[],"categories_sizes":[],"default_left":[0,0,0,0,0,0,0],"id":91,"left_children":[1,3,-1,5,-1,-1,-1],"loss_changes":[1.410112E-1,3.4508866E-1,0E0,1.0161844E-1,0E0,0E0,0E0],"parents":[2147483647,0,0,1,1,3,3],"right_children":[2,4,-1,6,-1,-1,-1],"split_conditions":[1.9394339E1,1.0875598E1,-2.506871E-2,-1.3178798E-3,3.701548E-2,6.047976E-3,-2.7578516E-2],"split_indices":[3,4,0,1,0,0,0],"split_type":[0,0,0,0,0,0,0],"sum_hessian":[4.3709064E0,3.3604522E0,1.010454E0,2.2168257E0,1.1436263E0,1.0155472E0,1.2012786E0],"tree_param":{"num_deleted":"0","num_feature":"5","num_nodes":"7","size_leaf_vector":"1"}},{"base_weights":[-3.482814E-2,-2.3787023E-2,7.8490764E-2,-1.0503775E-2,1.700378E-1,2.9849017E-2,-4.0567257E-3],"categories":[],"categories_nodes":[],"categories_segments":[],"categories_sizes":[],"default_left":[0,0,0,0,0,0,0],"id":92,"left_children":[1,-1,3,-1,5,-1,-1],"loss_changes":[1.41382E-1,0E0,8.800388E-2,0E0,9.779227E-2,0E0,0E0],"parents":[2147483647,0,0,2,2,4,4],"right_children":[2,-1,4,-1,6,-1,-1],"split_conditions":[7.0890164E-1,-2.3787023E-2,1.0193417E1,-1.0503775E-2,1.3907593E1,2.9849017E-2,-4.0567257E-3],"split_indices":[0,0,3,0,4,0,0],"split_type":[0,0,0,0,0,0,0],"sum_hessian":[4.333305E0,1.1584679E0,3.174837E0,1.007564E0,2.167273E0,1.0869946E0,1.0802785E0],"tree_param":{"num_deleted":"0","num_feature":"5","num_nodes":"7","size_leaf_vector":"1"}},{"base_weights":[-3.3186827E-2,-2.2760453E-2,8.151226E-2,-9.127349E-3,1.7308187E-1,-4.9396013E-3,3.0893562E-2],"categories":[],"categories_nodes":[],"categories_segments":[],"categories_sizes":[],"default_left":[0,0,0,0,0,0,0],"id":93,"left_children":[1,-1,3,-1,5,-1,-1],"loss_changes":[1.3657439E-1,0E0,8.011462E-2,0E0,1.06000915E-1,0E0,0E0],"parents":[2147483647,0,0,2,2,4,4],"right_children":[2,-1,4,-1,6,-1,-1],"split_conditions":[1.5449318E0,-2.2760453E-2,8.538325E0,-9.127349E-3,2.586828E-2,-4.9396013E-3,3.0893562E-2],"split_indices":[2,0,4,0,1,0,0],"split_type":[0,0,0,0,0,0,0],"sum_hessian":[4.292569E0,1.2275242E0,3.0650449E0,1.062816E0,2.002229E0,1.0003808E0,1.0018482E0],"tree_param":{"num_deleted":"0","num_feature":"5","num_nodes":"7","size_leaf_vector":"1"}},{"base_weights":[-3.1121615E-2,-2.2826297E-2,7.788066E-2,-9.0085715E-3,1.6525222E-1,3.0305147E-2,-5.4481607E-3],"categories":[],"categories_nodes":[],"categories_segments":[],"categories_sizes":[],"default_left":[0,0,0,0,0,0,0],"id":94,"left_children":[1,-1,3,-1,5,-1,-1],"loss_changes":[1.3104934E-1,0E0,7.564337E-2,0E0,1.09655E-1,0E0,0E0],"parents":[2147483647,0,0,2,2,4,4],"right_children":[2,-1,4,-1,6,-1,-1],"split_conditions":[7.0890164E-1,-2.2826297E-2,1.7117889E0,-9.0085715E-3,2.5945296E0,3.0305147E-2,-5.4481607E-3],"split_indices":[0,0,2,0,2,0,0],"split_type":[0,0,0,0,0,0,0],"sum_hessian":[4.2712E0,1.1312006E0,3.1399999E0,1.0638157E0,2.076184E0,1.042953E0,1.033231E0],"tree_param":{"num_deleted":"0","num_feature":"5","num_nodes":"7","size_leaf_vector":"1"}},{"base_weights":[-2.9505936E-2,7.176352E-2,-2.286359E-2,-1.3718869E-1,3.505556E-2,5.806327E-3,-2.5773877E-2],"categories":[],"categories_nodes":[],"categories_segments":[],"categories_sizes":[],"default_left":[0,0,0,0,0,0,0],"id":95,"left_children":[1,3,-1,5,-1,-1,-1],"loss_changes":[1.2211792E-1,2.948561E-1,0E0,8.887319E-2,0E0,0E0,0E0],"parents":[2147483647,0,0,1,1,3,3],"right_children":[2,4,-1,6,-1,-1,-1],"split_conditions":[1.9255424E1,1.0875598E1,-2.286359E-2,2.5341602E-3,3.505556E-2,5.806327E-3,-2.5773877E-2],"split_indices":[3,4,0,1,0,0,0],"split_type":[0,0,0,0,0,0,0],"sum_hessian":[4.2420583E0,3.2359827E0,1.0060755E0,2.1399937E0,1.095989E0,1.0147598E0,1.1252339E0],"tree_param":{"num_deleted":"0","num_feature":"5","num_nodes":"7","size_leaf_vector":"1"}},{"base_weights":[-2.8212648E-2,-2.122107E-2,7.995594E-2,-8.855249E-3,1.6917784E-2],"categories":[],"categories_nodes":[],"categories_segments":[],"categories_sizes":[],"default_left":[0,0,0,0,0],"id":96,"left_children":[1,-1,3,-1,-1],"loss_changes":[1.206764E-1,0E0,7.523881E-2,0E0,0E0],"parents":[2147483647,0,0,2,2],"right_children":[2,-1,4,-1,-1],"split_conditions":[1.5449318E0,-2.122107E-2,8.538325E0,-8.855249E-3,1.6917784E-2],"split_indices":[2,0,4,0,0],"split_type":[0,0,0,0,0],"sum_hessian":[4.2107663E0,1.202843E0,3.0079236E0,1.0438896E0,1.9640338E0],"tree_param":{"num_deleted":"0","num_feature":"5","num_nodes":"5","size_leaf_vector":"1"}},{"base_weights":[-2.8020304E-2,-2.2020232E-2,7.733745E-2,2.1397328E-2,-3.627296E-2,-1.0975744E-2,5.731235E-3],"categories":[],"categories_nodes":[],"categories_segments":[],"categories_sizes":[],"default_left":[0,0,0,0,0,0,0],"id":97,"left_children":[1,-1,3,-1,5,-1,-1],"loss_changes":[1.22207165E-1,0E0,7.1332484E-2,0E0,2.7547883E-2,0E0,0E0],"parents":[2147483647,0,0,2,2,4,4],"right_children":[2,-1,4,-1,6,-1,-1],"split_conditions":[7.0890164E-1,-2.2020232E-2,7.625473E-1,2.1397328E-2,8.378015E-1,-1.0975744E-2,5.731235E-3],"split_indices":[0,0,0,0,0,0,0],"split_type":[0,0,0,0,0,0,0],"sum_hessian":[4.194487E0,1.0992723E0,3.0952146E0,1.0041541E0,2.0910606E0,1.0745236E0,1.016537E0],"tree_param":{"num_deleted":"0","num_feature":"5","num_nodes":"7","size_leaf_vector":"1"}},{"base_weights":[-2.6485778E-2,-2.1218663E-2,7.292038E-2,-8.747451E-3,1.576128E-1,2.8511737E-2,-4.7121886E-3],"categories":[],"categories_nodes":[],"categories_segments":[],"categories_sizes":[],"default_left":[0,0,0,0,0,0,0],"id":98,"left_children":[1,-1,3,-1,5,-1,-1],"loss_changes":[1.10966116E-1,0E0,6.966762E-2,0E0,9.3029134E-2,0E0,0E0],"parents":[2147483647,0,0,2,2,4,4],"right_children":[2,-1,4,-1,6,-1,-1],"split_conditions":[7.0351106E-1,-2.1218663E-2,1.7117889E0,-8.747451E-3,2.5945296E0,2.8511737E-2,-4.7121886E-3],"split_indices":[0,0,2,0,2,0,0],"split_type":[0,0,0,0,0,0,0],"sum_hessian":[4.1730433E0,1.0594118E0,3.1136312E0,1.0645955E0,2.0490358E0,1.0207283E0,1.0283074E0],"tree_param":{"num_deleted":"0","num_feature":"5","num_nodes":"7","size_leaf_vector":"1"}},{"base_weights":[-2.5161015E-2,-1.9228697E-2,8.218289E-2,2.464899E-2,-1.8989889E-2],"categories":[],"categories_nodes":[],"categories_segments":[],"categories_sizes":[],"default_left":[0,0,0,0,0],"id":99,"left_children":[1,-1,3,-1,-1],"loss_changes":[1.08147435E-1,0E0,2.182459E-1,0E0,0E0],"parents":[2147483647,0,0,2,2],"right_children":[2,-1,4,-1,-1],"split_conditions":[8.053316E0,-1.9228697E-2,1.9124924E1,2.464899E-2,-1.8989889E-2],"split_indices":[4,0,3,0,0],"split_type":[0,0,0,0,0],"sum_hessian":[4.147435E0,1.3125623E0,2.8348727E0,1.8261447E0,1.0087279E0],"tree_param":{"num_deleted":"0","num_feature":"5","num_nodes":"5","size_leaf_vector":"1"}}]},"name":"gbtree"},"learner_model_param":{"base_score":"[5E-1]","boost_from_average":"1","num_class":"0","num_feature":"5","num_target":"1"},"objective":{"name":"binary:logistic","reg_loss_param":{"scale_pos_weight":"1"}}},"version":[3,2,0]}